// nn_weights.h - auto-generated
// Parameters: 15439

#ifndef NN_WEIGHTS_H
#define NN_WEIGHTS_H

#define NN_INPUT_SIZE  35
#define NN_HIDDEN1     128
#define NN_HIDDEN2     64
#define NN_HIDDEN3     32
#define NN_OUT_FWD      3
#define NN_OUT_SIDE     3
#define NN_OUT_TURN     5
#define NN_OUT_FIRE     2
#define NN_OUT_USE      2

static const float scaler_mean[35] = {
     0.49880054f,  0.48124392f, -0.00341521f,  0.00495692f,  0.24363186f,  0.15649115f,  0.12675747f,  0.10597150f,
     0.09759344f,  0.09753400f,  0.10895796f,  0.11862489f,  0.13279264f,  0.14171410f,  0.14011978f,  0.13303024f,
     0.12141432f,  0.11713420f,  0.11194536f,  0.11613994f,  0.13523975f,  0.03559700f,  0.01197681f,  1.00000000f,
     0.03315791f,  0.00018361f,  1.00000000f,  0.03002128f,  0.00339426f,  1.00000000f,  0.79747975f,  0.50000000f,
     0.47409991f,  0.01179118f,  0.00468047f
};

static const float scaler_scale[35] = {
     0.30680434f,  0.03088262f,  0.11937382f,  0.11291064f,  0.02748570f,  0.12776465f,  0.11506962f,  0.11083043f,
     0.10847819f,  0.10628250f,  0.11247933f,  0.11228349f,  0.11988220f,  0.11719730f,  0.12146212f,  0.12080652f,
     0.11519371f,  0.11734222f,  0.11237434f,  0.10915812f,  0.11882682f,  0.26180618f,  0.29439062f,  1.00000000f,
     0.32503568f,  0.32576754f,  1.00000000f,  0.35763897f,  0.34527022f,  1.00000000f,  0.28324490f,  1.00000000f,
     0.33703114f,  0.10794511f,  0.06825365f
};

// Layer 1: 35 -> 128
static const float layer1_weight[4480] = {
    -0.06564005f, -0.16787799f,  0.26629874f, -0.06418185f, -0.08158771f,  0.15874518f,  0.16249253f, -0.20358890f,
     0.05597709f, -0.09794895f, -0.06913853f,  0.08267234f, -0.13083032f,  0.02379030f, -0.00889175f, -0.16573671f,
    -0.22104271f,  0.08781684f,  0.06064681f, -0.24536365f,  0.08431959f,  0.10082054f,  0.02860356f, -0.12417283f,
     0.09809943f, -0.12626828f, -0.05710854f, -0.06697390f, -0.17228554f,  0.16675377f,  0.27380082f, -0.15079816f,
     0.02709563f,  0.14318010f, -0.29639632f, -0.02179348f, -0.15872099f,  0.02359396f,  0.03714542f,  0.13010444f,
    -0.05337940f,  0.06807212f, -0.07416899f, -0.04904136f,  0.15504290f,  0.16305694f,  0.00024138f, -0.05057275f,
     0.09559458f, -0.05697524f, -0.07975362f, -0.10881567f,  0.03044697f,  0.08929133f,  0.02627611f,  0.21271190f,
     0.02644838f, -0.01030505f,  0.13092965f, -0.06340424f,  0.10238060f,  0.04806150f,  0.10107316f,  0.13089679f,
     0.06903273f, -0.29068658f, -0.13057260f,  0.27397212f,  0.12169672f, -0.11526584f,  0.07597841f,  0.18621625f,
     0.10226160f,  0.14628941f,  0.02806408f, -0.06026520f,  0.04100771f,  0.12296635f,  0.00996085f,  0.02386108f,
     0.01210641f,  0.09540737f, -0.02277431f,  0.13380581f,  0.07426114f,  0.03760566f,  0.06564265f, -0.19416441f,
    -0.01889157f, -0.16910730f,  0.01447495f, -0.01315034f,  0.06117056f,  0.05662169f, -0.02679045f, -0.12816460f,
     0.11505255f,  0.00272318f,  0.00280403f, -0.14582726f,  0.19002916f, -0.04796142f, -0.09956329f, -0.02418585f,
     0.20864685f,  0.13939400f,  0.11284272f, -0.46728602f, -0.17680968f,  0.02739729f,  0.13201612f, -0.04962475f,
     0.10218859f,  0.17844561f,  0.01475967f,  0.09860845f, -0.13732061f,  0.02661318f,  0.02083275f, -0.15414982f,
    -0.04485554f,  0.11694824f, -0.02496055f, -0.18475962f, -0.02510552f, -0.03998543f, -0.05001534f, -0.20809692f,
    -0.05828937f,  0.01291117f, -0.13883445f, -0.16319126f, -0.16765678f,  0.00072054f, -0.00365776f,  0.28803757f,
     0.07650390f,  0.01711056f, -0.07934062f, -0.19971511f, -0.03877957f,  0.22243802f,  0.05790127f, -0.09944380f,
     0.11535603f,  0.07018412f,  0.02507469f,  0.11789673f, -0.16004275f,  0.04325041f, -0.10528943f, -0.07570533f,
    -0.14649072f, -0.28221053f,  0.00760782f,  0.16490662f, -0.07139576f,  0.17614995f,  0.02517480f, -0.09734192f,
     0.06864326f,  0.08829234f, -0.07204957f, -0.04469069f, -0.01147080f,  0.12569144f, -0.15039125f, -0.06612200f,
     0.09826779f, -0.00717320f, -0.08379298f, -0.01735035f,  0.27995685f,  0.14817503f, -0.18903565f,  0.12976801f,
     0.02605603f, -0.21486850f,  0.22591434f, -0.09227736f, -0.01148235f,  0.05645745f, -0.10108534f, -0.06181601f,
    -0.19687848f,  0.02559394f,  0.07981009f, -0.09954157f, -0.06969465f, -0.08208918f, -0.11759873f, -0.02831870f,
    -0.11341592f, -0.02421910f,  0.12818921f, -0.06083324f,  0.04414820f,  0.17564349f,  0.01662885f,  0.15846501f,
    -0.03307031f, -0.16897455f,  0.02015640f,  0.06895310f, -0.13050738f, -0.33363098f,  0.08045770f,  0.25358585f,
     0.02414432f,  0.09168579f,  0.21366897f, -0.03862069f,  0.03718916f,  0.13251315f, -0.13485563f, -0.17569283f,
    -0.07826047f, -0.07500741f, -0.04346148f, -0.00681462f, -0.00605033f, -0.21683912f, -0.23546919f, -0.06919669f,
    -0.04714916f,  0.10592355f,  0.11531934f,  0.10339059f, -0.10676194f,  0.08902403f, -0.02726334f, -0.03916056f,
     0.08251085f,  0.05797133f, -0.07479462f, -0.06913738f, -0.13335483f,  0.18104950f,  0.01198336f,  0.14876649f,
     0.01901360f, -0.06848868f, -0.20352022f,  0.05344864f,  0.20699541f,  0.09071871f, -0.01692697f, -0.04768805f,
    -0.04542569f,  0.00408460f, -0.15194130f, -0.03759579f,  0.02789850f, -0.01679935f,  0.17446172f, -0.10563871f,
    -0.08806521f, -0.02641455f,  0.14524083f, -0.08315602f, -0.01834561f, -0.14789476f, -0.02463865f,  0.12920114f,
     0.10667012f,  0.00727313f, -0.02544707f, -0.02002393f,  0.00301421f, -0.02424179f, -0.22278851f,  0.02640592f,
    -0.05395987f,  0.01815186f,  0.02443753f, -0.20934312f,  0.11245498f,  0.56644070f, -0.13650636f, -0.02162233f,
     0.15661855f, -0.04139433f, -0.00072100f, -0.16614531f,  0.21117403f,  0.07940897f, -0.06396347f, -0.14552228f,
    -0.01993828f,  0.05286335f, -0.01702587f,  0.05613815f,  0.18953615f,  0.05979136f, -0.14457574f,  0.02398849f,
    -0.06875423f, -0.21972220f,  0.09125671f, -0.08470027f, -0.19633257f,  0.01415404f,  0.00886249f, -0.04000273f,
    -0.02449284f, -0.09300549f,  0.12366328f, -0.06052230f,  0.02383297f,  0.06385316f, -0.00005812f, -0.10121705f,
     0.04327490f, -0.19208692f, -0.19462781f, -0.00241965f,  0.11078204f, -0.05079608f,  0.07460780f,  0.02609790f,
     0.05900639f,  0.01450889f,  0.06942219f,  0.07615377f,  0.05577942f,  0.04549385f, -0.08940933f, -0.13075598f,
     0.03265582f,  0.05074646f, -0.03823742f, -0.15994027f, -0.10155874f,  0.07020824f,  0.04116458f,  0.10603346f,
    -0.09000077f,  0.14298531f,  0.16075221f,  0.02212349f, -0.07863719f, -0.01585488f,  0.13052879f, -0.01221732f,
    -0.08678315f,  0.32202727f,  0.12919039f,  0.34526628f, -0.24046880f,  0.21067546f,  0.10011018f,  0.04887749f,
    -0.06694762f,  0.05597662f, -0.09331127f,  0.02673931f, -0.16135424f,  0.07413444f, -0.11947063f,  0.08482472f,
     0.01188368f,  0.07132649f,  0.02474425f, -0.02300978f, -0.04124491f,  0.06958613f,  0.01604638f, -0.11849459f,
     0.16074421f, -0.12407727f,  0.11059353f, -0.06275278f,  0.00319258f,  0.08284196f, -0.10489774f,  0.13820323f,
    -0.12768808f, -0.18218517f, -0.07431888f,  0.02676226f, -0.28212214f,  0.05964492f,  0.11594219f, -0.08030055f,
     0.05463860f, -0.03634689f,  0.04150348f, -0.10611799f, -0.07723130f, -0.07241039f,  0.01465143f, -0.15354568f,
    -0.00188695f,  0.08582345f, -0.02949323f,  0.04677726f,  0.08374300f,  0.14781131f,  0.02431122f,  0.11989030f,
     0.07346084f, -0.01307757f, -0.20065141f,  0.07306127f, -0.05909055f, -0.05641486f, -0.08015063f, -0.15303767f,
     0.14746484f, -0.00603549f, -0.09817392f,  0.14974907f,  0.00356324f,  0.11080848f,  0.09035188f, -0.26955763f,
     0.03452009f, -0.28489736f,  0.07866133f,  0.10933504f,  0.16573790f,  0.12904394f,  0.10493451f, -0.06361000f,
    -0.14176229f,  0.09683043f, -0.00140921f,  0.24197166f,  0.21795993f,  0.08889133f, -0.17131485f,  0.20401609f,
    -0.20720530f,  0.13383283f,  0.06156108f,  0.04300648f, -0.05196544f, -0.05346948f, -0.09066407f,  0.13358940f,
    -0.00220457f, -0.14006063f,  0.16684563f, -0.02843298f, -0.11869682f,  0.19821657f, -0.08435473f,  0.04937876f,
     0.28098583f,  0.14006323f, -0.04650812f,  0.04155302f, -0.18331178f, -0.11359310f, -0.23465827f,  0.21580556f,
    -0.00127556f, -0.28331724f,  0.04452976f, -0.04260175f, -0.09315412f,  0.11039343f,  0.06198305f, -0.11216135f,
    -0.06006499f, -0.13870029f,  0.00182628f, -0.10056796f,  0.01699004f, -0.05518031f,  0.15794575f,  0.11509551f,
     0.07645717f,  0.16064040f, -0.06097931f, -0.13415086f, -0.27708134f,  0.03690948f,  0.06378904f, -0.00993535f,
     0.17262356f, -0.08494641f, -0.16199644f,  0.22296797f, -0.11231384f, -0.06472356f,  0.09438676f, -0.04473316f,
    -0.05580552f,  0.00954172f,  0.04865784f, -0.18436676f, -0.07701772f,  0.03707607f, -0.01186299f,  0.05758783f,
     0.00139663f, -0.19444686f, -0.12288473f, -0.17671272f,  0.17255335f,  0.11964415f,  0.02966780f, -0.21757250f,
    -0.12142160f, -0.02705451f, -0.09892190f, -0.05755221f,  0.01193052f,  0.04183262f, -0.04933657f,  0.02586917f,
    -0.01926543f,  0.10727778f, -0.08328302f,  0.03490918f,  0.01100549f,  0.08964834f,  0.01754231f,  0.06622045f,
    -0.12562616f, -0.07825627f,  0.01349475f,  0.02434076f,  0.07018981f, -0.19661301f,  0.07731976f, -0.06793559f,
     0.06655157f,  0.17942871f, -0.04390253f,  0.05996024f,  0.17601077f,  0.10230447f,  0.16695732f, -0.22711696f,
    -0.03685146f, -0.10282744f,  0.06114830f,  0.17380744f,  0.08044686f, -0.11747309f,  0.05111505f, -0.00200336f,
    -0.15564713f, -0.05196037f,  0.03340915f, -0.03984079f, -0.02163269f,  0.14816642f, -0.06907062f,  0.01243564f,
    -0.14505622f, -0.00260096f, -0.04173288f, -0.29443020f, -0.16609684f, -0.24424560f,  0.05394676f,  0.07779226f,
     0.10336782f,  0.08897867f, -0.19972782f,  0.02352457f, -0.08334485f, -0.05014960f, -0.05635859f, -0.02634845f,
    -0.04764993f,  0.02256699f,  0.12863925f, -0.20915066f, -0.01638281f,  0.01202364f,  0.00941279f,  0.12109451f,
    -0.09646199f, -0.00024427f,  0.11337572f,  0.19982886f, -0.00645362f,  0.02044723f,  0.16879807f, -0.02395691f,
     0.08526161f, -0.03549828f,  0.14913973f,  0.21542506f,  0.15775886f,  0.15741268f,  0.19204180f, -0.00232472f,
    -0.28967667f, -0.17617774f,  0.16537023f, -0.11317481f,  0.01687340f, -0.23592786f, -0.04056863f, -0.00618076f,
     0.07172638f,  0.03444530f, -0.18505935f, -0.14550564f, -0.07779881f, -0.00317042f, -0.09628461f, -0.02849292f,
    -0.02270639f, -0.07455484f, -0.15487722f, -0.18381976f,  0.12936516f,  0.01207277f, -0.07183481f,  0.04098037f,
    -0.03790621f, -0.03712779f, -0.14615361f, -0.06122749f,  0.10853297f, -0.12200062f, -0.16405588f, -0.07681174f,
    -0.10372950f,  0.18599187f,  0.04423624f, -0.22289301f,  0.06486369f,  0.01561719f,  0.05123049f,  0.08245191f,
     0.00001197f,  0.05062860f, -0.23806371f,  0.05508744f, -0.17954378f, -0.00707277f,  0.13248357f, -0.07961048f,
     0.17539063f, -0.02993432f,  0.13245653f,  0.12099956f, -0.07196025f,  0.18032719f,  0.02497067f,  0.12476908f,
     0.16489060f,  0.04371164f, -0.08121099f, -0.01218005f,  0.17441612f, -0.08473165f,  0.07152621f, -0.01699801f,
    -0.14647023f,  0.10601097f, -0.02669681f,  0.16850138f,  0.08574902f,  0.14041823f, -0.17372952f, -0.01403375f,
     0.02261824f,  0.02941633f,  0.07547645f,  0.31755179f,  0.10054000f,  0.12971504f,  0.23848687f, -0.11031631f,
     0.23436393f,  0.07548532f,  0.16161557f, -0.01258217f, -0.15389581f,  0.03457838f,  0.16115548f, -0.17336899f,
    -0.11013348f, -0.15172055f, -0.10895067f, -0.06471745f, -0.06984469f, -0.10816886f,  0.06052253f, -0.02062887f,
    -0.04528898f, -0.06806188f,  0.13660799f,  0.01795152f, -0.22999594f,  0.09755340f, -0.05727612f, -0.20087638f,
     0.15913022f, -0.22501718f, -0.09441774f,  0.01737127f,  0.04301896f,  0.05555505f, -0.00326540f,  0.11050894f,
     0.04559151f, -0.09318725f,  0.11624282f, -0.02840956f, -0.01457816f,  0.08664446f,  0.15720926f,  0.01771257f,
    -0.07687112f,  0.05664342f,  0.02707762f, -0.00249553f,  0.17045476f, -0.09634688f,  0.02200579f,  0.07243881f,
    -0.12924746f, -0.23521207f, -0.14795665f,  0.16490462f, -0.11240071f, -0.10345201f, -0.15554829f,  0.02681750f,
     0.01979959f,  0.13968873f, -0.43209887f,  0.04174171f, -0.20575015f, -0.00479962f,  0.00342295f, -0.03148454f,
     0.09720928f, -0.08033999f, -0.14512160f, -0.09551788f, -0.08185393f,  0.03194273f, -0.16185738f, -0.08468384f,
    -0.10587393f,  0.06909321f, -0.11331573f,  0.05245825f,  0.05197847f, -0.02152177f,  0.09131661f,  0.09220008f,
    -0.18383667f, -0.07298234f,  0.12363386f,  0.12470677f,  0.08780845f,  0.21545169f, -0.11199088f,  0.05310195f,
    -0.13239871f,  0.04348046f,  0.00854825f,  0.12420049f,  0.13526696f, -0.09716172f, -0.14865156f, -0.50138736f,
    -0.04918235f, -0.20330197f, -0.05239307f, -0.09364212f,  0.06647605f,  0.01859765f, -0.07369127f, -0.00770833f,
    -0.04565530f, -0.00301527f, -0.02174429f, -0.04290958f,  0.05562345f,  0.06673954f,  0.03940849f, -0.02567795f,
    -0.02906138f, -0.06803744f, -0.11179122f,  0.07621650f, -0.09655067f,  0.14193439f,  0.09389379f, -0.16806838f,
     0.13102606f, -0.01950072f, -0.04763094f,  0.02228124f,  0.07071814f,  0.04359268f, -0.14800800f,  0.10709158f,
    -0.01471881f, -0.10769185f,  0.54026651f, -0.17266476f, -0.15897939f, -0.07960499f,  0.05817167f, -0.03755870f,
    -0.05216115f,  0.04704221f,  0.04874172f, -0.03842600f,  0.07227144f, -0.04445853f,  0.09641618f,  0.09774944f,
    -0.15377170f, -0.09504304f, -0.23506972f,  0.06848466f, -0.17160596f,  0.03146095f,  0.14460146f,  0.03735841f,
     0.01841707f,  0.04777360f,  0.09527180f,  0.06612331f, -0.15556459f, -0.00491320f,  0.04553637f,  0.02373488f,
    -0.19599997f, -0.05581417f,  0.06489490f,  0.17356558f,  0.03475964f, -0.20175812f,  0.21398644f,  0.03654156f,
     0.06320421f, -0.04369028f,  0.02033143f,  0.01553863f,  0.24022724f,  0.00629022f,  0.14852442f,  0.06207847f,
     0.04905145f, -0.03504990f, -0.05534448f, -0.06456913f,  0.11762513f, -0.22870521f, -0.04772567f, -0.20748252f,
    -0.09357020f, -0.20719059f, -0.16957010f, -0.08303837f,  0.17548868f, -0.16641085f, -0.21912733f,  0.15822232f,
     0.08185027f,  0.05112336f, -0.07246608f,  0.09624554f, -0.15076536f,  0.04568137f,  0.24168243f,  0.16093260f,
     0.20161323f, -0.24795790f, -0.26073799f,  0.18254657f,  0.12481820f,  0.15830044f, -0.26427406f,  0.19193801f,
    -0.09172542f, -0.08862357f, -0.20487089f,  0.09813732f,  0.06719732f, -0.06347334f, -0.10802656f,  0.08672160f,
     0.06953355f,  0.09672520f, -0.13022184f,  0.04438056f, -0.19314738f, -0.21333961f, -0.21046492f,  0.05866469f,
    -0.07162932f,  0.15264161f, -0.10442711f,  0.06182940f,  0.01963429f,  0.08686289f,  0.17590876f, -0.15802200f,
     0.06248248f,  0.11524664f,  0.09961405f, -0.00039465f,  0.19092421f,  0.17390384f, -0.08280195f,  0.10964799f,
    -0.20654671f,  0.10290360f,  0.15076858f, -0.02121587f,  0.18430029f,  0.20265342f,  0.05138551f,  0.00946853f,
     0.09720246f,  0.04404990f,  0.12639880f, -0.03693757f,  0.09303895f,  0.05060792f, -0.18839595f,  0.12077499f,
     0.07602196f, -0.16608189f, -0.10519374f, -0.05127854f,  0.29258415f, -0.05839016f, -0.16950431f, -0.07891092f,
    -0.00797696f, -0.03068639f,  0.06586308f,  0.15242961f, -0.16220327f, -0.05893157f,  0.55351239f,  0.01412998f,
    -0.17711772f,  0.00955714f,  0.02596955f, -0.11949407f,  0.02808796f, -0.04678329f,  0.13713646f, -0.12218800f,
     0.09500352f,  0.10720669f,  0.13398340f,  0.10222913f,  0.10721866f,  0.07052709f,  0.07557413f, -0.07786027f,
     0.01034321f,  0.03234950f, -0.13314147f, -0.21835181f,  0.00216765f,  0.13780062f,  0.01800986f,  0.12837550f,
    -0.14075479f, -0.03879689f,  0.09595281f,  0.07715133f, -0.08161273f,  0.04082842f, -0.15232462f, -0.36598468f,
     0.07001497f,  0.39243495f,  0.13446809f,  0.08323853f,  0.09080535f, -0.10170919f, -0.02082126f,  0.02029280f,
    -0.07945801f, -0.11589510f,  0.06189239f,  0.13478230f, -0.08028885f, -0.17348441f,  0.08810215f, -0.12839463f,
     0.01824977f, -0.11499055f, -0.01048522f,  0.05929497f,  0.08599450f,  0.05158005f, -0.11785878f, -0.06923299f,
     0.01831466f,  0.01494383f, -0.00013445f,  0.10454905f, -0.09609734f, -0.13239156f,  0.02651489f, -0.05321650f,
     0.15428784f,  0.01529385f, -0.11120065f, -0.11479957f,  0.54548705f,  0.08572050f, -0.03507520f,  0.03369667f,
    -0.04264549f, -0.14425342f, -0.04685450f, -0.09226153f,  0.03112740f, -0.10336316f,  0.03272104f,  0.07670463f,
     0.02530196f,  0.02392893f,  0.13941082f,  0.00302812f, -0.03206653f, -0.00985247f, -0.09813039f,  0.05386358f,
    -0.06836016f,  0.11207125f,  0.02683905f,  0.00202531f, -0.07612644f, -0.01051809f,  0.12495115f,  0.13623776f,
    -0.14640369f, -0.14610596f,  0.05303613f, -0.01772818f, -0.06985896f, -0.28905529f, -0.08841478f,  0.52877849f,
    -0.21512567f,  0.05382453f,  0.20419191f, -0.09796612f,  0.00768493f,  0.03237234f, -0.01734861f, -0.25869375f,
    -0.11451510f, -0.18472032f, -0.08669454f, -0.07488428f,  0.04471796f,  0.10997461f,  0.12439752f,  0.02001011f,
     0.13469121f, -0.10049535f,  0.11940837f, -0.09817708f, -0.15293351f, -0.12357359f, -0.02563857f,  0.17186378f,
     0.00648979f, -0.14160326f, -0.13644554f,  0.09653892f, -0.04847082f,  0.08405843f, -0.11338051f,  0.09110093f,
    -0.20499077f, -0.02344130f, -0.07868516f, -0.16249490f,  0.06747557f,  0.03603517f, -0.07270793f, -0.37929940f,
    -0.17549160f,  0.08801814f,  0.16603348f,  0.22482863f, -0.08411417f, -0.16351430f,  0.07315388f, -0.00174466f,
    -0.08501626f,  0.08489374f,  0.20019479f, -0.02717200f, -0.31223595f, -0.19635396f,  0.17563951f,  0.02907650f,
    -0.00114169f,  0.03662381f, -0.01892567f, -0.00821740f,  0.07208498f, -0.10345336f, -0.12757404f,  0.07477194f,
     0.00887860f, -0.08365218f,  0.13144997f,  0.26990515f, -0.11374494f, -0.09050035f,  0.02086223f,  0.03570856f,
     0.10991229f,  0.01549139f, -0.04375310f, -0.00414949f, -0.20181900f, -0.08165708f,  0.13252349f, -0.07413430f,
     0.15487456f,  0.01834756f, -0.12142624f,  0.01995828f,  0.05862419f, -0.08974639f, -0.14078116f,  0.07094684f,
    -0.09506940f, -0.12514180f,  0.02018407f, -0.01480324f, -0.01117488f, -0.19739725f,  0.14185189f,  0.05281404f,
     0.02605451f, -0.04781767f,  0.12599078f,  0.04049817f, -0.04152223f, -0.00595945f,  0.27835312f, -0.02824940f,
     0.49053144f, -0.15864140f,  0.04713408f, -0.06620928f, -0.20060271f,  0.17528448f,  0.15007727f, -0.11662506f,
    -0.10034940f, -0.10081696f, -0.18121749f, -0.07801404f,  0.09880994f, -0.17680240f,  0.12097859f,  0.19871844f,
    -0.15279467f,  0.09083858f,  0.05350411f,  0.16257475f, -0.14237483f,  0.19512337f,  0.23990525f, -0.09680989f,
    -0.18608271f,  0.14568618f, -0.07878409f, -0.11377528f, -0.11575495f, -0.06953094f,  0.02962229f,  0.06288528f,
     0.16744271f,  0.11327963f,  0.02672110f,  0.07355966f, -0.07751748f, -0.22456203f,  0.10360374f,  0.01596075f,
     0.16862310f, -0.08224746f,  0.26077506f,  0.18049516f,  0.12536530f, -0.03713013f,  0.07895145f,  0.15277988f,
     0.21223916f, -0.06926698f, -0.03626401f, -0.13847086f,  0.06087157f,  0.10524353f,  0.17819761f, -0.09560276f,
    -0.03461565f, -0.02831036f,  0.21399720f, -0.13843539f,  0.05770669f, -0.08720405f, -0.04055621f,  0.04184969f,
    -0.16358234f, -0.05342539f,  0.06823806f, -0.13807987f,  0.21606353f,  0.07806300f, -0.35035336f,  0.09406292f,
    -0.19881225f, -0.09940058f, -0.04069170f, -0.15483768f,  0.05517220f,  0.02527794f, -0.07282903f,  0.04637295f,
    -0.08596449f,  0.09757891f, -0.19284308f, -0.05288059f, -0.16524011f,  0.11355864f,  0.00622388f, -0.13046150f,
    -0.12535030f,  0.11811969f,  0.13194507f,  0.20201783f, -0.05240471f,  0.19886725f, -0.14699234f,  0.12776408f,
    -0.06099863f,  0.13047577f,  0.00182380f,  0.05323346f,  0.14526272f,  0.08017062f,  0.15278319f, -0.21434231f,
    -0.09235917f, -0.11875811f, -0.14913677f,  0.09038753f, -0.03536499f, -0.05398391f,  0.03361237f,  0.03783566f,
     0.13486312f, -0.19698444f,  0.07876642f,  0.01427302f,  0.03704350f,  0.11013924f, -0.06883248f,  0.14766362f,
    -0.11377127f, -0.19561522f,  0.03468098f, -0.04875737f, -0.06873166f, -0.18902838f, -0.02708502f, -0.04302097f,
    -0.09461829f, -0.00593587f,  0.01134048f, -0.04267681f, -0.09257553f, -0.13270296f, -0.10843685f, -0.00247785f,
     0.17436092f,  0.07629445f,  0.18876423f,  0.11326852f, -0.30534118f, -0.24814902f,  0.06097848f,  0.01981430f,
     0.06851476f,  0.09082079f, -0.05850905f, -0.05010271f,  0.00336343f,  0.13768217f,  0.14324239f, -0.05653747f,
    -0.02840682f,  0.18445621f,  0.16143119f, -0.08681083f, -0.21360490f, -0.08151465f,  0.12101582f,  0.11090887f,
    -0.21107596f, -0.06022979f,  0.02818423f, -0.09494478f, -0.05978700f,  0.10260539f,  0.04172479f, -0.18731506f,
     0.23484983f,  0.01050799f, -0.09821278f,  0.09114563f,  0.11090434f,  0.29881936f, -0.09033927f,  0.34544256f,
    -0.05853700f, -0.00804693f, -0.06005194f, -0.00253169f, -0.16722803f, -0.12711917f,  0.17319630f, -0.09962173f,
    -0.09281109f,  0.06001678f,  0.08896412f, -0.05532175f,  0.13834642f, -0.00214534f, -0.02858702f,  0.07188080f,
    -0.04314937f, -0.12409802f, -0.13513108f,  0.11565673f,  0.15993789f,  0.15012968f,  0.12245955f,  0.03378648f,
    -0.19262235f,  0.14494872f, -0.09304634f, -0.03373582f,  0.02034959f,  0.08123795f, -0.07837348f,  0.01852275f,
    -0.38997826f,  0.05802619f, -0.31794497f,  0.02834145f, -0.01001066f, -0.01084135f,  0.09241916f, -0.05653558f,
     0.12153979f, -0.02737037f,  0.11156637f,  0.12049419f, -0.03648078f, -0.11636158f,  0.07106933f,  0.03810797f,
     0.14592008f,  0.11515474f,  0.02689278f, -0.00978764f,  0.03857774f,  0.03677761f, -0.10100692f,  0.04568838f,
     0.16954987f,  0.09199724f, -0.09332281f,  0.08736008f,  0.04420385f,  0.16756275f,  0.17036471f, -0.02986781f,
    -0.01160600f,  0.10865334f,  0.13670772f, -0.05706406f, -0.13252968f,  0.28831810f, -0.06267079f, -0.01730746f,
     0.19720103f,  0.12664598f, -0.09335634f,  0.13711539f, -0.01185787f, -0.18242109f, -0.22839181f, -0.05276068f,
    -0.00588748f, -0.12373024f,  0.06669260f,  0.04750120f, -0.13719752f,  0.18859370f,  0.14696388f, -0.05005724f,
    -0.06063301f, -0.08715871f, -0.04521625f,  0.03681409f,  0.09230158f, -0.16550408f, -0.03562674f, -0.16572964f,
     0.09032041f,  0.14031684f, -0.03500991f,  0.11722618f,  0.08873847f, -0.07471926f, -0.39032301f, -0.01106034f,
    -0.24496579f, -0.08599652f,  0.07709402f, -0.18968379f,  0.21337391f, -0.05801108f,  0.06617243f,  0.02084218f,
    -0.07003966f,  0.12309917f,  0.15143280f,  0.06889142f, -0.01529859f,  0.08868407f, -0.08993533f, -0.05064304f,
     0.07517980f, -0.07626267f, -0.08461294f,  0.07098977f, -0.14521940f,  0.00712123f, -0.10626839f,  0.09073431f,
    -0.27278301f,  0.11315550f,  0.07934909f,  0.00489204f,  0.21497682f, -0.09395903f,  0.15872943f,  0.13164541f,
     0.15438896f,  0.24235897f,  0.13948581f,  0.38878095f, -0.21928839f, -0.13035497f, -0.16022782f, -0.06688496f,
     0.21745527f, -0.00158266f,  0.07513724f,  0.07668056f, -0.06596445f,  0.05155813f,  0.12329358f, -0.08566954f,
    -0.08404264f, -0.03327981f,  0.11985663f, -0.00167878f, -0.01661140f,  0.13405807f, -0.02487344f,  0.08782399f,
     0.08823247f,  0.09092290f, -0.08084694f,  0.09743746f,  0.01951810f,  0.16900456f, -0.12312712f,  0.11888798f,
    -0.04030906f,  0.00649783f,  0.16038792f,  0.16312081f, -0.01735454f,  0.03576984f,  0.22656177f, -0.00198850f,
    -0.24296981f, -0.07578261f,  0.10738879f,  0.31925797f,  0.07846548f, -0.12389260f,  0.17597128f, -0.10217903f,
    -0.01583668f,  0.14013341f,  0.09413660f,  0.08944713f, -0.12411547f, -0.00100274f,  0.11064155f,  0.04524963f,
     0.04395650f, -0.10409789f, -0.12012409f,  0.05480725f,  0.10671313f,  0.15692246f, -0.05050101f,  0.11920493f,
     0.01610696f,  0.00936239f,  0.17811641f, -0.04772488f,  0.06038870f, -0.04091068f,  0.07167260f, -0.28952616f,
    -0.14140491f, -0.36238796f, -0.10965571f, -0.06590060f,  0.07048764f,  0.09524129f, -0.07403322f,  0.05397319f,
    -0.14452918f,  0.01483451f, -0.18262364f,  0.05205685f,  0.04976397f, -0.07667412f,  0.05168486f, -0.13335122f,
    -0.13878125f, -0.05393503f, -0.10114537f,  0.00361230f,  0.05029180f, -0.03768666f, -0.07053601f,  0.14384271f,
    -0.14798087f,  0.05968132f, -0.08013847f, -0.07313655f,  0.16374433f, -0.00262374f, -0.02524592f, -0.06414245f,
    -0.05517474f,  0.00314474f, -0.32541436f, -0.11906864f, -0.23060602f, -0.07329921f,  0.18561035f,  0.08772708f,
     0.16983242f,  0.00283851f,  0.13236345f,  0.08313619f,  0.18863072f,  0.14072533f, -0.08194713f, -0.18963297f,
    -0.19338070f,  0.00774311f, -0.11672751f,  0.16645819f, -0.04511376f, -0.14010789f, -0.06402428f, -0.03368773f,
    -0.00442512f,  0.08079381f,  0.13229258f, -0.02282020f,  0.07420285f,  0.08348948f, -0.15358338f,  0.00764284f,
     0.07610118f, -0.01225834f,  0.09064673f, -0.00118685f, -0.08438413f,  0.21442506f, -0.16559714f,  0.38028997f,
    -0.13753600f,  0.02028976f,  0.17538311f, -0.17674616f,  0.02312286f,  0.11440462f,  0.04514578f, -0.10421639f,
     0.12030309f, -0.08894587f,  0.04325475f, -0.10595355f,  0.06324246f, -0.14083812f, -0.10775172f,  0.16199715f,
     0.03207904f, -0.12915450f,  0.05741375f, -0.14016655f, -0.02825361f,  0.12240934f, -0.07103565f,  0.15883851f,
    -0.02144884f,  0.05736756f,  0.10939638f, -0.03684958f,  0.00051808f, -0.19598536f, -0.10448614f, -0.14472157f,
    -0.33368695f,  0.05061133f, -0.11336309f,  0.07651647f, -0.00011902f,  0.19887865f, -0.05287935f,  0.21700449f,
    -0.22111233f,  0.02532944f,  0.09475849f,  0.16915758f, -0.06588165f, -0.09489778f,  0.10878933f, -0.18463099f,
     0.07220981f,  0.04104036f,  0.10437641f, -0.18675597f, -0.04406674f, -0.06313837f, -0.00018491f,  0.03162291f,
     0.03993645f,  0.08198883f,  0.16350237f, -0.08511361f, -0.03486650f,  0.02504555f,  0.02439892f, -0.07200875f,
    -0.05013677f,  0.16701841f,  0.07707369f, -0.09467030f,  0.03287403f, -0.04606674f,  0.08340528f,  0.00911449f,
    -0.05008031f,  0.01469965f, -0.28748453f, -0.00601883f, -0.24422482f, -0.05552370f,  0.11072158f,  0.01466579f,
     0.14010175f, -0.06215018f,  0.17361455f,  0.16077755f, -0.15820642f,  0.08971328f,  0.04800122f,  0.04922405f,
     0.07625106f,  0.04370599f,  0.13033268f, -0.01160985f, -0.05918988f, -0.11850318f,  0.07613650f, -0.03588776f,
     0.11931578f, -0.14830686f,  0.12406346f,  0.05569033f, -0.22452950f, -0.00709379f,  0.13426642f,  0.02761002f,
     0.40711179f,  0.02977663f, -0.16869828f, -0.23399243f,  0.36283931f, -0.00392486f, -0.09266673f,  0.00291549f,
     0.28259990f, -0.10311620f, -0.15265234f,  0.07042801f,  0.11306167f,  0.17332673f, -0.06199913f, -0.06578199f,
    -0.09288000f,  0.15677120f,  0.04778257f,  0.02542843f,  0.13387591f,  0.10242704f,  0.05528018f,  0.03095596f,
     0.15293807f, -0.07284873f, -0.16305739f,  0.10876241f,  0.13269544f, -0.13310765f, -0.18919562f,  0.00666518f,
    -0.09591018f,  0.18184122f,  0.02099255f,  0.21122304f,  0.15573944f,  0.01259447f,  0.10848333f, -0.25094754f,
     0.29509372f,  0.23343860f, -0.16788001f, -0.08322911f,  0.08373884f, -0.13709344f,  0.11892646f, -0.07506537f,
    -0.13342334f, -0.11430883f, -0.06019550f,  0.06183884f, -0.08917277f, -0.13835973f,  0.13498399f,  0.19342530f,
    -0.06422599f,  0.11454092f,  0.10484152f,  0.09479652f,  0.01918570f, -0.03356786f, -0.06557276f,  0.03906003f,
     0.14459983f, -0.09397569f,  0.04462321f,  0.03727464f,  0.08799364f, -0.04038277f, -0.09966811f,  0.08956388f,
    -0.03854036f,  0.16298014f,  0.25816712f, -0.22999263f, -0.14865012f,  0.05498457f,  0.04036005f,  0.10612996f,
     0.05501306f,  0.04913063f,  0.13646363f, -0.14816156f,  0.08575961f,  0.05347869f,  0.13756961f, -0.07047791f,
    -0.15934156f, -0.11045994f, -0.09832138f, -0.06678690f, -0.18186212f,  0.03837509f, -0.04278041f,  0.17247313f,
    -0.12260222f,  0.02852342f,  0.19043599f,  0.09070578f, -0.14626203f,  0.04408227f, -0.14391331f,  0.02455052f,
     0.03017290f,  0.01809573f, -0.13950667f, -0.04634170f, -0.17749657f, -0.05679037f, -0.29266873f,  0.12122727f,
     0.25176215f, -0.10628690f, -0.08081523f,  0.02089973f, -0.11315315f,  0.19649453f,  0.11045679f, -0.19799837f,
     0.01155238f,  0.00367977f, -0.06201155f,  0.08073743f,  0.12246630f, -0.06991834f, -0.00555500f, -0.05098804f,
    -0.04297424f, -0.13385867f, -0.19876032f,  0.09138390f, -0.07967099f, -0.01671464f, -0.04032843f, -0.05262031f,
     0.16822262f, -0.04598799f,  0.31296554f, -0.12264355f,  0.41148940f, -0.30392390f,  0.12338962f, -0.19150233f,
    -0.14003950f, -0.06305038f, -0.21706429f, -0.01078955f, -0.02680532f,  0.09815761f, -0.19474752f, -0.05681092f,
    -0.10447818f, -0.02128999f,  0.13441102f,  0.07986610f, -0.20070100f,  0.12754032f,  0.10810336f, -0.11489891f,
     0.13901499f, -0.07118142f,  0.09154376f, -0.02253195f,  0.18654788f, -0.18570198f, -0.15635411f, -0.11033700f,
     0.08299207f,  0.03483309f, -0.14142536f,  0.11743847f, -0.12463910f, -0.38033670f, -0.03357442f, -0.27540305f,
     0.03014759f, -0.06923865f,  0.16267864f,  0.14856538f, -0.13371591f,  0.10957532f,  0.09829419f, -0.16452582f,
    -0.16333963f, -0.10808479f, -0.05198972f, -0.07007929f, -0.12831047f,  0.01298805f,  0.05400170f,  0.10536057f,
     0.13902736f, -0.01455356f,  0.07832783f, -0.08815523f, -0.12033679f, -0.18450955f, -0.12257149f, -0.14791147f,
     0.15305395f,  0.00548702f,  0.12156636f, -0.11338115f,  0.01980782f,  0.13405700f, -0.00613329f, -0.07245695f,
     0.00279629f, -0.11244901f, -0.16589166f, -0.08938699f,  0.02199455f,  0.09476508f, -0.06879917f,  0.00623453f,
    -0.13467719f,  0.21116708f, -0.05583786f, -0.00832279f,  0.02010966f,  0.09325187f, -0.02306730f, -0.13602245f,
     0.11442132f,  0.11742429f,  0.04595088f, -0.18162498f, -0.07334215f,  0.01673321f,  0.04830268f,  0.04289503f,
     0.16671148f,  0.05206051f, -0.05774479f,  0.02876837f,  0.00723149f, -0.01491773f, -0.18628505f, -0.08302849f,
    -0.00698410f,  0.01897809f,  0.15432552f, -0.15487596f,  0.01382481f,  0.62472165f,  0.11444606f,  0.03613335f,
     0.14844710f,  0.05585279f, -0.08283021f, -0.05319289f,  0.13398436f, -0.01319891f,  0.03195751f, -0.11729774f,
    -0.05413649f, -0.28628674f,  0.00368885f, -0.20189802f, -0.03268784f,  0.09837494f, -0.15153925f,  0.02894026f,
    -0.05463395f,  0.03003283f, -0.09668431f,  0.16966777f, -0.10207368f, -0.01081235f,  0.06834490f, -0.09638545f,
    -0.09983726f,  0.00051274f, -0.12914322f,  0.20050552f, -0.00290589f, -0.07127821f, -0.34877944f, -0.02463907f,
    -0.37740377f,  0.04091793f,  0.13230993f, -0.24281028f, -0.17962056f,  0.25394171f, -0.10882456f,  0.02777965f,
    -0.11690675f,  0.18903358f, -0.04511803f, -0.13681543f,  0.03997651f,  0.15797871f, -0.03507097f, -0.05400927f,
     0.00513738f,  0.01683280f, -0.06109139f, -0.06607978f, -0.23724382f, -0.01640750f,  0.13370405f,  0.09332094f,
     0.04410585f,  0.07009458f, -0.02318396f,  0.00432871f, -0.07270596f, -0.02842942f,  0.16076328f, -0.10735335f,
    -0.14643964f,  0.06005884f, -0.03326797f, -0.19865197f,  0.05703664f, -0.17006846f,  0.04257049f, -0.05774821f,
     0.03819985f, -0.21570055f, -0.04696306f, -0.03686439f,  0.01123950f,  0.03938306f, -0.07924689f,  0.12360813f,
    -0.18981820f,  0.00534593f, -0.12906134f, -0.15674008f,  0.07482673f, -0.05313101f, -0.23516858f, -0.04721006f,
    -0.23761751f, -0.09664624f,  0.16953373f,  0.12726499f,  0.15474033f,  0.01066495f,  0.18714015f,  0.14578733f,
    -0.15773979f,  0.09403958f,  0.14695202f,  0.02992433f,  0.24728784f, -0.05508999f,  0.15333977f,  0.03973911f,
    -0.04863344f,  0.02248948f,  0.04028872f,  0.04966418f,  0.12577529f, -0.00711326f, -0.10676425f,  0.15144417f,
     0.00957702f, -0.03182885f,  0.00940278f,  0.14192083f, -0.05711617f, -0.02409560f, -0.10897947f, -0.04427509f,
     0.15940581f,  0.00849488f, -0.20365107f,  0.16370718f, -0.04012427f,  0.01741301f, -0.04750368f, -0.12195524f,
    -0.12161405f, -0.05974683f, -0.05731338f, -0.10743038f, -0.15303643f,  0.15979427f,  0.01181532f, -0.39309031f,
    -0.14712688f, -0.18446223f,  0.10093133f,  0.01151329f, -0.12072647f,  0.21341285f,  0.29033551f,  0.14370608f,
    -0.14170314f,  0.19641367f,  0.17611745f,  0.04325955f,  0.01715095f,  0.23878743f,  0.15930928f, -0.03242462f,
     0.03670672f,  0.10228506f,  0.04514556f,  0.13793507f,  0.09598499f, -0.07676259f,  0.02673060f,  0.10008699f,
     0.08930744f, -0.11779968f,  0.17742577f,  0.07317102f,  0.02367492f,  0.02863466f, -0.12540676f, -0.17835735f,
     0.10826378f, -0.10354916f,  0.12344666f,  0.14516726f, -0.25093731f, -0.10999750f, -0.21721226f,  0.06750106f,
    -0.13280198f, -0.03827713f, -0.04934107f, -0.09483740f,  0.09015244f, -0.05115775f,  0.03612088f, -0.06569158f,
     0.05260326f,  0.10753464f,  0.11594341f,  0.09410249f,  0.16559123f, -0.04116696f,  0.14769985f, -0.10344882f,
    -0.13087118f, -0.18309627f,  0.05084838f, -0.15840074f,  0.11913059f, -0.07471226f,  0.15911898f, -0.10040477f,
     0.11976299f, -0.05545287f,  0.07040016f,  0.08357885f, -0.07958678f, -0.26821262f,  0.09263808f,  0.09598654f,
     0.08273662f,  0.15190829f,  0.01027613f, -0.17522199f,  0.04358953f, -0.00767272f, -0.06931132f, -0.04780880f,
     0.12202353f,  0.09765745f, -0.01224998f, -0.22935121f, -0.25029266f, -0.11135832f, -0.11532795f,  0.15332353f,
     0.07459109f, -0.03098867f,  0.04038884f,  0.03989520f, -0.14150710f,  0.15042540f, -0.05598374f, -0.00542181f,
    -0.07746905f, -0.09864978f, -0.13098672f,  0.21736208f, -0.07603165f, -0.18782273f,  0.17065388f, -0.09294566f,
     0.06500109f,  0.04984976f,  0.18307652f, -0.20258963f, -0.01297845f,  0.02290055f,  0.07828983f,  0.13453402f,
     0.06106420f,  0.10716738f, -0.12507840f,  0.11105298f, -0.05609276f, -0.16310968f,  0.02061419f, -0.07296781f,
    -0.07627755f,  0.13235290f,  0.02480000f,  0.03227581f, -0.05992146f, -0.07126260f,  0.04413579f,  0.07058194f,
    -0.09988930f,  0.13085866f,  0.01461623f,  0.00264618f,  0.11154112f, -0.09504800f, -0.09096530f,  0.15130982f,
     0.07970367f, -0.14902386f,  0.13773635f, -0.20408008f,  0.00795425f, -0.34868211f, -0.11021728f, -0.19816987f,
    -0.14469831f,  0.06581600f,  0.06213598f,  0.06052200f, -0.05692960f, -0.05759076f,  0.06755745f,  0.18448439f,
    -0.09745506f,  0.07046852f, -0.11507316f,  0.00716994f,  0.17925520f,  0.15446581f,  0.10958046f,  0.07472671f,
    -0.17603208f,  0.08492769f, -0.16311529f, -0.10290485f, -0.07282210f,  0.07983484f,  0.08805397f,  0.04614361f,
    -0.07561620f, -0.07444918f,  0.02136885f, -0.10858253f,  0.04199504f, -0.05497640f, -0.17088471f,  0.08018993f,
     0.10893482f,  0.18013266f,  0.15719822f, -0.13189518f,  0.03223553f,  0.14483836f,  0.01310119f, -0.12770109f,
    -0.13946867f, -0.06544504f, -0.07024635f,  0.11302656f,  0.14717650f,  0.15298164f,  0.05203897f, -0.07777546f,
    -0.03538314f, -0.10599357f,  0.13142642f,  0.10679372f, -0.01619482f, -0.09853987f, -0.14023447f, -0.11925838f,
    -0.04084196f,  0.08118995f,  0.02217025f, -0.10093147f, -0.03632574f,  0.01544942f, -0.08995093f, -0.06130065f,
     0.04243796f,  0.28740570f, -0.00363815f,  0.45499772f,  0.01476484f, -0.19606720f, -0.02980688f, -0.17059304f,
     0.12168156f,  0.18042852f,  0.13742799f,  0.00558092f,  0.05616017f, -0.06073065f,  0.00656339f,  0.06230354f,
    -0.12260962f,  0.02439578f,  0.07879632f, -0.07955021f, -0.18975788f, -0.17697574f, -0.07845740f,  0.16324840f,
     0.14351484f,  0.01416173f,  0.06776010f, -0.10073487f, -0.10475078f, -0.02474885f,  0.17467737f,  0.17348899f,
    -0.10785389f, -0.03720742f, -0.12796681f,  0.13330784f,  0.12751950f,  0.08527154f, -0.37665263f,  0.11628363f,
    -0.28294632f, -0.01934756f, -0.10606138f,  0.05054295f, -0.07048017f, -0.07925902f, -0.04333931f, -0.10233942f,
    -0.04525299f,  0.13478532f, -0.01671010f, -0.00604380f,  0.19386822f, -0.05068408f,  0.06350118f, -0.01692607f,
    -0.10711390f, -0.16286600f,  0.18894467f, -0.09879884f, -0.04506489f,  0.16529901f, -0.04554923f,  0.13319932f,
     0.14792734f,  0.13106461f, -0.08047876f,  0.03373897f, -0.00059402f,  0.07220311f,  0.08926708f,  0.13429928f,
    -0.03722499f, -0.51577437f,  0.04368702f, -0.30453038f, -0.13531446f,  0.08326750f, -0.05523933f,  0.01943851f,
    -0.20777103f,  0.02960936f, -0.16302127f, -0.03927582f,  0.14695461f, -0.12724999f,  0.16047499f,  0.14154561f,
    -0.19322875f, -0.08473404f, -0.14252055f, -0.17815682f, -0.01481197f, -0.10145036f,  0.09972323f,  0.01451627f,
    -0.12738138f, -0.15848628f, -0.15277375f, -0.14134063f, -0.18283516f,  0.00201924f,  0.10141733f, -0.21683054f,
     0.12174512f,  0.06603304f, -0.13571557f,  0.15421519f,  0.34395102f, -0.04959912f, -0.17402846f, -0.05204473f,
    -0.07295209f,  0.12119266f,  0.17551975f, -0.01900725f, -0.12569076f,  0.05740057f, -0.10226874f,  0.13821049f,
     0.07707858f, -0.03036087f,  0.05906732f,  0.08463822f, -0.00719633f, -0.03543615f,  0.10551181f,  0.10624120f,
    -0.03618030f,  0.07876046f, -0.03517983f, -0.05566780f,  0.09543881f,  0.02517168f, -0.15061140f, -0.07478391f,
     0.07149639f,  0.12948185f,  0.00855964f, -0.05404794f,  0.07545163f,  0.11145118f,  0.11804307f, -0.25713307f,
     0.03167289f,  0.14399667f, -0.17135082f,  0.04973704f,  0.11879278f,  0.04090269f, -0.06256064f, -0.12610601f,
    -0.07030263f,  0.02665079f,  0.14327207f, -0.18181591f, -0.11761007f,  0.09979274f, -0.09322414f, -0.03739040f,
    -0.18780687f,  0.16483738f,  0.05495045f,  0.05234148f,  0.03103363f,  0.06956727f,  0.07997910f,  0.03408566f,
    -0.09022976f,  0.07600106f, -0.02933726f, -0.17277206f, -0.15873422f,  0.06922664f, -0.09117645f, -0.02812210f,
    -0.41076827f,  0.05459857f, -0.22422220f, -0.01587035f, -0.01862065f,  0.17285596f,  0.04184577f,  0.26933903f,
    -0.23937100f, -0.02544262f, -0.10945128f, -0.01681503f,  0.21767165f,  0.05540118f, -0.04049655f, -0.28107795f,
    -0.26895499f,  0.09164703f,  0.06253888f,  0.14172854f, -0.13850664f,  0.05340812f, -0.14619540f, -0.09839126f,
     0.22326663f,  0.17012948f,  0.01695028f, -0.02761765f, -0.06894591f,  0.06502191f,  0.04877956f, -0.07577844f,
    -0.00076824f, -0.00145898f, -0.12050179f,  0.21455212f,  0.11268020f,  0.28186244f,  0.12615518f, -0.05058293f,
     0.01975384f,  0.12066835f,  0.29752496f, -0.08813491f, -0.14780571f,  0.19245492f,  0.09727880f,  0.08139634f,
     0.05150653f,  0.03408559f,  0.00257186f,  0.08167869f, -0.08488428f,  0.08115728f, -0.04245713f,  0.20773552f,
     0.16964245f, -0.22543524f, -0.04967398f,  0.08574513f,  0.18797858f, -0.01692650f, -0.02821669f, -0.08348934f,
     0.07490744f, -0.16375111f, -0.10216951f,  0.22069545f,  0.08586271f,  0.13193199f,  0.28081593f, -0.10741645f,
     0.14106938f, -0.01135285f, -0.02779520f,  0.04497553f, -0.12990326f, -0.27632263f,  0.00520030f, -0.21377736f,
     0.13400482f, -0.10142922f,  0.13530006f,  0.20516488f,  0.02637358f, -0.06365780f,  0.05834717f,  0.02278716f,
     0.04099964f, -0.15159281f,  0.14734340f,  0.11362185f,  0.19539410f,  0.05333100f,  0.00760760f, -0.14075324f,
     0.09648945f,  0.07415826f,  0.13933593f, -0.01264363f, -0.13212535f, -0.14848031f,  0.09219378f, -0.17605872f,
    -0.12662004f,  0.09690720f, -0.14492494f, -0.24456945f, -0.12898277f, -0.13779780f, -0.13633415f,  0.04438028f,
    -0.01017725f, -0.10681494f, -0.00454331f, -0.00177522f,  0.06939468f, -0.05261156f, -0.12669981f,  0.07866566f,
     0.16168576f,  0.06578629f, -0.11198490f, -0.04475766f, -0.04461281f, -0.05007815f,  0.09708299f,  0.02003670f,
    -0.02899903f,  0.11503315f,  0.05368808f,  0.19325809f,  0.05973645f, -0.05329123f, -0.03484476f,  0.07384783f,
    -0.05502550f, -0.15996301f, -0.08212337f,  0.03094076f, -0.31274793f, -0.01796441f,  0.45434433f,  0.02120087f,
     0.05587493f, -0.00470814f,  0.15087482f, -0.10781322f,  0.12194195f,  0.02667213f,  0.06467586f, -0.08464976f,
    -0.09438902f, -0.20803158f, -0.15496844f,  0.11686525f,  0.01826230f, -0.13164347f, -0.17642494f, -0.14561649f,
    -0.12065363f, -0.21259210f,  0.08629570f,  0.01272412f,  0.09233246f,  0.01022452f, -0.03367096f, -0.10812815f,
    -0.01619181f,  0.07067414f, -0.16160925f, -0.05974692f, -0.01544099f,  0.02025058f,  0.14862895f,  0.27725190f,
     0.14954969f,  0.25790372f, -0.20853330f,  0.04835451f, -0.12163069f,  0.11315795f, -0.05602297f,  0.18302894f,
    -0.09302869f,  0.01801655f, -0.16577604f, -0.15772799f, -0.10756661f, -0.03706719f,  0.13419479f,  0.19653860f,
    -0.11369184f,  0.14326118f, -0.06290193f,  0.02533152f,  0.16096972f,  0.07977206f,  0.05101212f, -0.03954703f,
     0.16586728f,  0.07149810f,  0.20720620f,  0.03686437f, -0.03792518f,  0.20578483f,  0.04068418f, -0.07379974f,
    -0.02600696f, -0.08329806f,  0.22271830f,  0.10294423f, -0.15564191f, -0.14729995f, -0.21352379f, -0.04733437f,
    -0.13764243f, -0.28053737f,  0.19793706f,  0.28450596f, -0.19759713f, -0.05643797f, -0.04047021f, -0.26460472f,
    -0.16715217f,  0.05237735f, -0.13782056f,  0.14264008f,  0.00447031f,  0.10302863f,  0.06381829f, -0.19438492f,
    -0.08665334f,  0.09180321f,  0.03522948f, -0.05072352f, -0.02845316f, -0.07861047f, -0.12254988f, -0.09843067f,
    -0.05615252f, -0.14730509f,  0.18136734f,  0.12567142f, -0.12716557f,  0.20922573f,  0.04812664f,  0.08376884f,
     0.07937972f,  0.06315382f, -0.03731974f,  0.18336813f,  0.27261212f,  0.00247167f,  0.03468053f,  0.09411111f,
     0.06591812f, -0.00793565f,  0.03784361f,  0.07395837f, -0.12581719f,  0.07963872f, -0.03940733f, -0.00745760f,
    -0.13941403f,  0.20030583f,  0.02907484f,  0.08642073f, -0.04314342f, -0.05719600f, -0.03508734f,  0.01703698f,
     0.12270369f, -0.07336054f,  0.09695572f,  0.13255158f, -0.12812838f,  0.15188953f, -0.17718250f, -0.04311599f,
     0.17299664f,  0.04129168f,  0.31058964f,  0.04710555f, -0.03295190f,  0.04484380f, -0.03973778f, -0.02433899f,
    -0.15104063f,  0.13725892f, -0.05593799f,  0.18278545f,  0.00789974f,  0.11101102f,  0.15750471f,  0.09056132f,
     0.17792016f, -0.08222319f, -0.07454112f, -0.14765190f, -0.03647953f,  0.10451359f, -0.09088932f,  0.07000718f,
     0.01527261f,  0.17526801f, -0.00084578f, -0.12052609f, -0.07903328f,  0.07223555f,  0.08347712f,  0.16433388f,
     0.08645149f, -0.06221804f, -0.02382767f, -0.13776809f, -0.10058618f, -0.18750528f,  0.12588738f,  0.07658196f,
     0.07348703f, -0.19640391f,  0.00245875f,  0.07636382f, -0.08057343f, -0.13450389f, -0.18990418f,  0.12129347f,
     0.16551730f,  0.12057224f,  0.14505281f, -0.01525905f,  0.05804886f,  0.05032257f,  0.14291023f,  0.06739596f,
     0.10884295f,  0.15475404f, -0.04045767f,  0.03469418f,  0.09166525f, -0.07186980f,  0.14994891f,  0.00485320f,
     0.14838932f,  0.11031751f, -0.10697257f, -0.02063127f,  0.00100934f, -0.13172698f, -0.03924971f, -0.01846735f,
    -0.12617254f, -0.11539409f,  0.10655306f,  0.05229077f,  0.04330497f, -0.06315901f,  0.06343889f,  0.15452623f,
     0.03436122f, -0.04392215f,  0.11018687f,  0.04564277f, -0.04620863f, -0.04553251f,  0.14130911f, -0.15952644f,
    -0.09772842f,  0.07347202f, -0.02192483f,  0.08857802f, -0.18700792f, -0.04639925f,  0.12232398f, -0.03695748f,
    -0.13223988f, -0.03440449f, -0.10441919f, -0.13493545f, -0.12490919f,  0.05162562f, -0.03556091f,  0.09383894f,
     0.12764516f,  0.18851839f,  0.03187723f, -0.46701464f,  0.02688975f,  0.13480468f, -0.03900711f, -0.10719578f,
    -0.00967130f, -0.00850607f,  0.06319759f, -0.12648959f,  0.03134776f, -0.09294844f, -0.09503757f, -0.06458124f,
     0.06034821f,  0.07658441f, -0.01846503f,  0.04668668f,  0.14817269f, -0.04790440f,  0.03422033f,  0.08355012f,
    -0.16082917f,  0.04175641f, -0.22081570f,  0.18549016f,  0.00567842f,  0.10041800f,  0.05861951f,  0.04857707f,
    -0.09276173f, -0.04711303f,  0.03703982f,  0.09900326f, -0.12065394f, -0.10645397f,  0.37933108f, -0.10888620f,
     0.07697552f,  0.14711435f,  0.08766068f, -0.08123290f, -0.19177780f, -0.11618766f,  0.09260402f,  0.12400147f,
    -0.09394762f, -0.03932234f,  0.00042944f,  0.07657667f,  0.04497474f,  0.03248060f,  0.10979377f,  0.09184737f,
    -0.07457956f,  0.12016979f,  0.07475797f,  0.11499238f,  0.17112605f,  0.15977143f,  0.05179577f,  0.02393717f,
     0.02985451f, -0.07297231f, -0.20083670f, -0.06599729f, -0.00951015f,  0.01721775f, -0.06689636f,  0.31695831f,
    -0.14724560f,  0.47671619f,  0.10502897f,  0.02738743f, -0.00045848f,  0.11473802f,  0.11393367f,  0.16828847f,
    -0.16688578f,  0.13283512f, -0.03636392f,  0.11290020f, -0.06068519f, -0.07286544f, -0.18350576f,  0.02212298f,
     0.00413110f,  0.06536815f, -0.01616391f,  0.01029658f, -0.05799577f, -0.24379262f, -0.18619695f,  0.01857931f,
     0.12238257f, -0.10999546f,  0.11219716f,  0.14889625f, -0.12928189f, -0.12492965f,  0.06405166f, -0.03675234f,
     0.01161507f, -0.13958226f, -0.29621628f,  0.12573746f,  0.44332162f, -0.16401464f, -0.13353907f, -0.09148029f,
     0.03825169f, -0.08749007f, -0.11169884f,  0.00452293f, -0.03655332f, -0.01773724f,  0.14552490f, -0.06448463f,
     0.09346291f, -0.06133094f, -0.05500613f,  0.03704700f,  0.01357008f,  0.03648644f, -0.00950764f,  0.05933539f,
    -0.13443683f,  0.07847287f,  0.05859875f,  0.03709266f,  0.10201477f,  0.10295024f, -0.02358569f,  0.11502112f,
     0.04515146f, -0.07754333f, -0.11175250f, -0.05339894f,  0.06214848f, -0.21207567f,  0.03342530f, -0.44087997f,
     0.09242267f, -0.16886087f, -0.00305606f, -0.11259960f, -0.08219106f, -0.17037348f, -0.00423897f, -0.12979536f,
    -0.08690300f,  0.06972907f, -0.03065578f,  0.03441258f, -0.08372255f, -0.08768144f, -0.20363446f, -0.06991705f,
     0.07988894f, -0.19208181f, -0.16701610f, -0.09139141f, -0.00987241f, -0.10193916f, -0.11330856f, -0.01562047f,
    -0.24596828f, -0.07421976f,  0.07657456f, -0.24308400f,  0.11711758f, -0.14146446f, -0.22099246f,  0.09706077f,
    -0.02220218f,  0.09871933f,  0.14812945f, -0.09255670f, -0.12775904f, -0.20657884f, -0.15857421f,  0.06124300f,
     0.19759396f, -0.16893569f,  0.15108363f, -0.11698689f,  0.16801728f, -0.02793441f, -0.00914246f, -0.07274285f,
    -0.09547229f,  0.15513678f,  0.05066667f,  0.10528038f,  0.00376185f,  0.13499062f,  0.16088399f,  0.03729377f,
     0.25156841f, -0.00241858f,  0.01068808f,  0.20264168f,  0.15241414f, -0.04494759f, -0.07291780f,  0.03467809f,
    -0.11681243f,  0.11093947f,  0.11819100f, -0.16879039f,  0.12104923f,  0.06836723f, -0.19170922f, -0.09764068f,
    -0.02892449f,  0.12979728f,  0.20567299f, -0.08724961f, -0.13681991f, -0.13760233f, -0.15142061f,  0.05892739f,
     0.07748488f,  0.00653422f,  0.20225033f, -0.09877969f,  0.04674185f,  0.11375877f,  0.08294513f, -0.05895605f,
     0.07080729f, -0.03659621f, -0.00184341f,  0.05959003f, -0.02486264f,  0.17059746f,  0.19554572f, -0.16862665f,
     0.10815276f, -0.02969843f,  0.10566446f, -0.11041845f,  0.11167145f, -0.05029391f,  0.12406870f, -0.10386150f,
    -0.14039533f, -0.01157167f, -0.07273601f,  0.15783547f, -0.04958894f,  0.01793121f,  0.15873262f,  0.08526793f,
    -0.04473205f,  0.18928225f,  0.08938025f,  0.18369325f, -0.14577313f,  0.12022509f, -0.07050354f,  0.10513248f,
    -0.16403262f,  0.09593245f,  0.13487934f, -0.07237324f,  0.09942934f, -0.04305761f,  0.03210240f, -0.01289162f,
     0.12010703f, -0.03091777f,  0.06109574f, -0.03357279f,  0.10259680f,  0.00655077f, -0.09335714f, -0.00626303f,
     0.09956613f,  0.29897276f, -0.06344500f, -0.42587316f, -0.25923607f,  0.12667246f, -0.04034536f,  0.06847794f,
     0.05034986f,  0.01109989f,  0.07246561f, -0.14254877f, -0.07097302f, -0.13922118f, -0.16256285f,  0.07679705f,
     0.17583363f,  0.15003376f,  0.09734210f,  0.15452956f,  0.09683811f,  0.08821767f,  0.11581526f, -0.14389023f,
     0.08805978f,  0.18014288f,  0.00802163f,  0.11867182f, -0.03071751f, -0.10829250f, -0.06964667f, -0.13112617f,
     0.02871177f,  0.07906575f, -0.09623195f, -0.15796088f,  0.10534139f,  0.01673146f, -0.08983739f,  0.07581928f,
     0.20429404f, -0.10812884f,  0.01714869f, -0.10877243f, -0.08374261f, -0.01223228f,  0.11081778f, -0.13676004f,
     0.04874859f, -0.02210489f,  0.11466642f,  0.12779078f, -0.02940468f,  0.08556444f, -0.15739131f,  0.13785955f,
    -0.14054143f,  0.07202311f, -0.00864501f,  0.13923906f,  0.05370891f, -0.09512687f,  0.06218095f,  0.15008800f,
     0.07610939f, -0.09368687f,  0.04590107f, -0.11724377f, -0.17236046f, -0.02612201f, -0.01744767f, -0.46682984f,
    -0.12574999f, -0.12057298f, -0.04380661f,  0.01311916f, -0.05386674f, -0.15006681f,  0.19120403f,  0.09627747f,
    -0.01837085f, -0.10716959f,  0.21685189f, -0.14261945f, -0.12635313f, -0.02877802f, -0.07025781f, -0.14829436f,
     0.08404798f,  0.08863176f, -0.02069910f,  0.13289292f, -0.20811151f, -0.20977312f, -0.00470577f,  0.12560803f,
    -0.02172339f, -0.13069047f, -0.16796353f,  0.03466871f,  0.01983566f, -0.12389987f,  0.01624180f,  0.04893494f,
    -0.10974457f,  0.05091457f,  0.00263732f,  0.01378286f, -0.27363056f,  0.03380774f, -0.20841199f, -0.14891917f,
     0.02529972f, -0.21429302f, -0.06539131f, -0.04449319f, -0.14459163f, -0.01175597f,  0.03606473f, -0.15053333f,
     0.14360598f,  0.09712233f, -0.00466045f,  0.10203912f, -0.16127804f, -0.02827673f, -0.09901837f,  0.11829748f,
    -0.10180746f,  0.12620264f,  0.00144948f,  0.05802603f,  0.00401107f, -0.00044107f, -0.00725624f, -0.13445261f,
     0.00578051f,  0.07234854f, -0.19316828f, -0.06843052f, -0.02658711f,  0.20041613f, -0.15249154f, -0.33593437f,
    -0.12843102f, -0.20565684f,  0.17415963f,  0.15718225f,  0.06897765f,  0.08654463f, -0.13605155f,  0.17535916f,
     0.07352949f,  0.19711545f, -0.05216972f, -0.10849279f, -0.13498034f, -0.02772530f,  0.13344282f, -0.15277004f,
    -0.13140675f, -0.13172826f, -0.16468179f, -0.19296694f, -0.00008897f, -0.02891988f, -0.05322762f, -0.03140381f,
     0.02407210f, -0.11542519f, -0.09104390f,  0.18246484f, -0.15276060f, -0.08636951f, -0.05414880f, -0.11054572f,
     0.24221028f,  0.02584626f, -0.06750698f, -0.03597101f,  0.00246274f,  0.10871529f,  0.16488147f, -0.09467684f,
     0.01117477f, -0.13392550f,  0.01257163f, -0.27780598f,  0.07122787f,  0.01870926f,  0.03869443f,  0.13944806f,
    -0.01173530f,  0.00153178f,  0.12106482f,  0.10785080f,  0.10634521f, -0.05474325f, -0.18499711f, -0.19788879f,
     0.04332902f, -0.06930879f, -0.14676322f,  0.06265900f, -0.09862372f, -0.06793977f, -0.06592296f,  0.07288954f,
     0.03388410f, -0.14371808f,  0.04086062f,  0.36875123f, -0.03509589f, -0.21013030f, -0.02982329f,  0.17787969f,
     0.08410475f, -0.05634996f, -0.10647845f, -0.09976128f, -0.02563675f, -0.12821795f,  0.01451012f, -0.08704190f,
     0.00045804f,  0.11442015f,  0.00710035f,  0.06275184f,  0.04175407f,  0.04404464f, -0.22273287f, -0.14962189f,
    -0.03474241f,  0.00810276f, -0.00344595f,  0.14657345f, -0.12999348f,  0.03847718f, -0.04767950f, -0.10226127f,
    -0.06119407f,  0.11507315f, -0.08753607f, -0.02123110f, -0.01109107f, -0.03027913f, -0.09153503f, -0.06289660f,
     0.48803699f,  0.15851028f, -0.17329901f, -0.00833425f, -0.07081529f,  0.02408990f,  0.00209568f,  0.21079797f,
    -0.12054467f,  0.08841279f,  0.12075526f, -0.06270679f, -0.15158279f,  0.02075621f,  0.01089038f, -0.07969837f,
     0.06582990f,  0.05227145f, -0.03913518f, -0.05420550f,  0.06900326f, -0.14275931f,  0.11162584f, -0.02503879f,
     0.00488116f,  0.19860761f,  0.08363977f, -0.09529121f, -0.02092477f, -0.02757776f,  0.07488175f, -0.15488760f,
    -0.08678353f,  0.03976829f,  0.07669118f,  0.59582853f,  0.04446353f,  0.11888872f, -0.18777861f,  0.00667741f,
     0.14376546f,  0.20111716f, -0.07108952f,  0.11061519f, -0.04783879f, -0.01139245f,  0.00589044f,  0.07868055f,
     0.00166424f, -0.07394473f,  0.01729239f, -0.06272803f,  0.03968915f,  0.14505118f,  0.04807288f,  0.13503401f,
     0.11511467f,  0.09652334f,  0.12898862f, -0.02600931f,  0.04983743f,  0.02976954f, -0.14261366f,  0.03467913f,
    -0.02028628f,  0.12639712f, -0.10308003f,  0.11977363f,  0.23179203f, -0.04545309f,  0.27446881f,  0.08484472f,
     0.12241942f, -0.02895031f,  0.03180256f,  0.00244907f, -0.02822267f, -0.15240937f,  0.12763076f, -0.07513949f,
    -0.24445319f, -0.19360487f,  0.06765624f, -0.11284969f,  0.10679725f,  0.12378258f, -0.18608877f,  0.06600527f,
    -0.20080973f,  0.10629795f,  0.01032785f, -0.02241827f, -0.04915488f, -0.13995643f, -0.08808395f,  0.05946941f,
    -0.14464326f,  0.12210598f, -0.02837729f,  0.08999041f, -0.00733514f, -0.02722391f,  0.06053852f, -0.20168197f,
     0.08069858f, -0.18581159f,  0.11234104f,  0.06693352f,  0.10893483f,  0.04860048f, -0.38784006f, -0.32452190f,
     0.19104198f, -0.08470656f, -0.13560086f, -0.04032387f,  0.01732739f, -0.15487757f, -0.04848577f,  0.09525622f,
    -0.05264155f,  0.08277516f, -0.01020269f, -0.11011899f, -0.21105924f, -0.09026156f,  0.00096485f, -0.17624103f,
     0.18684281f, -0.15699768f, -0.18326218f,  0.15794542f, -0.01428829f,  0.02686073f,  0.02052595f, -0.04361719f,
    -0.15415390f,  0.15723082f,  0.04365891f, -0.05056179f, -0.20363951f, -0.03318134f, -0.13343316f,  0.13436608f,
     0.06012708f, -0.39495060f, -0.24241334f,  0.00443039f, -0.21634164f, -0.14277968f, -0.08359056f, -0.15633923f,
     0.00909693f, -0.09527549f,  0.14948362f, -0.05896411f,  0.04602235f,  0.05839283f,  0.04816122f,  0.06585876f,
    -0.01399599f,  0.06248303f, -0.02817577f,  0.12107047f,  0.14434056f, -0.12865999f, -0.04242848f, -0.18290681f,
    -0.10504089f, -0.00593901f,  0.02313056f, -0.17300870f,  0.11981601f,  0.17463402f, -0.06831249f,  0.03122022f,
    -0.15353733f, -0.03879407f,  0.13690962f, -0.09144862f, -0.06667896f,  0.02882243f, -0.21360186f,  0.18463689f,
    -0.13300361f, -0.03072697f, -0.12251844f, -0.10241455f, -0.05668448f,  0.11441612f,  0.08091781f,  0.05683056f,
    -0.01940320f,  0.10104974f,  0.06628994f,  0.08439647f,  0.13481247f, -0.10072648f,  0.11358882f,  0.07373153f,
    -0.13899451f, -0.16497897f,  0.04068394f, -0.07292675f, -0.13512541f, -0.03217770f, -0.17357361f, -0.07031623f,
    -0.45189592f,  0.03918868f, -0.18217258f, -0.02671386f, -0.02896637f, -0.14101771f,  0.07491177f,  0.22604989f,
     0.06723013f, -0.19205599f, -0.02720870f, -0.16428517f,  0.02391393f,  0.01223815f,  0.23341013f,  0.09529461f,
    -0.10650352f, -0.05077539f,  0.16494143f, -0.03874617f,  0.04698502f,  0.03774640f,  0.15531819f,  0.19384015f,
     0.17011124f, -0.01289608f, -0.15434839f,  0.16538128f, -0.02887346f, -0.09003183f,  0.13159479f,  0.00417414f,
     0.02102311f, -0.13125348f,  0.09935555f, -0.03785944f,  0.08818159f,  0.25000992f, -0.07593138f,  0.04422465f,
    -0.00200078f, -0.14502878f,  0.08118282f,  0.05947573f,  0.00431871f, -0.09598921f,  0.16499095f,  0.00078853f,
     0.06823111f, -0.04372064f, -0.09593048f, -0.23465623f,  0.01224508f,  0.07975380f,  0.03515555f,  0.08490424f,
    -0.08765496f,  0.06936368f, -0.06661694f, -0.11398116f,  0.09535830f,  0.19266772f,  0.09529233f,  0.09885925f,
    -0.07022642f,  0.08727017f, -0.16229789f, -0.18007103f, -0.08964266f,  0.09967083f, -0.24017553f,  0.13070619f,
     0.04126489f,  0.15967277f,  0.08041742f, -0.03188290f, -0.13856278f,  0.14230317f, -0.18483642f, -0.05957023f,
    -0.15448023f, -0.16980672f,  0.06514530f, -0.12470634f, -0.09403224f,  0.04580625f,  0.19077076f,  0.03670081f,
    -0.10217854f, -0.07572367f,  0.11423961f, -0.06943233f, -0.13065666f,  0.07075702f,  0.02634356f, -0.03905435f,
     0.00587790f,  0.18527517f, -0.07431410f,  0.11736774f,  0.06687516f,  0.02152944f,  0.15234104f,  0.14360373f,
     0.08314767f,  0.02574142f, -0.08548666f, -0.22397605f, -0.12903209f,  0.18654513f,  0.10920175f, -0.00097738f,
     0.05000629f, -0.10600884f,  0.01052581f, -0.02265801f, -0.05237591f,  0.00490197f, -0.19918573f,  0.05015886f,
    -0.20425151f, -0.08208758f, -0.02480652f, -0.05991432f,  0.14545456f, -0.00542300f,  0.06279895f, -0.02876789f,
     0.10662901f, -0.21053426f, -0.20709695f,  0.07736934f,  0.02966189f, -0.13406788f, -0.02901825f,  0.05912123f,
    -0.00307947f,  0.06413533f, -0.09782933f,  0.02940567f,  0.09256937f, -0.12844807f,  0.09092765f,  0.20141871f,
     0.13160387f, -0.18173619f,  0.04580467f,  0.09779897f,  0.17472832f,  0.00788503f,  0.21955104f, -0.08618815f,
    -0.11318462f,  0.17430747f,  0.01353039f,  0.14242519f,  0.00689609f, -0.08829150f,  0.05338936f, -0.10095126f,
     0.07642730f,  0.09791106f,  0.15902203f, -0.04279176f,  0.08612236f,  0.14948978f,  0.12196872f, -0.09873151f,
     0.04480776f,  0.01286010f,  0.09053697f,  0.01860297f, -0.04515519f, -0.02489726f, -0.03016801f,  0.00399649f,
     0.05975562f, -0.19294028f,  0.15901799f,  0.00397789f,  0.07496662f, -0.07552364f, -0.25561339f, -0.05926133f,
     0.16208583f,  0.18876630f,  0.23450750f,  0.19396688f, -0.11271748f,  0.01980463f,  0.03415787f, -0.00019676f,
     0.17166913f,  0.07021744f,  0.01699238f,  0.04668685f,  0.12100968f,  0.05179753f,  0.05499255f,  0.14777215f,
     0.07569667f, -0.07087894f, -0.04621956f, -0.16450273f, -0.01248086f,  0.02842455f,  0.10171673f,  0.11459766f,
    -0.08005267f, -0.15170918f, -0.01327516f,  0.07819246f, -0.36454883f, -0.16665329f,  0.00821269f, -0.08461349f,
     0.07715566f, -0.13847518f, -0.13031553f,  0.23779321f, -0.00288957f, -0.17638208f, -0.07396742f, -0.05946315f,
    -0.14010806f, -0.12409933f,  0.00008762f, -0.20759162f, -0.07332180f, -0.14073898f,  0.15899771f,  0.01617680f,
     0.01162659f, -0.06918174f,  0.08279806f,  0.01707285f, -0.01664397f,  0.13323753f, -0.15424390f, -0.02100621f,
    -0.10273082f, -0.11455458f, -0.10156240f,  0.22720620f, -0.15588310f,  0.20862769f, -0.00178805f, -0.17473918f,
     0.05612717f,  0.14824681f, -0.01547264f,  0.18181288f, -0.07926644f, -0.22920430f,  0.15118076f,  0.03632434f,
    -0.10827672f,  0.16776307f,  0.04581447f,  0.01010998f,  0.05483365f,  0.15078340f, -0.01186762f,  0.12819827f,
     0.09197525f, -0.17463697f, -0.07227706f, -0.06236630f, -0.12269279f, -0.01267612f, -0.01111425f, -0.10084380f,
     0.02750411f,  0.06685068f, -0.22755434f, -0.22645099f,  0.16361281f, -0.04407162f, -0.20065115f,  0.05280189f,
     0.20972314f, -0.05012018f,  0.12689888f, -0.16764241f, -0.24826120f, -0.08135120f, -0.13786587f, -0.12250311f,
    -0.04019361f, -0.03715914f, -0.04787153f,  0.08983441f, -0.01534357f, -0.01431559f, -0.01657897f,  0.06945558f,
     0.08058602f,  0.14966342f, -0.01040551f, -0.12530026f,  0.14022383f, -0.08670781f, -0.14942436f, -0.04200705f,
    -0.08567408f,  0.10450935f, -0.02168016f, -0.09105036f, -0.05388701f,  0.14490588f, -0.01836192f, -0.05517391f,
    -0.03863276f,  0.16762969f, -0.09725920f, -0.31197762f,  0.11501202f, -0.01144132f, -0.08760096f,  0.16263083f,
    -0.05368803f, -0.16624536f, -0.03653945f, -0.17451735f, -0.00183821f,  0.14670658f,  0.19042930f,  0.03727634f,
     0.11481070f,  0.12191738f,  0.14926693f, -0.02014990f, -0.00824327f, -0.12401626f,  0.14247452f,  0.01584805f,
    -0.09769856f,  0.18311703f,  0.05843241f, -0.11405397f,  0.19304416f,  0.08580232f,  0.11906193f, -0.03896450f,
     0.02057329f,  0.15015800f, -0.04267706f, -0.06564759f,  0.14696589f, -0.13831915f, -0.00659491f, -0.08110291f,
     0.52392912f, -0.00689871f, -0.12583497f, -0.13321972f,  0.17050532f, -0.07571454f, -0.13481051f,  0.00854734f,
    -0.02471233f,  0.07937238f,  0.04939330f, -0.10011989f, -0.14068133f, -0.10244768f, -0.04033795f,  0.05059998f,
    -0.20987540f,  0.08501300f,  0.06555323f,  0.11474860f,  0.03250907f,  0.07210384f, -0.01161667f,  0.13380380f,
     0.03412903f, -0.11374727f, -0.08176152f,  0.18151566f, -0.11527501f, -0.14311315f, -0.00946159f,  0.01930555f,
    -0.13212962f, -0.30391461f, -0.07902589f,  0.26926991f,  0.02655567f,  0.00119914f,  0.04763209f,  0.06555504f,
    -0.07570962f,  0.09587743f, -0.14884403f,  0.03335718f, -0.09738570f, -0.03698077f,  0.09779999f, -0.17949797f,
     0.11764975f, -0.07165161f,  0.17124201f, -0.13893884f, -0.10330637f, -0.10630862f,  0.08085755f, -0.11181577f,
     0.00691848f,  0.07122868f,  0.01086540f, -0.15023156f, -0.01292139f, -0.04723999f,  0.04065200f, -0.05121556f,
     0.07543255f, -0.24555318f, -0.16805077f, -0.05445826f, -0.38667467f, -0.14629297f,  0.27767318f, -0.03291741f,
    -0.10717998f,  0.09443559f,  0.07997552f, -0.01765088f,  0.01156597f, -0.18980318f, -0.03651613f, -0.12882780f,
     0.04710583f,  0.13254789f, -0.08646225f,  0.11310109f,  0.02903413f,  0.01642039f,  0.08822706f,  0.16910455f,
    -0.13047478f, -0.09949271f,  0.03912379f, -0.06213719f,  0.02032618f,  0.05005595f,  0.07135542f, -0.25859615f,
     0.04523227f,  0.15556803f, -0.23058408f,  0.06444590f,  0.10269494f, -0.26343414f,  0.06138606f, -0.06605209f,
     0.08413085f,  0.22324310f, -0.06548669f,  0.09205870f,  0.03638318f, -0.11597689f, -0.07138249f,  0.06635002f,
    -0.13532999f, -0.02291906f,  0.00664350f, -0.08521961f, -0.03721201f,  0.02678992f,  0.04433903f, -0.15892874f,
     0.18926877f,  0.10883684f,  0.06735238f,  0.08145688f, -0.14299454f,  0.04383117f, -0.12872790f, -0.13068826f,
    -0.08313574f, -0.05162191f, -0.05841562f, -0.14752457f, -0.09024003f,  0.10804659f,  0.10254896f,  0.02912315f,
     0.07361916f, -0.11367540f, -0.38380733f, -0.15959734f,  0.09229288f,  0.06456441f, -0.00607076f,  0.23453766f,
     0.14882541f, -0.26935557f, -0.22814892f,  0.24356082f,  0.05411880f,  0.00124045f, -0.11187624f,  0.14655280f,
     0.07931199f,  0.04848590f, -0.06254753f, -0.15965787f,  0.09340673f,  0.13889080f, -0.01496218f,  0.13727225f,
     0.08206498f, -0.10415630f, -0.03517283f, -0.06311233f,  0.02199053f, -0.23497804f,  0.11779639f, -0.18877597f,
     0.07235749f,  0.01833060f,  0.12993626f, -0.10306444f,  0.03612539f,  0.18194601f,  0.12249571f, -0.03121683f,
     0.14336917f,  0.12337898f, -0.00772722f, -0.07908539f,  0.16857538f, -0.14545348f, -0.07499647f,  0.09616040f,
    -0.00078028f, -0.04411114f,  0.16276589f, -0.16937505f, -0.07998508f,  0.18335608f,  0.17741874f,  0.13104329f,
     0.07108557f,  0.13159819f,  0.14246641f,  0.09739105f,  0.01714776f,  0.21708345f, -0.02876433f,  0.09470165f,
     0.12050273f, -0.09492621f,  0.14084473f,  0.07506043f,  0.09679705f,  0.07227917f, -0.11593208f, -0.07521285f,
    -0.15758090f,  0.16540080f,  0.48099571f,  0.11513557f, -0.05690284f, -0.17968898f, -0.11729348f,  0.01123598f,
    -0.04807124f,  0.06501968f,  0.03647185f,  0.01143949f,  0.10316691f, -0.22502211f,  0.08468599f,  0.01915833f,
     0.04396508f,  0.01589818f, -0.07872162f, -0.05652205f,  0.09896102f,  0.15436636f, -0.18930101f, -0.04272139f,
    -0.03499298f,  0.10578803f,  0.14572802f,  0.08754151f, -0.02249382f, -0.00421290f, -0.04919154f,  0.07157867f,
    -0.04930650f, -0.08245429f, -0.03154549f,  0.19935957f, -0.10952435f,  0.58030754f, -0.26252893f,  0.06340437f,
    -0.02472577f,  0.16400421f, -0.00699633f, -0.15878427f, -0.08716722f,  0.07087828f, -0.10612750f,  0.26848856f,
    -0.12504414f,  0.07543801f,  0.01587365f,  0.04639821f, -0.10160950f, -0.02363168f, -0.11911123f, -0.10653817f,
    -0.03394233f,  0.13583885f,  0.13529958f,  0.00667122f,  0.02224514f,  0.16854109f,  0.11334141f,  0.15817565f,
    -0.04293656f,  0.14127661f,  0.06369562f,  0.22195616f, -0.05503941f,  0.01450664f, -0.35284564f,  0.03972241f,
    -0.21605188f, -0.07085937f,  0.09489950f, -0.10024107f, -0.11727019f,  0.10664003f,  0.19144432f, -0.08713794f,
    -0.02374512f, -0.12756443f, -0.18174578f, -0.14497323f, -0.16750368f,  0.08524439f,  0.03291837f,  0.06567649f,
     0.06256163f,  0.02169400f,  0.10342752f,  0.02849763f, -0.01823908f,  0.03074599f,  0.12047978f,  0.02884466f,
     0.14806361f, -0.10790780f, -0.06400549f, -0.01398324f,  0.05572864f, -0.00153680f,  0.04108591f, -0.05512512f,
    -0.04124427f,  0.22774078f,  0.00651185f, -0.09713155f, -0.24511977f,  0.04732019f, -0.12870298f, -0.00097779f,
     0.11290175f,  0.04005875f,  0.02627535f,  0.17927974f,  0.16515510f, -0.11019889f, -0.01841038f, -0.07624384f,
    -0.14958361f,  0.01596234f,  0.12443562f, -0.08636352f,  0.09772392f, -0.00517775f,  0.25363204f,  0.14771844f,
     0.11624074f, -0.02231092f, -0.05858114f,  0.20291923f,  0.13151962f,  0.04139906f,  0.04496479f, -0.10923794f,
     0.08914706f,  0.26573271f,  0.00166284f,  0.04568048f,  0.02574575f, -0.13564891f,  0.37505934f, -0.04735771f,
    -0.01861623f, -0.16514486f, -0.01384892f,  0.13065504f,  0.20145321f, -0.11875924f,  0.03264674f,  0.07044500f,
     0.08081913f, -0.01274133f, -0.11235764f,  0.13291296f,  0.06236677f,  0.12699749f,  0.13659774f, -0.07958901f,
    -0.08614505f,  0.05232745f, -0.07450935f, -0.17701745f,  0.13287278f,  0.16886082f, -0.02169255f, -0.09834238f,
     0.13626251f, -0.02752716f, -0.01279121f,  0.13463092f,  0.11539675f,  0.20324689f, -0.04115129f,  0.26988834f,
    -0.16673088f, -0.25601113f, -0.09107699f,  0.17595297f, -0.08769243f, -0.02828843f, -0.07625616f,  0.00475249f,
    -0.08249862f, -0.12399162f, -0.07538145f,  0.09984281f, -0.03920621f,  0.12427715f, -0.12564109f,  0.01939362f,
     0.06215248f, -0.06878408f,  0.03892995f,  0.03564006f,  0.00692669f,  0.04879495f, -0.09816423f, -0.03577195f,
     0.10929111f, -0.04339499f, -0.03492907f, -0.08020899f, -0.13377298f,  0.05986375f, -0.15781172f,  0.09486281f,
    -0.04004454f,  0.08028498f, -0.36720979f,  0.08250397f,  0.06417348f,  0.10625907f, -0.00878088f, -0.00422222f,
    -0.13041615f,  0.03697151f, -0.04757300f, -0.04347065f,  0.06510765f,  0.09372582f, -0.02557624f,  0.03746139f,
     0.03184877f,  0.05213208f, -0.06455974f, -0.10873064f, -0.13988878f,  0.17281370f,  0.06691647f,  0.07805865f,
     0.16843474f,  0.09193721f, -0.00043251f,  0.03667600f,  0.01225768f, -0.06098687f,  0.09179601f, -0.02430216f,
     0.02387563f,  0.05414312f,  0.00958431f, -0.10530826f, -0.07857094f, -0.35502210f,  0.04403475f, -0.07044404f,
     0.06107563f, -0.05520666f,  0.06618112f, -0.06122347f,  0.05498634f,  0.08458883f,  0.04271038f,  0.11554995f,
     0.04733443f,  0.03945879f, -0.04901583f,  0.01009032f,  0.07966341f, -0.21210036f,  0.07793716f, -0.00953987f,
     0.10649351f, -0.13448283f, -0.01561253f,  0.13032033f, -0.11590461f,  0.04628413f,  0.04464571f,  0.12376638f,
     0.00935433f, -0.00432166f,  0.00196322f,  0.19434245f, -0.02552612f, -0.07009014f, -0.14259058f, -0.05927350f,
     0.10169453f,  0.09695554f, -0.14545248f,  0.18103273f, -0.26771176f, -0.01547616f,  0.05339281f,  0.16620895f,
    -0.00942029f, -0.11719966f, -0.13479590f, -0.03097298f, -0.08523666f,  0.07217243f, -0.02573622f,  0.09618936f,
     0.11693142f, -0.07575333f, -0.04762777f, -0.09893473f,  0.04637233f,  0.03441717f, -0.29825288f,  0.05526262f,
     0.09325143f,  0.09597430f,  0.00401509f, -0.09067112f,  0.02616994f, -0.19188905f, -0.08459242f,  0.03631991f,
    -0.02125108f,  0.13201834f, -0.11906102f,  0.19489838f,  0.16108745f, -0.47518870f, -0.16371737f,  0.06108910f
};

static const float layer1_bias[128] = {
     0.28255606f, -0.09313782f, -0.09886661f,  0.22252265f,  0.07523313f, -0.00748051f, -0.05038865f,  0.08545953f,
     0.07519668f,  0.07347357f, -0.10302979f,  0.14072014f,  0.11323686f, -0.03253736f, -0.14939365f, -0.08309689f,
    -0.07854908f,  0.17570649f,  0.02753842f,  0.00264483f, -0.07824451f, -0.01191409f,  0.19127926f,  0.19071898f,
     0.04230771f, -0.05072171f, -0.06592830f, -0.15120704f,  0.17804201f,  0.17636566f,  0.06255076f,  0.14032954f,
    -0.00811612f,  0.07289042f,  0.14062606f, -0.16954990f,  0.03899723f,  0.12482937f,  0.13658394f, -0.07824932f,
    -0.05482564f,  0.10660562f,  0.17157175f,  0.14818043f, -0.11532623f,  0.07991365f, -0.13225614f,  0.08405228f,
    -0.02357100f,  0.19571987f,  0.05688244f, -0.10114808f,  0.04654930f,  0.05817814f, -0.00157704f,  0.11104656f,
    -0.04171811f,  0.23816900f, -0.04201118f, -0.02520702f,  0.00408354f, -0.01771870f, -0.02212271f,  0.07151749f,
     0.13384387f, -0.11131313f,  0.15193048f,  0.02634758f,  0.14130768f,  0.06164828f,  0.01039864f,  0.00869807f,
     0.11447230f,  0.17060480f, -0.02029476f,  0.10556407f, -0.06414708f,  0.25731298f,  0.13796577f, -0.01231988f,
    -0.04428827f,  0.15884648f, -0.09183677f,  0.23676322f,  0.02318563f,  0.23454577f,  0.11247047f,  0.11075184f,
     0.09841251f,  0.02272113f,  0.11040106f, -0.17894454f,  0.04597630f,  0.03192808f,  0.13487087f, -0.01495553f,
     0.05457987f,  0.11312740f,  0.03296841f, -0.07321679f,  0.14294904f,  0.21782927f, -0.01464583f, -0.10404187f,
     0.00316188f,  0.22253491f, -0.16091169f,  0.21519542f,  0.06757756f,  0.26076838f, -0.04251235f,  0.03245746f,
     0.09926812f,  0.00806459f, -0.07260665f, -0.05952916f,  0.04151338f, -0.06744925f, -0.06501473f,  0.20767891f,
     0.03058936f,  0.04047701f, -0.13244681f,  0.24541540f,  0.05512133f,  0.14657049f,  0.17923379f,  0.10698189f
};

// Layer 2: 128 -> 64
static const float layer2_weight[8192] = {
    -0.01126056f, -0.01286228f,  0.06864679f, -0.08198028f,  0.05113571f,  0.03312695f,  0.03905610f,  0.01798202f,
    -0.01016378f, -0.14572653f, -0.01001805f,  0.10681669f,  0.01750166f,  0.01589826f,  0.06518824f,  0.02995872f,
    -0.02708304f,  0.04725860f,  0.09377565f,  0.07358516f,  0.08840533f,  0.12532081f, -0.10822701f, -0.01471816f,
    -0.02592104f,  0.06675987f, -0.02961846f, -0.08306551f, -0.07794963f,  0.07873842f, -0.02365386f, -0.11993251f,
    -0.10762078f, -0.06693074f,  0.04373829f,  0.05981993f, -0.01343482f, -0.12242433f,  0.05363094f,  0.00876903f,
     0.09604274f, -0.17409649f,  0.03353552f,  0.01400960f,  0.13043147f, -0.09746449f,  0.09930538f, -0.01765184f,
    -0.09559134f, -0.06189350f,  0.00521794f, -0.00568232f,  0.01163430f,  0.08799941f,  0.03333693f, -0.06128785f,
     0.14518525f,  0.05669770f,  0.05489487f,  0.06047098f,  0.03507459f,  0.01766146f,  0.02548936f,  0.07412942f,
     0.10530809f, -0.00920813f,  0.02978397f,  0.07011818f,  0.05418168f, -0.06201521f,  0.08666550f, -0.06839199f,
    -0.12360584f,  0.10046425f, -0.07819604f, -0.00478682f,  0.03539908f,  0.04001072f, -0.08462479f,  0.09570148f,
    -0.00973014f,  0.06156264f,  0.04671349f, -0.09360007f, -0.00464034f,  0.17404667f,  0.02486547f, -0.03086424f,
    -0.04973115f,  0.09123760f, -0.01629649f,  0.16248110f,  0.07927481f, -0.08060466f,  0.06401239f,  0.09024587f,
    -0.04266745f, -0.07444036f, -0.11775201f,  0.02433695f, -0.00247030f, -0.03246562f,  0.13493904f, -0.11536247f,
     0.08738054f,  0.07306551f, -0.01849596f,  0.01361838f,  0.07935526f,  0.09463895f,  0.06542305f,  0.06070765f,
    -0.05741486f, -0.07242553f, -0.02462411f,  0.04834824f, -0.00901075f, -0.07796945f, -0.01750987f, -0.12950970f,
     0.12514409f, -0.03872632f, -0.01036648f, -0.03769739f, -0.01649515f,  0.08699326f,  0.02968876f,  0.11103252f,
     0.14523210f, -0.01040682f, -0.05736075f,  0.10127505f,  0.04909891f, -0.09375557f, -0.09277128f,  0.04320001f,
     0.05015504f,  0.00384905f, -0.06961256f,  0.00310829f,  0.17284648f,  0.02569937f,  0.05110866f, -0.02040156f,
     0.04515269f, -0.00084036f,  0.09292347f,  0.12713662f,  0.06527843f, -0.00778717f,  0.04296896f, -0.09430515f,
     0.14673720f,  0.05760063f,  0.08772097f, -0.04869900f,  0.05588841f,  0.00934539f, -0.01573675f,  0.14964946f,
     0.11660797f,  0.03423230f,  0.05703800f,  0.02126056f,  0.03822606f,  0.12420473f,  0.08860382f,  0.10428746f,
     0.08526952f,  0.14116372f,  0.15568255f,  0.09229951f, -0.11208852f,  0.05851784f, -0.07630009f,  0.02608924f,
     0.15724634f,  0.08438527f,  0.09533167f,  0.08877932f,  0.09877020f,  0.06029064f, -0.05529824f,  0.04380227f,
     0.01509574f,  0.04666500f,  0.09457248f, -0.02174227f,  0.08238592f, -0.11525247f,  0.03122646f, -0.06486696f,
    -0.11126031f,  0.02686857f,  0.03212405f,  0.12357693f,  0.13064072f,  0.05516598f, -0.00294407f,  0.12489270f,
     0.13524386f,  0.13484254f, -0.07538260f,  0.02267415f,  0.02184040f,  0.03139655f,  0.13712610f,  0.01804546f,
    -0.04867868f,  0.00514780f, -0.04853618f,  0.08425862f, -0.01128441f,  0.02608236f,  0.09493938f,  0.12314872f,
    -0.01913052f, -0.08960618f, -0.00435487f,  0.03009738f,  0.05046208f,  0.06642812f,  0.02093796f, -0.07255341f,
    -0.07900050f, -0.01273964f, -0.04170735f,  0.03911382f,  0.02885923f,  0.13286598f,  0.12210916f,  0.15989499f,
    -0.07108326f, -0.01841266f, -0.12696843f,  0.00202724f,  0.11371616f, -0.02615770f,  0.03063918f,  0.01696648f,
     0.01646834f, -0.05428572f,  0.15499923f,  0.05430079f,  0.03253486f,  0.01011091f,  0.07190429f,  0.07046786f,
     0.02666964f, -0.05236337f,  0.10215036f, -0.00781595f,  0.00867780f,  0.10806733f,  0.06279474f,  0.03658045f,
     0.03674667f,  0.03526333f, -0.00991786f,  0.06981170f,  0.06197181f,  0.09999052f, -0.01193417f,  0.09376238f,
     0.05682997f,  0.04149184f, -0.07220855f,  0.04352642f,  0.06068115f, -0.02198180f, -0.04626603f, -0.07530563f,
     0.00113496f, -0.02029907f, -0.06604194f,  0.13957182f, -0.02961077f, -0.11759454f,  0.00729253f, -0.07400385f,
     0.01611242f,  0.06776115f,  0.00804975f,  0.15485224f,  0.06515419f,  0.00309074f,  0.03100850f, -0.02246254f,
     0.02160169f, -0.06934976f, -0.02016672f,  0.04968568f, -0.04479606f, -0.10511214f, -0.03805229f,  0.07959563f,
    -0.02131112f, -0.05277513f,  0.03620589f, -0.11310317f, -0.07803840f,  0.03195067f,  0.13661493f,  0.14787491f,
    -0.15485068f,  0.14199060f,  0.05483832f,  0.03066560f, -0.06605463f, -0.07361349f,  0.07988276f,  0.10183530f,
     0.05760895f, -0.06247636f,  0.05872662f,  0.05025228f,  0.01014881f, -0.00033596f,  0.03650161f,  0.09449753f,
     0.06391617f, -0.14860761f, -0.03341092f, -0.13965204f, -0.18934152f,  0.05997978f, -0.03375183f,  0.05547121f,
    -0.04492855f, -0.06708076f, -0.01751256f, -0.02591857f, -0.09169115f,  0.06423118f,  0.02763921f, -0.04418214f,
    -0.03443534f, -0.15521559f, -0.01586328f,  0.14215799f,  0.07469595f, -0.03590928f, -0.02537384f,  0.04558297f,
    -0.02783880f, -0.08754397f, -0.10143876f,  0.06283891f,  0.11292185f, -0.15119317f,  0.02361669f, -0.07307613f,
     0.06349205f, -0.00821321f,  0.02527124f,  0.11098241f, -0.01221473f, -0.06952104f,  0.04988050f,  0.00783158f,
     0.08340947f,  0.07105049f,  0.06580817f,  0.06660989f,  0.00993617f,  0.02359993f, -0.08285517f,  0.02089161f,
    -0.00143043f,  0.13827364f,  0.04762804f, -0.00988217f,  0.10855667f,  0.04931407f,  0.06450012f,  0.02286729f,
     0.08550034f, -0.01891706f, -0.05922866f,  0.05195435f,  0.10325322f, -0.00437523f,  0.05907512f, -0.05669088f,
     0.02691475f, -0.03563562f,  0.05682816f,  0.11567829f, -0.00082842f, -0.02982828f, -0.09910455f,  0.10745578f,
     0.03044312f, -0.01386425f, -0.01204165f, -0.06326837f, -0.04980286f, -0.03863686f, -0.01464016f,  0.00405317f,
     0.06767242f,  0.04986978f,  0.03435802f,  0.10737456f,  0.06761750f,  0.04964262f,  0.11239520f, -0.00076484f,
     0.06701349f, -0.07766437f, -0.06961505f, -0.05264330f,  0.06967214f, -0.00688443f, -0.05770332f,  0.01739438f,
     0.10224047f,  0.07163268f, -0.08089848f,  0.06759703f, -0.01861786f, -0.02053727f,  0.12541038f, -0.07214788f,
     0.00107862f,  0.09314675f, -0.03228039f, -0.02416787f,  0.11425824f, -0.00654145f,  0.08382612f, -0.11769101f,
     0.03414699f, -0.11171419f, -0.11662275f, -0.00350516f,  0.15755831f,  0.05774351f,  0.02727636f,  0.01224593f,
     0.12060145f,  0.08028638f, -0.02842485f, -0.00501773f, -0.08166441f, -0.11054706f, -0.07095788f,  0.07775107f,
     0.00698391f,  0.07693060f, -0.00176496f,  0.01915962f,  0.05643548f, -0.05031253f,  0.17574073f, -0.00160091f,
     0.05359641f,  0.00672070f, -0.01494175f,  0.08513680f, -0.01144570f, -0.01379413f,  0.03142427f, -0.05323128f,
     0.03005785f,  0.15040764f, -0.07189774f, -0.06039220f, -0.01393562f, -0.05802369f,  0.06140315f, -0.04592234f,
     0.01137188f,  0.03803671f, -0.00550567f, -0.01102030f,  0.05389962f,  0.13892978f,  0.09682506f, -0.03099988f,
     0.07614528f, -0.04968787f, -0.03962325f, -0.10243046f,  0.12043420f,  0.12405345f,  0.09348923f,  0.09057087f,
    -0.06851981f, -0.00934663f, -0.10909428f,  0.03311583f,  0.01856124f,  0.02282062f,  0.00203247f, -0.04486020f,
    -0.15114528f,  0.03663541f,  0.04052799f,  0.04328819f, -0.02425920f,  0.05301684f, -0.06076152f,  0.07118572f,
     0.06483067f,  0.06483613f,  0.01342663f, -0.06606779f,  0.07386038f, -0.09562302f, -0.01563855f,  0.11454660f,
     0.00686392f,  0.04255048f, -0.00085625f,  0.04067200f, -0.11726660f, -0.02110464f, -0.00044003f, -0.16757612f,
    -0.00314173f,  0.01527692f, -0.08722302f,  0.06778684f,  0.11659241f,  0.11878292f,  0.02799905f,  0.02599843f,
     0.04734412f,  0.01674986f,  0.00464910f,  0.01336986f, -0.01905613f,  0.09923878f, -0.15721175f,  0.12293869f,
    -0.12249106f,  0.12191536f, -0.01374765f, -0.13448636f, -0.20322785f, -0.17204531f,  0.04812757f,  0.01273892f,
    -0.00178402f, -0.02652765f,  0.09387730f,  0.04020606f,  0.13755707f,  0.00363517f,  0.06782585f, -0.04238467f,
     0.08160421f, -0.00385375f, -0.09625801f,  0.00668951f,  0.08720433f, -0.08094539f, -0.07537049f, -0.03567342f,
    -0.11758869f, -0.13226341f, -0.01242825f,  0.05404135f, -0.08004791f,  0.06239903f,  0.02800831f, -0.18441366f,
     0.10668569f,  0.10369080f,  0.13873589f,  0.04914253f,  0.02656410f, -0.03364597f, -0.03696346f,  0.13488868f,
    -0.10338277f,  0.04734419f,  0.13722566f,  0.19126672f, -0.05472469f,  0.11619786f, -0.01262752f, -0.10430581f,
     0.02101405f,  0.01175004f, -0.09277954f,  0.08020024f,  0.13686278f,  0.09720473f, -0.08930505f,  0.02244189f,
     0.12254478f,  0.21702728f, -0.03767606f, -0.08316948f, -0.17183647f,  0.14422734f,  0.08137009f,  0.02674164f,
     0.05590640f,  0.13570455f,  0.06434399f, -0.07030632f,  0.10828403f,  0.20066600f,  0.01038658f,  0.02146229f,
    -0.05403539f, -0.04409757f, -0.14257035f, -0.03914959f, -0.00878936f,  0.05869504f,  0.02506549f, -0.07647771f,
    -0.13260154f,  0.06332459f,  0.07846476f,  0.01508413f,  0.15777946f,  0.16344136f,  0.02648492f,  0.01832037f,
    -0.10349009f, -0.13599020f, -0.20830320f, -0.02309012f, -0.09452393f,  0.00478816f, -0.12275322f, -0.14498763f,
     0.07973363f,  0.04011938f, -0.10801493f,  0.09914704f, -0.04639343f,  0.01275874f,  0.07621209f,  0.25025302f,
     0.01564263f,  0.03223533f, -0.00661178f,  0.08820853f, -0.03972747f,  0.05062436f,  0.00933104f, -0.03363960f,
     0.00802732f,  0.07424526f, -0.02601096f,  0.00641035f,  0.08035963f,  0.05276927f, -0.06977280f, -0.09217124f,
    -0.04209840f, -0.04504221f, -0.05119844f,  0.05572541f,  0.01202319f,  0.00144861f,  0.20350891f, -0.14888275f,
     0.12501004f,  0.06721074f,  0.11508495f, -0.17533781f,  0.04319425f, -0.02364558f, -0.07588934f,  0.09706406f,
     0.29105198f,  0.17712237f,  0.02462249f, -0.06180952f,  0.01183273f,  0.21850882f, -0.00652106f,  0.05704211f,
     0.00627345f,  0.24597310f,  0.11994345f,  0.10759616f, -0.06139861f,  0.04543817f, -0.03598367f, -0.02618342f,
     0.25874409f,  0.01600025f, -0.02844230f, -0.02325522f,  0.16891444f, -0.10741609f, -0.06648232f, -0.01878851f,
    -0.10242490f,  0.15602872f,  0.18402326f, -0.01770972f, -0.02166120f, -0.08106288f,  0.12822954f, -0.06040731f,
    -0.02614903f,  0.03629453f, -0.03457073f, -0.00505303f,  0.16175498f,  0.00514983f,  0.00852111f, -0.06979463f,
     0.09966307f,  0.01311095f, -0.04910536f,  0.01091332f,  0.05101530f, -0.02800065f,  0.18225804f, -0.03089442f,
    -0.01352370f,  0.08646731f,  0.01246345f,  0.02216217f, -0.01521662f, -0.09377684f,  0.11039111f,  0.11962779f,
     0.08374150f,  0.02400168f,  0.07338195f, -0.11945297f,  0.01672138f,  0.03020159f,  0.15815641f,  0.05365900f,
    -0.01876763f,  0.06279626f,  0.08119862f, -0.01329816f,  0.07818373f,  0.13676096f, -0.01943302f,  0.04456970f,
    -0.00008111f, -0.01694739f, -0.11934612f,  0.01370898f,  0.02799565f,  0.05472886f,  0.16377707f, -0.01424391f,
    -0.02095334f, -0.11813670f, -0.02130218f,  0.02182258f, -0.04577586f, -0.04684262f,  0.14327005f,  0.18802258f,
    -0.06195339f,  0.06114840f,  0.16708350f,  0.09920813f, -0.09315544f, -0.10341638f, -0.07374156f,  0.08860197f,
     0.11912412f, -0.05777482f, -0.05275516f,  0.06839383f, -0.05545919f,  0.03394121f, -0.07576732f, -0.05041571f,
     0.06735248f,  0.00114523f,  0.11735129f,  0.02040677f,  0.01595485f,  0.07527675f, -0.03129658f, -0.03959277f,
    -0.04905006f,  0.04713934f, -0.00927821f,  0.13520722f,  0.12698214f,  0.10791489f,  0.00836811f, -0.09042510f,
     0.07890456f, -0.00107143f, -0.07403108f, -0.07649053f, -0.11831329f, -0.01948903f,  0.06942202f,  0.13140988f,
     0.01468742f,  0.08925498f, -0.04428693f,  0.03707036f, -0.05842408f,  0.06991971f,  0.15383349f, -0.06458057f,
     0.00600148f,  0.21981020f,  0.01886166f,  0.13942097f,  0.03422668f, -0.01865173f,  0.02335910f,  0.08695937f,
     0.08367199f, -0.04070140f,  0.01217007f,  0.17269552f,  0.11105004f,  0.15361837f, -0.01993230f, -0.03938137f,
    -0.00687559f, -0.03091359f,  0.00395423f,  0.14194582f,  0.08701172f, -0.07673433f, -0.05537029f,  0.07701428f,
     0.00248503f, -0.08966781f,  0.00797813f,  0.09502733f,  0.10800653f,  0.05696288f,  0.14003083f,  0.08068191f,
     0.15495987f, -0.02255196f, -0.07724410f, -0.02870500f,  0.04211150f, -0.09767836f,  0.11261047f, -0.03507494f,
     0.00422384f,  0.01370971f,  0.06271143f, -0.05294007f, -0.02465303f,  0.02657623f, -0.02779389f,  0.06060147f,
     0.10849492f, -0.04928658f, -0.00156362f,  0.08354256f,  0.02602804f,  0.02844544f,  0.06282816f, -0.08410975f,
    -0.01157058f, -0.12133876f, -0.05786141f,  0.06262794f,  0.21014346f,  0.12315740f,  0.17099638f,  0.11214571f,
    -0.01896212f,  0.01229020f, -0.06110081f, -0.08593188f,  0.07601492f,  0.03603404f,  0.09967972f, -0.05786481f,
    -0.04298485f,  0.07956869f,  0.07799262f, -0.00776483f,  0.01627497f, -0.00883387f, -0.02568115f, -0.01944884f,
     0.00656546f, -0.07025252f,  0.06259172f,  0.03807006f,  0.05054150f,  0.02203905f, -0.03533721f,  0.11826308f,
     0.03364352f, -0.02668136f,  0.01861047f, -0.07451941f,  0.06785876f, -0.00889737f,  0.19191441f,  0.01581114f,
     0.11818859f, -0.00821028f, -0.07692851f,  0.03299116f, -0.21636924f,  0.01530100f,  0.05701448f, -0.00538105f,
     0.13220456f,  0.08745640f, -0.01489868f, -0.08319069f,  0.00251432f, -0.05037079f, -0.05202309f,  0.07556108f,
     0.11109605f,  0.08349849f,  0.11192233f, -0.08097183f,  0.00670900f,  0.08632833f,  0.12035394f, -0.08227427f,
    -0.08397114f, -0.02914482f,  0.02418944f,  0.09349010f,  0.15514037f, -0.11502419f, -0.11201333f, -0.13758574f,
     0.12855732f, -0.11249757f,  0.04281370f, -0.23860039f,  0.01500279f, -0.02278677f, -0.05673334f, -0.02414766f,
    -0.06390355f, -0.05517821f,  0.04271152f, -0.17477538f, -0.02762018f, -0.10231747f, -0.01367461f,  0.09175239f,
     0.15281235f, -0.11163278f, -0.05707207f,  0.05606813f, -0.05749787f,  0.01735546f,  0.01324359f, -0.02567797f,
     0.19049260f, -0.10065307f, -0.03534467f, -0.09203421f, -0.18680297f,  0.05308213f, -0.09444537f, -0.01229706f,
    -0.18138017f, -0.04120649f, -0.06478993f,  0.11859704f, -0.06901871f,  0.15302488f, -0.10377549f, -0.05570013f,
    -0.00284707f,  0.00805723f,  0.13133556f, -0.11067207f, -0.09961007f,  0.02736054f,  0.00505353f, -0.02602202f,
    -0.11744165f,  0.10274903f,  0.14623865f, -0.10147005f,  0.03213632f, -0.02541545f,  0.13757956f,  0.14859769f,
     0.09679817f,  0.11049853f,  0.10469338f,  0.02976995f, -0.00848388f, -0.02190077f, -0.10789555f, -0.10256147f,
     0.11436512f,  0.12904507f,  0.18956731f,  0.12183885f, -0.07456765f,  0.05010989f, -0.03154397f,  0.00800691f,
     0.03141443f, -0.02214621f,  0.02819220f, -0.06252804f,  0.11757957f,  0.02944278f,  0.01579853f, -0.04802563f,
    -0.00889722f, -0.02352792f, -0.11145876f,  0.00096642f, -0.08759711f, -0.08226749f,  0.05863745f, -0.02124595f,
     0.08766130f, -0.00246345f, -0.11892574f,  0.11259693f,  0.10205593f,  0.00563327f,  0.03190214f, -0.02333149f,
     0.00870983f,  0.01568340f, -0.09226031f, -0.02861574f,  0.13428129f, -0.00847171f, -0.06125570f, -0.12514420f,
    -0.04802309f, -0.02657043f,  0.01329769f,  0.02339091f, -0.06731290f, -0.11876734f,  0.01164771f, -0.03447371f,
     0.17324060f, -0.09786178f,  0.03723063f,  0.02688607f,  0.11142755f,  0.02448454f, -0.09833565f,  0.21679404f,
     0.09186492f, -0.04218979f,  0.12217430f,  0.00614748f,  0.01271717f,  0.18186685f, -0.03306358f,  0.10235594f,
    -0.02432124f,  0.15910001f,  0.14280286f,  0.14073685f, -0.03064059f,  0.12680413f, -0.02075024f,  0.02683247f,
     0.13157380f,  0.07206240f,  0.15384889f,  0.15498802f,  0.10897631f, -0.13226396f, -0.00904767f,  0.03995827f,
    -0.14224426f,  0.08868840f,  0.07921917f, -0.12017825f,  0.05572670f, -0.03054430f,  0.17645498f,  0.00901899f,
     0.05119877f, -0.02203076f, -0.03275850f, -0.09047318f,  0.07234473f,  0.02257760f,  0.00483738f,  0.18634424f,
     0.07291002f,  0.01840075f, -0.09289851f,  0.05221717f,  0.01832411f, -0.01735858f,  0.22041355f,  0.03442835f,
     0.05498546f, -0.13976642f, -0.08220202f,  0.15906987f,  0.07266960f,  0.02609669f,  0.04223194f,  0.02305397f,
    -0.00485424f,  0.04870050f, -0.02968519f, -0.08471277f, -0.08253526f, -0.08406647f,  0.07805451f, -0.09502435f,
    -0.00698024f,  0.10487458f,  0.02229771f, -0.07238933f,  0.07219614f, -0.01593494f,  0.08451693f,  0.05091535f,
    -0.09257152f,  0.00351043f, -0.06633330f, -0.03661263f,  0.01375012f,  0.03909151f,  0.07013509f, -0.10661954f,
     0.11594724f,  0.04224920f,  0.04528223f, -0.08806919f,  0.03766349f, -0.00005497f,  0.12391914f, -0.00939013f,
    -0.00969150f, -0.06308819f,  0.13755247f,  0.04368837f, -0.06719009f,  0.04227743f, -0.04825708f, -0.03932492f,
    -0.02609480f, -0.02893345f,  0.13894463f,  0.06317518f, -0.05915738f,  0.01718443f,  0.02709281f, -0.15592119f,
     0.04284425f,  0.07242390f, -0.09468179f,  0.02096335f,  0.01245879f, -0.03085498f,  0.06137165f, -0.09179457f,
     0.10412238f,  0.08443876f,  0.09057623f, -0.12677523f, -0.05054298f,  0.05178425f, -0.06215645f, -0.04118711f,
     0.00559934f,  0.09303171f, -0.06371371f, -0.04247457f, -0.01036160f, -0.07506046f,  0.06354386f, -0.07071000f,
     0.08632545f,  0.15480372f,  0.00693899f,  0.15736106f,  0.07939378f,  0.06703113f,  0.01183599f,  0.04308233f,
     0.08639210f,  0.01173829f,  0.00095972f,  0.03478207f, -0.06897631f,  0.08264811f, -0.02449442f, -0.10914024f,
    -0.00165404f, -0.06485130f,  0.10112903f, -0.03209940f,  0.23475769f,  0.01610685f,  0.01063951f, -0.12049204f,
    -0.02444468f,  0.04949649f,  0.09935106f, -0.05628434f,  0.00460340f, -0.11226598f, -0.04563317f,  0.06663024f,
     0.03992650f,  0.11650559f,  0.03943191f,  0.10019530f,  0.05795217f,  0.04677105f, -0.05900670f,  0.03468174f,
    -0.00158366f,  0.11747279f, -0.15032664f,  0.06182221f,  0.16065899f,  0.06380303f,  0.06631078f, -0.01463343f,
     0.08474615f,  0.00524941f,  0.09014017f,  0.02689731f,  0.01072181f, -0.01121964f,  0.03201897f,  0.09067266f,
     0.11441719f,  0.04368803f,  0.03300028f, -0.04511062f, -0.00049365f,  0.07917263f,  0.06279747f,  0.24705683f,
    -0.06266337f, -0.04706396f,  0.09811961f, -0.00006794f,  0.01820726f,  0.04413498f,  0.01756184f,  0.06020513f,
    -0.09394981f, -0.03171182f,  0.00650461f, -0.08392943f, -0.03476630f,  0.00493980f,  0.18092738f, -0.03270358f,
    -0.06654053f, -0.10449259f, -0.07003026f,  0.11552221f, -0.04195616f,  0.05115780f,  0.01523506f,  0.11419718f,
    -0.04812223f,  0.14764990f, -0.04522458f,  0.19539276f, -0.15599352f, -0.04026966f,  0.01144211f,  0.16507435f,
     0.21702658f,  0.01976051f,  0.00499550f,  0.22321899f, -0.02348570f, -0.08969328f, -0.08642618f, -0.02092163f,
    -0.08186828f,  0.07023050f, -0.11155801f, -0.01047429f,  0.20195052f,  0.08920336f,  0.05083598f,  0.02379248f,
     0.04489734f,  0.12505376f, -0.07491858f,  0.12170561f,  0.00209879f, -0.06660306f,  0.08272325f,  0.00799275f,
     0.07673339f,  0.02883136f,  0.01729116f, -0.14576913f, -0.01384770f, -0.10518619f,  0.00994121f,  0.23076800f,
     0.05256036f,  0.07976722f,  0.06917873f, -0.05012725f, -0.06449252f,  0.10273250f, -0.08065978f,  0.02612315f,
    -0.13813005f,  0.21204464f,  0.02539969f,  0.11480949f, -0.12261666f,  0.14577244f, -0.00857329f,  0.15682188f,
    -0.01992008f,  0.15482113f,  0.18731214f,  0.18688852f,  0.09220872f,  0.02698314f, -0.11393891f,  0.07587226f,
    -0.10441995f,  0.07959668f,  0.11050846f, -0.08712564f,  0.15104222f, -0.01452536f,  0.15908082f,  0.02733969f,
    -0.08664334f,  0.07910307f,  0.06669157f,  0.02940964f, -0.03162438f, -0.04944580f,  0.02355397f,  0.09751901f,
     0.14824909f,  0.05944878f, -0.04491475f, -0.02153709f,  0.02487709f,  0.05709450f,  0.13261630f,  0.04517072f,
    -0.00933863f,  0.00497788f, -0.10241653f,  0.02944622f, -0.00489490f,  0.11017283f, -0.00899659f,  0.13179405f,
     0.00958427f, -0.02454069f,  0.01785373f,  0.00719514f,  0.04522598f,  0.12515402f,  0.12453381f, -0.02965048f,
     0.12467296f,  0.02111208f,  0.06865869f,  0.03054759f,  0.06997983f, -0.03005421f, -0.02147185f,  0.05389969f,
     0.05902631f, -0.04700758f,  0.00977637f,  0.03536405f,  0.19709252f,  0.01143545f, -0.03422565f, -0.10258889f,
    -0.06740370f, -0.06378996f, -0.11317768f, -0.08673691f, -0.10683761f,  0.00191235f,  0.06303401f, -0.01040485f,
     0.03179665f, -0.01147449f,  0.15248644f,  0.07139837f, -0.05079601f,  0.08224785f,  0.07833771f,  0.09310234f,
     0.06362379f,  0.08626336f, -0.09971358f, -0.13053744f,  0.07540722f, -0.02978315f, -0.05886537f,  0.06246604f,
     0.08750518f, -0.06448135f,  0.05973570f,  0.02761904f,  0.03170066f, -0.07843438f,  0.00320300f,  0.11120376f,
    -0.07714642f, -0.08983231f, -0.00565759f,  0.08365919f, -0.07478071f,  0.01801959f, -0.07847100f, -0.00679952f,
    -0.08984555f,  0.05328815f,  0.00182666f,  0.01268884f,  0.02627273f, -0.03310245f,  0.05227391f, -0.03429908f,
    -0.06904501f, -0.11854117f, -0.03445068f,  0.04005042f, -0.01667133f, -0.15457012f,  0.04589144f,  0.10752533f,
     0.01737670f, -0.10177297f,  0.08213992f,  0.04721494f, -0.11416376f, -0.05174495f,  0.17414106f,  0.11273044f,
    -0.18226652f,  0.17697410f,  0.08951573f,  0.04637212f, -0.24322699f,  0.12956022f,  0.00195367f,  0.11379018f,
     0.11390363f, -0.02154285f,  0.01741898f,  0.14965701f,  0.13250639f,  0.05656379f,  0.04823117f,  0.09216848f,
     0.00227381f, -0.19350410f,  0.01134538f,  0.08314396f,  0.02652765f,  0.02086475f,  0.06398734f,  0.06179236f,
    -0.06028382f, -0.07159492f,  0.06366160f, -0.10389145f, -0.11858175f,  0.06538524f, -0.07561133f,  0.07667045f,
    -0.05228241f, -0.02356397f,  0.02642758f, -0.04720015f, -0.01266100f,  0.16087465f,  0.02752993f,  0.09846373f,
    -0.05569503f,  0.00874461f, -0.04031803f,  0.15757059f,  0.11416356f, -0.06546687f, -0.06713058f, -0.16433111f,
     0.00310613f,  0.00167728f,  0.03489200f,  0.11472744f,  0.07316076f, -0.06366426f,  0.05036771f, -0.02863286f,
     0.15728554f,  0.03704307f, -0.01693658f,  0.14710182f,  0.06801379f, -0.03216675f, -0.04388085f,  0.01999975f,
     0.00304466f,  0.03301979f,  0.14196870f, -0.13476987f,  0.14079951f,  0.03756582f,  0.02636964f, -0.04627063f,
    -0.03417007f, -0.11506534f,  0.01870741f, -0.03187041f,  0.15917917f,  0.15352978f,  0.03460683f,  0.05553439f,
     0.00880905f,  0.14969537f, -0.05189665f,  0.00868217f,  0.07797530f,  0.07587510f,  0.02816198f,  0.16071405f,
    -0.04689460f, -0.09169177f,  0.08893736f, -0.03493157f,  0.11416209f,  0.03428326f,  0.03316491f,  0.07961169f,
    -0.11893293f,  0.02214836f,  0.04377250f,  0.05315062f,  0.12002194f,  0.02471507f,  0.18396649f, -0.20793808f,
     0.04228327f, -0.06663354f,  0.14997920f,  0.10430317f,  0.12922731f,  0.11918181f, -0.01484022f, -0.05368760f,
     0.09357743f,  0.02135338f, -0.08817943f, -0.08199355f, -0.14305630f, -0.04006058f,  0.08102525f,  0.07690883f,
     0.13057567f,  0.05696813f, -0.01389789f,  0.17214541f,  0.07331040f,  0.08661836f,  0.13745880f,  0.07657705f,
     0.04240862f, -0.08811817f,  0.01409426f,  0.08234603f, -0.11772482f,  0.14974478f,  0.01155791f,  0.10236848f,
    -0.04530581f, -0.03119440f,  0.08124939f,  0.09567264f,  0.01346940f, -0.09046174f,  0.10531634f,  0.10579773f,
    -0.06625269f,  0.07176000f, -0.15501659f, -0.15346837f,  0.10868143f,  0.03656114f,  0.16184582f, -0.04166070f,
     0.07156434f, -0.12612295f,  0.16083531f, -0.03762954f, -0.11336643f, -0.04015354f, -0.02947485f, -0.05015843f,
    -0.00379094f, -0.06453915f,  0.05623180f,  0.03325944f,  0.26404914f,  0.05491085f,  0.09964810f,  0.09801461f,
    -0.03814713f, -0.19642469f,  0.02837237f,  0.07079206f,  0.02982693f, -0.14249685f, -0.01910831f, -0.13347648f,
     0.11913753f,  0.08747663f,  0.02080008f,  0.02528401f,  0.05029538f,  0.00027183f,  0.05550032f,  0.11896113f,
     0.11197361f, -0.03188089f, -0.02556977f,  0.00922989f,  0.01813842f, -0.08602878f,  0.04201334f,  0.06318381f,
     0.09079897f,  0.14994989f,  0.11137801f,  0.06964225f,  0.07309144f, -0.04550317f,  0.05070674f,  0.07621454f,
    -0.03978336f, -0.10445723f,  0.04036771f, -0.13259239f,  0.12131678f,  0.02510019f,  0.02722026f, -0.00688241f,
     0.04093499f, -0.10753918f,  0.10179799f,  0.03167582f, -0.10811654f,  0.03989907f,  0.06071439f, -0.08682105f,
     0.02387076f,  0.04206404f,  0.01636372f,  0.10163051f,  0.00733229f,  0.08218449f, -0.00603472f,  0.01755928f,
     0.09596949f,  0.00581857f,  0.15458204f, -0.05300805f,  0.10887109f,  0.12268874f, -0.05155451f, -0.02815091f,
    -0.03487834f,  0.03150463f, -0.00911509f, -0.18082583f, -0.01514059f, -0.02537388f,  0.06472634f,  0.08557215f,
    -0.09965609f, -0.06165473f,  0.08340394f,  0.04814844f,  0.14510973f, -0.00338016f,  0.00286248f, -0.10078143f,
     0.15901297f, -0.06052000f,  0.05315294f,  0.15390936f,  0.06369066f, -0.00934311f, -0.03227460f, -0.04521647f,
    -0.02612935f, -0.07079399f,  0.07396420f, -0.02148523f,  0.05700028f,  0.06755318f,  0.07794475f, -0.15336202f,
     0.08520788f,  0.02505912f,  0.06498450f,  0.04364329f,  0.00314585f,  0.00697052f,  0.09849226f, -0.01101095f,
     0.05406956f, -0.05127155f,  0.00185488f,  0.09246372f, -0.00238088f, -0.01301258f, -0.03937466f,  0.05265669f,
    -0.06279864f,  0.04195076f, -0.14648430f,  0.00498638f,  0.04766752f,  0.06987722f, -0.01894022f, -0.01211707f,
     0.08222909f,  0.13126883f,  0.03765194f, -0.02735623f, -0.06117594f,  0.00576736f, -0.06409401f, -0.04502501f,
     0.01159635f,  0.12827264f,  0.00336768f, -0.02186447f,  0.10668872f,  0.02197612f, -0.01971809f,  0.14536642f,
    -0.12140705f, -0.14767832f,  0.03295233f,  0.00287875f,  0.04706730f,  0.01914802f,  0.00819726f,  0.02051562f,
     0.04111430f,  0.08312356f,  0.00990769f,  0.05393700f,  0.17034033f,  0.02479653f,  0.11055987f, -0.04885016f,
    -0.05485554f, -0.10329179f, -0.10153781f,  0.10220331f,  0.08957759f,  0.08301729f, -0.05153266f, -0.07379337f,
    -0.05218252f,  0.01155055f, -0.03849500f,  0.07138400f, -0.09731753f,  0.08223017f,  0.06864630f,  0.10943747f,
     0.10028817f,  0.04567472f, -0.06385612f,  0.12912883f,  0.04203952f,  0.07914375f, -0.07324178f, -0.01513391f,
    -0.03334917f, -0.02156552f,  0.01298697f, -0.02984072f,  0.13036230f, -0.01050121f,  0.07892346f,  0.07257657f,
    -0.08781455f, -0.03774964f, -0.01710830f,  0.30233377f,  0.00551718f, -0.07059009f,  0.09884479f,  0.09811600f,
     0.18582863f, -0.07116947f,  0.08189464f, -0.01164413f,  0.08948473f, -0.01679073f, -0.00379801f,  0.23079762f,
     0.20652260f, -0.07149129f,  0.12329693f,  0.04243779f, -0.03230743f,  0.18698210f,  0.11663080f, -0.03572685f,
     0.03646543f,  0.14356954f,  0.06149302f,  0.20013045f, -0.08274090f,  0.11674147f,  0.14884071f,  0.13653947f,
     0.03390114f,  0.11859901f,  0.07369612f,  0.18032467f, -0.03971716f,  0.24671526f,  0.00313999f, -0.02794676f,
    -0.05788396f,  0.03640012f,  0.13190040f,  0.04144756f,  0.25312811f, -0.00573346f,  0.06493054f,  0.09898822f,
     0.07320652f, -0.07855999f,  0.03237138f,  0.06445456f,  0.06066317f, -0.00001464f,  0.16903307f,  0.04562867f,
     0.09467796f,  0.00254442f,  0.09580565f,  0.06921185f,  0.00700524f,  0.05540976f,  0.16642085f,  0.15847303f,
    -0.05737410f, -0.02452115f,  0.02876065f,  0.10429040f,  0.13613439f,  0.06890156f,  0.02920692f,  0.06369432f,
    -0.10130192f, -0.08396295f, -0.07848760f,  0.19433706f, -0.02503457f,  0.01678166f,  0.04409485f, -0.12028997f,
     0.01807977f, -0.03653088f,  0.07074600f,  0.05273889f, -0.00058999f,  0.04635245f,  0.08529460f, -0.03959560f,
     0.05600436f,  0.02638749f,  0.01563791f,  0.07243737f,  0.13755077f,  0.03119229f, -0.07240255f, -0.03625514f,
     0.00120687f,  0.21299437f,  0.06984515f, -0.05570339f,  0.00018130f,  0.08596365f,  0.04488526f,  0.13873713f,
    -0.04652636f,  0.01326106f,  0.03255701f, -0.09145428f,  0.09059997f,  0.15445453f,  0.10495394f,  0.01311868f,
     0.22130002f, -0.00165277f, -0.00203978f,  0.11825857f,  0.02275237f,  0.01943836f, -0.09239458f, -0.10113607f,
     0.08175749f,  0.03936611f,  0.04675173f, -0.04836290f,  0.12086800f,  0.07039394f,  0.06583846f,  0.12107886f,
    -0.10851618f,  0.12482148f,  0.03162862f,  0.04238297f,  0.08530085f,  0.09474671f, -0.09434959f,  0.12795629f,
     0.07615957f,  0.02934436f, -0.12698512f,  0.01712845f, -0.09035199f, -0.11336429f, -0.10575234f,  0.14681944f,
     0.00986445f, -0.01415769f,  0.13517363f, -0.00518937f, -0.03753335f,  0.02309419f,  0.16572553f,  0.01067681f,
     0.03449201f,  0.17717077f, -0.02382857f,  0.22480872f, -0.08108506f,  0.08435877f,  0.12497882f,  0.09282967f,
    -0.03532715f,  0.10976648f,  0.03980470f,  0.19270837f, -0.02262687f,  0.27067095f, -0.09419389f,  0.00406433f,
    -0.05483331f,  0.07136070f,  0.02531874f, -0.03389823f,  0.25273734f, -0.04050932f,  0.01978427f,  0.00380099f,
     0.05102562f,  0.03610252f,  0.08818444f,  0.15102908f,  0.00952473f,  0.02882505f,  0.21338500f, -0.00824490f,
     0.06767495f,  0.16685668f, -0.02454927f, -0.00236453f,  0.00453142f,  0.02424945f,  0.08798724f, -0.05762801f,
    -0.10621052f,  0.02749189f, -0.00403731f,  0.10065728f,  0.00143907f,  0.02456479f,  0.04840615f,  0.06822696f,
    -0.02837420f,  0.03996103f, -0.02411435f,  0.10298467f,  0.00055013f,  0.09958243f,  0.08156741f, -0.07853722f,
    -0.04662272f, -0.10694370f,  0.03601294f, -0.00794630f,  0.18366347f,  0.14586730f,  0.04677097f,  0.08702123f,
    -0.08804736f, -0.01612611f, -0.07888235f,  0.13546404f,  0.15348753f, -0.04325936f,  0.06263647f, -0.06902876f,
    -0.05592303f,  0.00147001f,  0.00532223f, -0.01921351f,  0.06101254f, -0.04012823f, -0.10561449f,  0.08649669f,
    -0.08303914f, -0.09035716f,  0.08368526f, -0.06471305f,  0.05162931f,  0.12994981f,  0.08324816f, -0.01329559f,
    -0.04248013f,  0.00648989f, -0.00895564f, -0.06680659f,  0.03874993f,  0.00753105f, -0.07708889f, -0.09227766f,
    -0.11411065f, -0.08208851f,  0.02040611f,  0.10244975f,  0.12821679f,  0.04813742f,  0.06909307f,  0.07778785f,
    -0.01290862f, -0.03064677f, -0.01143340f,  0.12246831f,  0.22136028f,  0.22075365f, -0.02588558f, -0.00065238f,
     0.04954618f, -0.14139105f, -0.06764656f, -0.00129509f,  0.01053143f,  0.03135979f,  0.00232109f, -0.02983500f,
     0.00595201f, -0.02890068f, -0.03014814f,  0.01942678f, -0.06508016f,  0.12073234f,  0.06672280f,  0.01840206f,
     0.03752678f,  0.08581427f,  0.00988940f,  0.11554115f,  0.06434839f, -0.09937961f,  0.03771172f, -0.08179589f,
    -0.02145707f, -0.11404815f, -0.00696951f, -0.06688330f,  0.07001414f,  0.30349648f, -0.07724676f, -0.03522529f,
     0.06844114f,  0.01769664f, -0.07316628f,  0.09838839f,  0.04948034f,  0.06037413f, -0.07327485f,  0.17667334f,
