// nn_weights.h - auto-generated
// Parameters: 15439

#ifndef NN_WEIGHTS_H
#define NN_WEIGHTS_H

#define NN_INPUT_SIZE  35
#define NN_HIDDEN1     128
#define NN_HIDDEN2     64
#define NN_HIDDEN3     32
#define NN_OUT_FWD      3
#define NN_OUT_SIDE     3
#define NN_OUT_TURN     5
#define NN_OUT_FIRE     2
#define NN_OUT_USE      2

static const float scaler_mean[35] = {
     0.48522008f,  0.37080702f,  0.00004864f,  0.00454625f,  0.24936103f,  0.17244597f,  0.13317926f,  0.10813271f,
     0.09916133f,  0.10177733f,  0.10600527f,  0.11323623f,  0.12693288f,  0.14128779f,  0.13156885f,  0.11939000f,
     0.10893567f,  0.10401087f,  0.10353626f,  0.10965625f,  0.13543112f,  0.03906246f,  0.00504987f,  1.00000000f,
     0.03705745f,  0.00168847f,  1.00000000f,  0.03400360f,  0.00206351f,  1.00000000f,  0.77268615f,  0.49841672f,
     0.48588618f,  0.10531078f,  0.00859495f
};

static const float scaler_scale[35] = {
     0.31071242f,  0.15932349f,  0.13894951f,  0.12825563f,  0.05184240f,  0.12563976f,  0.11152807f,  0.10800496f,
     0.10300859f,  0.10818685f,  0.10430322f,  0.10606175f,  0.11287875f,  0.11961452f,  0.11622409f,  0.11264169f,
     0.10717201f,  0.10674887f,  0.10561950f,  0.10122358f,  0.10981570f,  0.19944456f,  0.22147576f,  1.00000000f,
     0.24792060f,  0.25104067f,  1.00000000f,  0.27661879f,  0.26962528f,  1.00000000f,  0.30797682f,  0.06501626f,
     0.30635489f,  0.30695344f,  0.09230969f
};

// Layer 1: 35 -> 128
static const float layer1_weight[4480] = {
     0.06824830f,  0.13337882f, -0.14373308f, -0.03697315f, -0.01039749f, -0.09824304f,  0.05531090f, -0.06465504f,
     0.04519977f, -0.07635943f,  0.10505622f,  0.10132866f, -0.00478888f,  0.06728599f, -0.05868397f, -0.14894576f,
     0.06567779f, -0.06823586f,  0.13003208f, -0.04580518f, -0.18879430f,  0.05683033f,  0.14145173f, -0.12812126f,
     0.00919726f,  0.09546712f, -0.09709324f, -0.00553808f,  0.17417930f,  0.14760640f, -0.06188618f, -0.26350653f,
     0.43621886f,  0.07543109f,  0.00248888f, -0.07354444f, -0.05900391f,  0.06796630f,  0.01439597f,  0.00103170f,
     0.12910229f, -0.00165760f,  0.06667363f,  0.00067960f, -0.01292349f,  0.07369741f,  0.04142150f, -0.06010102f,
    -0.03399651f, -0.07179287f, -0.13606243f,  0.09280883f,  0.05018681f,  0.15658315f, -0.07263381f, -0.08656188f,
     0.05161490f,  0.04257417f, -0.09708764f, -0.02522887f, -0.20338517f, -0.07362827f, -0.14253041f, -0.01302008f,
    -0.01614545f,  0.08126827f, -0.32332319f, -0.27455965f,  0.03708898f,  0.00077523f, -0.01040928f,  0.05813292f,
     0.21692728f, -0.12191769f,  0.09866766f,  0.02459577f,  0.15133247f, -0.14445256f, -0.08027957f, -0.04989207f,
    -0.18056566f, -0.09146789f, -0.05835112f, -0.05833574f,  0.00860558f, -0.17544501f, -0.26686376f,  0.02285346f,
     0.07232215f, -0.07421953f, -0.01924075f, -0.06839863f,  0.12451290f, -0.02507700f, -0.15316993f,  0.08255943f,
    -0.08867472f, -0.10530034f,  0.20607246f, -0.01519988f,  0.36457375f,  0.06494620f, -0.04477446f, -0.25106475f,
    -0.01501514f,  0.02737613f,  0.32048893f,  0.34892988f,  0.05056136f, -0.04432230f, -0.11062664f, -0.01564611f,
     0.14117269f, -0.09850275f, -0.01239866f, -0.09911902f,  0.08917475f,  0.18163800f,  0.06389130f,  0.04129595f,
     0.02190479f,  0.07343888f, -0.01638266f,  0.13320445f,  0.15794702f,  0.09661744f,  0.16045320f, -0.00559276f,
     0.14334539f,  0.11679199f,  0.07101291f, -0.00066541f,  0.18929458f,  0.23533918f,  0.01605132f, -0.09791666f,
     0.02039346f, -0.30883262f, -0.08488276f, -0.13756853f,  0.20327647f, -0.18973407f,  0.01202618f, -0.22721931f,
     0.00760528f,  0.03351645f,  0.13130572f, -0.15021425f,  0.06822431f, -0.04733101f,  0.10595260f,  0.02934687f,
     0.10203154f, -0.17198828f,  0.09067050f,  0.08561599f, -0.13514039f,  0.08405446f, -0.00202479f, -0.16253357f,
    -0.03623952f,  0.02691584f,  0.20187362f,  0.01436603f,  0.00307829f, -0.01951046f,  0.09341690f, -0.02980756f,
    -0.00149160f, -0.12138789f,  0.19531655f,  0.17333427f,  0.13878162f, -0.01621608f,  0.04891376f,  0.11157227f,
     0.12273042f,  0.01258716f, -0.08626561f, -0.15464956f, -0.17645888f, -0.11430386f, -0.07968361f,  0.01922869f,
     0.10248353f,  0.12839372f, -0.10716185f, -0.04455533f,  0.04034515f,  0.11033585f, -0.06530082f, -0.16676065f,
     0.03258887f, -0.05797619f, -0.04559117f, -0.03595261f,  0.18241431f,  0.15171762f, -0.00324394f,  0.22802719f,
    -0.03776766f,  0.06146260f, -0.00044355f,  0.02391172f, -0.15522848f, -0.23565719f, -0.15896481f, -0.14255570f,
    -0.21166219f, -0.08588650f,  0.08126533f,  0.12473794f, -0.06756517f,  0.06884348f,  0.10449201f,  0.02875339f,
    -0.05137123f,  0.04430982f,  0.10132064f, -0.06606866f, -0.08196560f,  0.15075350f,  0.00384611f,  0.06761095f,
     0.10180069f,  0.12334485f, -0.06430624f, -0.02956286f, -0.14344870f,  0.07198699f,  0.08553588f,  0.08462641f,
    -0.02676667f, -0.11469834f, -0.19961011f,  0.10521057f,  0.01759292f, -0.17712654f,  0.10177585f, -0.11235120f,
    -0.09398362f, -0.09463604f,  0.55785036f, -0.17514998f, -0.03011853f, -0.00790345f,  0.18575218f,  0.05334993f,
    -0.03033830f, -0.08622294f, -0.21919721f, -0.19972116f,  0.11220094f, -0.16877703f,  0.01176290f,  0.01242200f,
     0.19428569f,  0.10681744f, -0.05148112f,  0.11439959f, -0.01790349f,  0.16448896f, -0.14897372f, -0.07374013f,
     0.04549289f, -0.22071083f, -0.09973466f, -0.10898448f, -0.05138258f,  0.07167890f, -0.02713426f,  0.02341433f,
     0.22805731f,  0.12835930f, -0.05389533f,  0.20920436f,  0.03720734f, -0.07611301f, -0.07455961f,  0.00179769f,
     0.17174228f,  0.07529027f,  0.05466868f,  0.01177696f, -0.10968707f, -0.15224949f, -0.10581579f,  0.18892694f,
     0.08177168f,  0.14497374f,  0.12513050f, -0.07896821f, -0.07774378f, -0.14339939f, -0.01203163f, -0.00780344f,
     0.03285699f, -0.02392485f,  0.09278370f, -0.06107782f,  0.09257849f, -0.05342704f,  0.17151593f,  0.01879479f,
     0.06063977f,  0.05225952f, -0.09956978f,  0.07296392f, -0.06375490f,  0.12981790f, -0.22372153f,  0.17764530f,
    -0.38807958f,  0.09096350f, -0.05661163f,  0.00090098f,  0.06339441f,  0.09466848f, -0.18424092f,  0.13577557f,
     0.06963708f, -0.22194512f,  0.04341721f,  0.09017886f, -0.03991599f,  0.08389530f, -0.01560761f,  0.05039270f,
     0.04295292f, -0.01853754f,  0.11375692f, -0.13921708f,  0.06163597f,  0.18504243f, -0.17486678f, -0.07736425f,
     0.02774921f, -0.01056077f, -0.12370241f, -0.00443618f, -0.04566279f, -0.13523164f, -0.04217963f,  0.01119005f,
    -0.15040609f, -0.17792341f, -0.13428427f,  0.36448079f, -0.09369306f,  0.10847332f,  0.11404587f,  0.09149202f,
    -0.17423701f, -0.00775475f,  0.03606765f, -0.15394220f, -0.02026911f,  0.03276981f, -0.11032329f,  0.03447272f,
     0.05741282f,  0.08416529f,  0.01707767f,  0.10884357f,  0.08616456f,  0.16411160f, -0.06239626f, -0.07861160f,
    -0.05360733f, -0.07917218f,  0.06869214f, -0.14885826f, -0.04315233f,  0.05109155f, -0.06801511f, -0.05519478f,
    -0.04560854f,  0.18943682f, -0.03553955f, -0.01186246f,  0.31616035f, -0.08635157f,  0.33250529f, -0.23455520f,
    -0.02469393f, -0.04933134f,  0.32802987f, -0.11231067f, -0.04798281f, -0.14984429f, -0.05341089f, -0.05898676f,
     0.18049553f, -0.04955153f,  0.09185676f, -0.10455587f, -0.04157922f,  0.11202285f, -0.02644784f,  0.03630544f,
    -0.07632621f,  0.01739324f,  0.09378588f,  0.03528716f, -0.06952865f,  0.10600900f, -0.12651439f,  0.12359477f,
     0.09597206f,  0.07491074f, -0.06226630f, -0.13643143f, -0.10837135f, -0.02598824f,  0.12113810f, -0.17432065f,
    -0.13509879f, -0.31735358f, -0.26231655f, -0.22177345f,  0.04263458f,  0.01634477f, -0.06244845f,  0.00505957f,
     0.11839996f,  0.15408124f, -0.02097205f, -0.04395316f, -0.14742999f,  0.01037312f,  0.03897031f,  0.01730546f,
    -0.06049600f, -0.03407086f, -0.05972250f, -0.21100388f, -0.08763176f,  0.09311463f, -0.08289681f, -0.10618377f,
     0.02791168f,  0.03512729f,  0.03817245f, -0.07632300f,  0.06500403f, -0.00463074f, -0.06004458f, -0.21848455f,
    -0.03568806f,  0.05222890f,  0.28434232f,  0.18657552f, -0.07620725f,  0.02936872f, -0.23089480f, -0.01934128f,
    -0.04697073f, -0.10063601f, -0.15711260f, -0.07732017f,  0.10701704f,  0.13850233f, -0.05378555f, -0.02516134f,
    -0.09263068f, -0.12242744f, -0.15473305f,  0.06790148f,  0.10560719f, -0.11619209f, -0.10293813f, -0.08775666f,
    -0.20175803f, -0.11306536f,  0.02530995f,  0.05014687f, -0.14856608f,  0.00606607f, -0.09247141f, -0.18831700f,
     0.03069375f,  0.00679263f,  0.11267484f, -0.03070377f, -0.11983179f,  0.05223720f,  0.07534947f,  0.00234118f,
    -0.24707806f, -0.01919323f, -0.15199180f, -0.09666406f, -0.02383847f, -0.11218954f,  0.02953711f, -0.01218827f,
     0.04340846f, -0.08716587f,  0.05789509f,  0.11253377f,  0.07894792f, -0.00325058f,  0.00363969f, -0.14561300f,
     0.16608056f, -0.05454187f,  0.14143847f, -0.11040170f,  0.01150517f, -0.07017692f, -0.22096097f, -0.12651600f,
    -0.04546334f,  0.07646784f, -0.08294565f,  0.09261627f, -0.12417313f,  0.11021239f, -0.04760513f, -0.08546320f,
     0.13430232f, -0.09177626f,  0.45316401f, -0.16933934f, -0.19783060f, -0.05551389f,  0.01014738f, -0.12078119f,
    -0.01309138f,  0.00285129f, -0.08115989f, -0.20661344f, -0.10135613f, -0.05242620f,  0.04560089f, -0.11855969f,
    -0.05440657f, -0.04861720f,  0.04392806f, -0.06316694f,  0.13601963f, -0.02329311f, -0.14808732f, -0.02827407f,
     0.11613350f,  0.08778884f,  0.03343183f, -0.04427684f,  0.11460534f, -0.03491645f,  0.02570273f, -0.14873412f,
    -0.00802384f,  0.05768315f,  0.12284821f, -0.14805855f,  0.26630720f, -0.09726147f,  0.00493742f,  0.18582590f,
     0.17011298f,  0.16177946f,  0.17611027f, -0.16519102f,  0.05290117f, -0.16977538f, -0.13602306f,  0.14572798f,
     0.14761069f,  0.04274377f, -0.07154817f, -0.04036957f,  0.07887025f,  0.09331571f,  0.05657963f, -0.02387419f,
    -0.00912594f,  0.18243983f,  0.10548893f, -0.11262382f, -0.17840604f,  0.08185592f,  0.11492046f,  0.06567313f,
    -0.02378768f, -0.02864935f, -0.11549975f, -0.00315141f, -0.02961864f, -0.07111056f,  0.34652987f,  0.01023520f,
     0.02340510f, -0.19095205f,  0.10958873f,  0.11353358f,  0.02605693f,  0.16920163f, -0.10817114f, -0.20281112f,
     0.01971423f,  0.11197881f,  0.16207783f,  0.06648865f, -0.14209607f,  0.13718583f, -0.05013577f,  0.04959732f,
    -0.10833702f,  0.09665366f,  0.10278693f, -0.05815674f,  0.05975887f,  0.03457864f,  0.20708922f,  0.05458182f,
    -0.06789954f, -0.01381985f,  0.16711089f,  0.01678218f, -0.19878314f, -0.15879273f,  0.06220331f,  0.01208284f,
    -0.11712612f,  0.28617635f, -0.04148893f,  0.33529794f,  0.05757738f,  0.03439260f, -0.07908304f,  0.09524129f,
    -0.04077942f, -0.09348515f,  0.04973470f, -0.18180548f,  0.02371951f,  0.08588041f, -0.08428390f,  0.07785355f,
    -0.05708791f, -0.04154452f,  0.05173545f,  0.12284546f,  0.09711636f, -0.11000483f,  0.16928202f, -0.06837425f,
     0.02934480f,  0.06596975f, -0.00992441f, -0.09864254f,  0.19678578f, -0.00861876f, -0.12759762f,  0.12204130f,
    -0.03543133f, -0.01782880f, -0.03251414f, -0.13759303f,  0.32188955f,  0.00666219f, -0.00501095f, -0.11915997f,
    -0.25517681f, -0.09365428f,  0.07127447f, -0.10060288f,  0.08994937f, -0.04666443f, -0.04007158f,  0.09473057f,
     0.05299984f, -0.03443082f, -0.01048373f, -0.09427960f,  0.08660015f,  0.06526858f,  0.13927585f, -0.11785816f,
     0.07019308f,  0.13768880f,  0.14002420f,  0.14824617f,  0.01900432f, -0.13063818f, -0.03164706f, -0.03017735f,
     0.13517168f, -0.19041884f,  0.12281676f, -0.13277707f,  0.06594233f,  0.15083334f,  0.00099683f,  0.27983046f,
     0.01467769f,  0.46287167f, -0.26633674f,  0.03897597f,  0.20734963f,  0.08513194f, -0.14032571f,  0.18817782f,
     0.01346666f,  0.12277060f,  0.15208717f, -0.07576876f, -0.00399069f, -0.04095693f, -0.03607150f, -0.00698756f,
    -0.12640393f,  0.12509087f, -0.07604215f,  0.02053017f, -0.01125101f, -0.05319929f, -0.14292221f,  0.14588289f,
     0.12371454f, -0.10612395f, -0.15576330f, -0.05440039f,  0.11602338f,  0.06813402f, -0.02919801f,  0.00933417f,
     0.09239681f, -0.08639868f,  0.00835385f, -0.15716206f,  0.27344105f,  0.09198130f, -0.10432719f, -0.07536490f,
    -0.06178186f, -0.02175837f, -0.12300648f,  0.06319235f, -0.06700749f, -0.00991327f,  0.08680430f, -0.08796024f,
     0.03794547f, -0.05595795f,  0.03554998f,  0.09363148f, -0.01452837f,  0.01852358f,  0.07969805f, -0.03546314f,
    -0.03807640f,  0.08356994f, -0.05719825f,  0.08945560f, -0.08195819f,  0.00004571f, -0.16342717f,  0.10364360f,
    -0.00745116f,  0.09115478f, -0.03343835f,  0.02354589f,  0.00984830f, -0.41820082f, -0.04966249f,  0.01290668f,
    -0.10724635f,  0.03641519f,  0.12858617f,  0.01215219f,  0.10629670f, -0.05600942f,  0.09653183f,  0.12358224f,
     0.02361919f, -0.01567731f,  0.19430563f,  0.16158263f, -0.00551335f, -0.07336302f, -0.00168273f,  0.16145749f,
    -0.13628362f,  0.07905790f,  0.13552080f,  0.15630868f,  0.02239842f,  0.13489480f, -0.10835417f,  0.02453108f,
     0.06347765f, -0.02130055f,  0.09519058f,  0.02243923f, -0.16896839f, -0.21914545f,  0.15510365f,  0.02748829f,
     0.32064685f,  0.10387468f,  0.06023045f, -0.04747900f, -0.04212583f,  0.04649333f, -0.24180639f, -0.01759196f,
    -0.13059445f,  0.12896900f, -0.10780340f, -0.14881502f, -0.19857004f, -0.11706416f,  0.01854014f,  0.13303910f,
    -0.09108885f,  0.07261427f, -0.11166432f,  0.08190604f, -0.12551405f,  0.16279182f,  0.04651577f,  0.01991988f,
     0.08480839f,  0.08923040f,  0.00782103f, -0.10993038f,  0.13050735f,  0.06052600f,  0.13637319f,  0.02942759f,
     0.07221434f, -0.18519427f, -0.04959869f, -0.05351331f,  0.22127743f, -0.29238808f, -0.08836613f,  0.15669903f,
     0.09987855f,  0.15601422f,  0.06104221f,  0.08511302f,  0.03622580f, -0.02802419f,  0.05252252f,  0.04793933f,
    -0.07859419f,  0.04906830f, -0.04973783f, -0.05334150f,  0.10932604f, -0.08252016f, -0.10405345f, -0.14464177f,
    -0.02484661f,  0.13492925f, -0.14302880f, -0.10373050f,  0.10748566f,  0.00404176f,  0.01018418f,  0.15383148f,
     0.03863283f,  0.09046851f,  0.11941347f, -0.01361326f, -0.02270229f, -0.14998306f, -0.18150610f, -0.26457125f,
     0.10702609f,  0.14582755f, -0.08384055f, -0.04362793f,  0.08272135f, -0.11240199f,  0.12840927f,  0.10857169f,
     0.16133200f,  0.12655357f,  0.20924886f,  0.11811717f,  0.19724837f, -0.05310184f, -0.06626867f, -0.06682720f,
     0.24809188f, -0.06318835f,  0.00862877f, -0.13942830f,  0.05174382f,  0.05111516f,  0.04924768f,  0.03876689f,
     0.15931053f,  0.14835343f, -0.13477364f,  0.09646079f,  0.10590911f,  0.08730903f,  0.03409698f,  0.08956660f,
    -0.07632382f,  0.16149870f,  0.10230435f,  0.03537219f,  0.22629991f,  0.11914296f, -0.13595499f,  0.01127975f,
    -0.11818544f, -0.14128341f, -0.09047649f, -0.01453994f, -0.03647884f, -0.12728223f, -0.05463342f,  0.08844985f,
     0.04389035f,  0.06491919f,  0.02143941f, -0.21250415f,  0.09182163f,  0.11576130f,  0.09433427f, -0.02346640f,
     0.11098216f, -0.00718545f,  0.00961648f,  0.03043789f, -0.13843040f,  0.08433378f,  0.11909564f,  0.10373502f,
    -0.15306850f,  0.11479286f,  0.07159874f,  0.15564418f, -0.30160391f,  0.16969107f,  0.03104031f,  0.18605860f,
    -0.03162109f, -0.10919539f, -0.10745218f, -0.09102845f,  0.24384250f, -0.19930555f, -0.12540048f,  0.03628115f,
    -0.07182851f,  0.12575847f,  0.04439718f,  0.08199311f, -0.09259737f, -0.10165916f, -0.11807685f, -0.19092643f,
    -0.09007563f,  0.00992785f,  0.06022431f,  0.01656323f,  0.16903976f, -0.23064551f,  0.14018144f, -0.09398672f,
    -0.02663381f, -0.09117959f, -0.08897182f, -0.07106291f, -0.02013647f, -0.10488884f,  0.14365703f,  0.06241309f,
    -0.21818343f, -0.19145678f,  0.00693181f,  0.14482801f, -0.00559251f, -0.06463360f, -0.16280043f,  0.03570185f,
     0.02314948f,  0.13354068f, -0.04387698f,  0.14890482f, -0.03732092f,  0.15959731f, -0.10525104f,  0.10804529f,
    -0.12202120f, -0.05848913f, -0.17291628f,  0.09858261f, -0.08009288f, -0.14066857f,  0.17381337f,  0.20184208f,
    -0.07298336f,  0.11960697f,  0.10207179f,  0.13111073f, -0.03085779f,  0.12833582f,  0.14565802f, -0.21563940f,
     0.07668195f, -0.01600377f,  0.17545666f, -0.26192850f, -0.08271497f, -0.04948403f,  0.04388957f, -0.00054576f,
    -0.06152572f,  0.01675827f, -0.18987133f, -0.02252438f,  0.12909429f, -0.08280893f,  0.10899195f,  0.00958352f,
     0.05282159f, -0.00253003f, -0.05498650f,  0.14636411f, -0.12148046f, -0.11270855f, -0.00665839f, -0.14408971f,
     0.04337727f, -0.02191384f,  0.09803938f, -0.09430356f,  0.00410432f,  0.22298406f, -0.01255374f, -0.10865740f,
     0.13296351f, -0.01360925f, -0.06858487f,  0.25631708f,  0.04009743f, -0.10614351f,  0.25262010f, -0.22972798f,
    -0.02291030f, -0.08790229f,  0.01282477f, -0.00257092f,  0.05093544f, -0.09655721f,  0.12119830f,  0.07922842f,
     0.07617489f,  0.06025536f,  0.18462600f, -0.08224243f,  0.05207051f, -0.06173982f, -0.06597170f, -0.12176104f,
    -0.16238846f,  0.09221897f, -0.13298300f, -0.09681390f, -0.01135348f,  0.00134514f, -0.08694206f, -0.12376747f,
    -0.01533376f,  0.11425418f,  0.03718559f,  0.11688405f, -0.08625887f, -0.02485579f, -0.04222165f,  0.04364255f,
     0.00628833f, -0.01348916f,  0.13973258f,  0.14748029f,  0.13589531f,  0.02521935f,  0.12733595f, -0.04794041f,
     0.08669470f,  0.08577952f,  0.06186751f, -0.04064374f, -0.03635470f,  0.05942699f, -0.03989089f, -0.03511226f,
     0.07853010f,  0.11563115f,  0.09106965f, -0.04336228f, -0.06219290f,  0.07413075f, -0.17504592f, -0.09346592f,
     0.05886364f, -0.05325171f, -0.03253786f, -0.07336793f, -0.05223261f, -0.13125820f, -0.06867297f, -0.13903832f,
     0.00561038f, -0.02279564f, -0.01441395f, -0.22196332f, -0.01633026f,  0.53990859f, -0.06858897f,  0.11275642f,
    -0.02587467f,  0.07937332f,  0.08462293f, -0.04275278f,  0.10533509f, -0.04812790f, -0.05608765f,  0.01918982f,
    -0.07401907f, -0.00114082f, -0.14336333f, -0.13484260f, -0.05269986f, -0.10573151f,  0.14990537f, -0.11418974f,
    -0.04083844f,  0.05243565f,  0.03237409f, -0.15001552f,  0.09148443f,  0.09399557f,  0.03225959f,  0.07209945f,
     0.14580646f,  0.07906039f,  0.11194599f, -0.01467607f,  0.11622254f,  0.14462385f,  0.15576431f, -0.16038792f,
    -0.41218072f, -0.25642347f,  0.11237391f, -0.11702945f, -0.02406498f, -0.01233890f,  0.00771974f, -0.13088863f,
    -0.14245886f, -0.03193811f,  0.03151471f,  0.07695976f, -0.03981278f,  0.03726352f,  0.02312681f,  0.12039518f,
     0.07885566f,  0.04775474f,  0.04595914f, -0.09364486f,  0.09144482f,  0.01436583f, -0.02077095f, -0.15985228f,
    -0.05182247f, -0.05573533f, -0.03367998f, -0.04769227f,  0.13652891f, -0.00223270f, -0.12046455f, -0.09403722f,
    -0.02691263f, -0.24641943f, -0.24193840f, -0.00710849f, -0.07570965f,  0.04824727f,  0.05557175f,  0.04040324f,
     0.26779261f,  0.08318331f,  0.04253918f,  0.05043718f,  0.09219347f,  0.15818837f, -0.04509068f,  0.09819210f,
     0.08263428f,  0.00958287f, -0.05125346f, -0.07189864f,  0.08899939f,  0.01150959f, -0.17540661f,  0.03504401f,
    -0.00695322f,  0.19641259f,  0.01669511f,  0.09681468f,  0.11671678f, -0.03673787f,  0.14789186f, -0.11742969f,
     0.14003992f, -0.01536752f, -0.04520169f,  0.12103134f, -0.00356252f, -0.31737024f,  0.46130779f,  0.03437107f,
    -0.04574397f, -0.02975374f, -0.01172775f,  0.17176400f,  0.13238002f, -0.04736688f, -0.09850820f,  0.04642507f,
    -0.08082173f, -0.16731867f, -0.10464275f, -0.07096867f,  0.08231201f, -0.11814897f,  0.14298613f, -0.10055468f,
    -0.16020042f, -0.09825747f, -0.00808474f, -0.02286601f,  0.09461989f, -0.04334765f,  0.03921258f, -0.10970447f,
    -0.02113451f, -0.08767562f, -0.00547920f, -0.15606932f,  0.01521267f, -0.01964184f, -0.02803272f,  0.11323236f,
     0.10565113f, -0.30880812f,  0.01459420f, -0.10139505f,  0.04124569f, -0.17236191f, -0.14746760f,  0.01986559f,
     0.01102041f,  0.04559796f,  0.10340832f, -0.03566355f,  0.10256925f, -0.15810035f, -0.05388938f,  0.09027743f,
     0.04066186f, -0.07908376f, -0.10608034f,  0.01713387f,  0.12194601f,  0.00690968f, -0.01094589f, -0.00841213f,
     0.20589750f,  0.05629306f, -0.05618741f,  0.06152639f,  0.15570316f, -0.07402046f, -0.00049114f, -0.04453247f,
    -0.05247541f, -0.04251370f, -0.14707926f,  0.15238221f,  0.28176585f, -0.08373755f,  0.20378986f, -0.03438972f,
    -0.14818989f,  0.05840119f,  0.03312788f,  0.00019820f, -0.24525551f,  0.11210694f, -0.12526368f,  0.13053693f,
    -0.05337789f, -0.10825996f,  0.14916213f,  0.03948350f, -0.06447347f,  0.11415956f,  0.06837748f,  0.02612263f,
     0.00858036f,  0.07382402f, -0.14542170f, -0.17124575f, -0.04786927f,  0.02943002f,  0.12364212f,  0.05865988f,
    -0.02043539f,  0.05044879f, -0.00269534f, -0.00856948f,  0.10454637f, -0.06268018f, -0.05255864f, -0.34903207f,
    -0.12613258f,  0.05243322f,  0.04420389f, -0.05729826f, -0.01596273f, -0.00705680f, -0.04438659f,  0.06328102f,
     0.06758918f, -0.06573085f, -0.08011309f, -0.15920849f, -0.08290859f, -0.06593591f, -0.07425608f, -0.03146287f,
    -0.04258946f, -0.01647360f, -0.00712245f,  0.19071442f, -0.04945322f,  0.03212981f,  0.14886393f, -0.06481655f,
    -0.00738965f, -0.00395688f, -0.12748171f, -0.08132775f, -0.07515049f, -0.11748339f,  0.05592826f,  0.01556382f,
    -0.25645950f,  0.00340511f, -0.44224074f,  0.21515149f,  0.07297667f,  0.17038697f, -0.06510387f, -0.03346493f,
    -0.04082791f, -0.07758538f,  0.04374312f,  0.01328098f, -0.00599987f, -0.04216443f,  0.01599180f,  0.09477592f,
    -0.07879990f,  0.07735202f,  0.03570148f, -0.12007919f,  0.01103805f,  0.13946249f, -0.00368115f,  0.01046253f,
     0.02021672f, -0.09373314f,  0.11985291f, -0.05084276f,  0.14454743f, -0.14123523f, -0.02821753f,  0.15937385f,
     0.07850185f, -0.06107774f,  0.08671314f, -0.29998565f,  0.18586087f, -0.00298780f,  0.10610270f,  0.01981323f,
    -0.04176570f,  0.09873623f, -0.00954095f,  0.00076979f,  0.19579990f, -0.05312736f, -0.03355582f, -0.04251574f,
    -0.16541101f,  0.05789069f,  0.05430150f,  0.13588862f,  0.00871838f, -0.05884390f, -0.07422370f,  0.09736844f,
    -0.18099706f, -0.07296295f,  0.10197603f, -0.08808775f,  0.01887481f, -0.14269982f, -0.08834851f,  0.10227129f,
    -0.09133091f, -0.21068676f, -0.10821502f, -0.03556669f,  0.03388159f, -0.05307875f, -0.39280680f, -0.11074114f,
    -0.22096556f, -0.27693295f, -0.03724324f, -0.18792991f,  0.31528085f, -0.22246145f, -0.00711354f, -0.07919154f,
     0.14575493f,  0.09426012f, -0.05222541f, -0.10171229f,  0.10545874f, -0.00921606f, -0.01268876f,  0.01942439f,
     0.10440169f, -0.16798064f,  0.10170207f,  0.06382143f, -0.14078730f,  0.06938192f, -0.02833011f,  0.14280379f,
     0.07731217f, -0.05317665f, -0.03186624f, -0.17365301f, -0.00885073f,  0.08566913f,  0.07124241f, -0.15381451f,
     0.08626115f,  0.30380064f,  0.01684095f,  0.12257943f, -0.23467237f, -0.23814344f, -0.03135613f,  0.20855780f,
    -0.04278460f, -0.03172919f,  0.10739847f, -0.00684779f,  0.03804319f,  0.12372705f, -0.01922051f,  0.05092705f,
    -0.12966067f, -0.05497813f,  0.10437685f,  0.02020149f,  0.04271181f, -0.03382273f,  0.09973265f,  0.12250224f,
    -0.05609927f, -0.06505383f, -0.15889817f, -0.04338068f, -0.02694141f,  0.09817368f, -0.03290395f, -0.06293505f,
     0.00421517f,  0.04805859f, -0.02994333f,  0.14763764f, -0.31724632f, -0.22588886f, -0.11415976f, -0.01483880f,
     0.01620290f,  0.11283050f,  0.12113322f,  0.04120102f,  0.08893324f,  0.10068659f,  0.00467035f,  0.06679232f,
    -0.07848261f,  0.08328975f,  0.05027579f, -0.08852977f,  0.01938475f, -0.05000940f,  0.09630428f,  0.06254401f,
     0.11932131f, -0.16256732f,  0.03375083f,  0.00150638f,  0.10098867f, -0.05550306f, -0.04217666f, -0.09510171f,
    -0.08071849f,  0.00593014f,  0.04725702f,  0.03902674f,  0.05746050f, -0.01005160f, -0.04088339f, -0.39937508f,
    -0.00698499f, -0.33440876f, -0.08869338f, -0.00633069f, -0.07577898f,  0.14957736f,  0.05730912f, -0.20225243f,
     0.05232515f, -0.15776214f,  0.08923769f,  0.04202147f,  0.12576817f, -0.02069355f, -0.02800278f, -0.13890409f,
     0.09251823f,  0.12525530f,  0.12583733f,  0.11790334f, -0.05497532f,  0.14586273f,  0.00073610f,  0.08353386f,
     0.03894511f,  0.03750272f,  0.16350915f, -0.07922499f,  0.03989423f,  0.09553745f, -0.11993217f,  0.14944066f,
     0.15873587f,  0.16897431f, -0.05910357f, -0.20640691f,  0.26603746f, -0.22287695f,  0.13759808f,  0.00802392f,
    -0.09152485f,  0.16268592f, -0.08361138f, -0.10253944f, -0.15953907f, -0.02576693f, -0.15703268f, -0.18161064f,
    -0.13659017f,  0.02895333f, -0.13052374f, -0.12920858f, -0.13703673f,  0.14382899f,  0.09137548f, -0.07071116f,
    -0.00774943f,  0.07667490f,  0.05547160f,  0.14016646f,  0.19177981f,  0.13529886f, -0.03948337f, -0.06250043f,
     0.03744194f,  0.05645061f, -0.04624118f,  0.01808714f, -0.10270642f,  0.06937005f, -0.04561963f, -0.09681010f,
     0.04694213f, -0.00781787f, -0.04918228f, -0.16015220f, -0.11138515f, -0.01229589f,  0.05126421f,  0.14616705f,
    -0.07613073f, -0.07549004f, -0.05490875f, -0.10869754f, -0.01997242f,  0.10221733f, -0.06075580f, -0.14056434f,
     0.10005427f,  0.07131121f,  0.08250771f, -0.00244558f, -0.00263561f,  0.15005167f,  0.11023927f,  0.08341762f,
    -0.06044510f, -0.07893064f,  0.04009967f, -0.05768617f,  0.03667469f, -0.04342553f,  0.03333869f,  0.02051416f,
    -0.02219758f,  0.27333185f, -0.08586521f,  0.11887889f, -0.04130571f, -0.05219949f, -0.06199791f, -0.02128653f,
    -0.07287434f,  0.00125866f, -0.11979467f,  0.05109359f, -0.05694173f,  0.05402890f, -0.05008978f,  0.05091310f,
     0.05806866f,  0.06308869f, -0.11931141f, -0.11072794f, -0.15278795f,  0.01607898f,  0.09255660f, -0.08065215f,
     0.10847754f, -0.18344852f,  0.06390962f, -0.13044444f, -0.03977276f, -0.01395269f,  0.05612787f,  0.08755311f,
     0.04589197f, -0.01842489f, -0.12835220f,  0.04780421f, -0.05702575f,  0.44864419f,  0.18682641f,  0.06264777f,
     0.13999109f, -0.10995409f,  0.07255409f,  0.19712755f, -0.02456698f,  0.07875796f, -0.00643175f,  0.09814240f,
    -0.11836926f,  0.15954657f, -0.04906275f,  0.09153823f, -0.16731717f,  0.14891946f,  0.15251489f,  0.00585577f,
     0.08457257f,  0.03258007f, -0.03571162f, -0.14849453f, -0.19422865f, -0.18996255f,  0.04360300f, -0.12460237f,
     0.02424038f, -0.16033493f, -0.04094906f,  0.17272107f, -0.00916706f,  0.05783333f,  0.28847936f, -0.14241400f,
    -0.01814928f, -0.02245210f, -0.01956601f,  0.02914139f, -0.02962414f,  0.06733270f,  0.03763844f,  0.05941452f,
    -0.13636138f, -0.19769540f, -0.04081325f,  0.13440661f,  0.09425215f,  0.15770313f,  0.00034775f,  0.10585961f,
     0.00660545f, -0.02527511f, -0.05753804f,  0.11262884f, -0.18877541f, -0.16197957f, -0.04255785f, -0.21039428f,
     0.10388133f, -0.18870603f,  0.15458572f, -0.10474851f, -0.23408253f,  0.07066518f,  0.14412872f, -0.03407339f,
     0.13169938f, -0.20298880f,  0.10001258f, -0.04017102f, -0.18994971f,  0.06584031f, -0.02269462f,  0.07473250f,
    -0.06099059f, -0.10083831f, -0.02977583f, -0.01133923f,  0.00159539f, -0.03271651f, -0.03515862f,  0.04710573f,
     0.13537608f, -0.06284580f, -0.04056382f, -0.06242861f,  0.14172184f, -0.04620089f,  0.01762723f,  0.08219346f,
     0.09115899f, -0.10557874f, -0.14293043f, -0.04807794f, -0.10386211f, -0.09289361f,  0.10992406f,  0.10735399f,
    -0.12736118f, -0.05031909f,  0.11844818f,  0.05480713f, -0.23233284f, -0.02287810f,  0.28142384f,  0.14787544f,
     0.11686132f, -0.13485651f, -0.12643115f,  0.01769667f, -0.08549319f, -0.11336356f,  0.06497633f,  0.00750933f,
    -0.03054771f,  0.06114508f,  0.08991874f, -0.09101186f,  0.05600535f,  0.07792873f,  0.09988607f,  0.06728749f,
     0.06357705f, -0.07696139f,  0.02355357f,  0.09557305f, -0.05893052f, -0.08758485f,  0.03687074f,  0.13991489f,
     0.04743226f, -0.11714207f, -0.08769723f,  0.07860649f,  0.00905410f,  0.04815040f,  0.05586335f,  0.13876392f,
    -0.22996300f,  0.17063469f,  0.27957872f,  0.01410955f,  0.13174796f,  0.07812335f, -0.09222976f,  0.12321380f,
    -0.00464218f, -0.03448439f,  0.00345466f, -0.09420606f,  0.03573723f, -0.16008376f,  0.03673316f, -0.01123662f,
    -0.08097526f,  0.10086080f,  0.18699665f, -0.14936166f, -0.14200950f,  0.01532548f,  0.10221769f,  0.12350709f,
     0.02288312f,  0.02104930f,  0.16629189f,  0.04705869f, -0.08110576f, -0.03775420f, -0.12773526f,  0.01337040f,
    -0.04775576f,  0.02330969f,  0.16101803f,  0.21374545f,  0.33033958f,  0.23551348f,  0.01877233f,  0.02809488f,
     0.07334711f,  0.05485748f,  0.04577465f, -0.18731892f,  0.13273284f, -0.11861527f,  0.01198014f,  0.08947647f,
     0.01583572f,  0.09977239f,  0.05272661f, -0.19556007f, -0.04804102f, -0.03973415f,  0.04990503f,  0.01092957f,
     0.13491936f,  0.14727817f,  0.00284213f,  0.00147856f, -0.03467248f,  0.01580598f,  0.10171068f,  0.06484251f,
    -0.04164328f, -0.14463261f, -0.02622906f, -0.04999735f,  0.04851942f,  0.22968274f,  0.02992594f,  0.34807187f,
     0.11305249f, -0.04506770f,  0.13930930f,  0.05138160f, -0.02492175f,  0.01407357f,  0.09388756f,  0.09953182f,
    -0.23472312f,  0.06368820f,  0.04841063f, -0.14666153f,  0.10644554f, -0.05770111f, -0.13561776f, -0.09295157f,
    -0.06503280f,  0.11401135f, -0.14693575f, -0.03164675f, -0.07204233f, -0.01102010f, -0.12924655f,  0.16216943f,
     0.01988374f, -0.14943784f,  0.09766859f,  0.17935179f, -0.12724259f,  0.04177744f,  0.01868217f,  0.09892192f,
    -0.36413431f,  0.08594523f, -0.15513928f,  0.10861163f, -0.19570377f,  0.02997194f,  0.09488028f,  0.09265950f,
     0.10444939f, -0.01969392f,  0.15458541f, -0.10525163f, -0.10998653f,  0.08489298f,  0.08093596f,  0.14867450f,
     0.05486685f, -0.11375056f, -0.14937295f,  0.01569878f,  0.06458606f,  0.10416200f,  0.05240561f,  0.08968759f,
     0.12126611f, -0.06896149f,  0.03369959f,  0.16527766f,  0.10309127f,  0.05629220f,  0.07774263f,  0.04316001f,
    -0.16778368f, -0.14540665f,  0.00158317f,  0.29388610f,  0.03696115f, -0.28344589f, -0.15664449f, -0.13438225f,
    -0.12107879f,  0.20547873f, -0.07657633f,  0.17418410f,  0.14503372f,  0.00095374f, -0.07633482f, -0.20090242f,
     0.14171951f,  0.09277936f, -0.01015133f,  0.08534113f,  0.15430366f, -0.05415303f, -0.12743883f,  0.11692709f,
     0.09652892f,  0.01327963f, -0.04916836f, -0.11471693f,  0.09944309f, -0.15526587f, -0.12125959f, -0.13340329f,
    -0.00901645f, -0.07406953f,  0.14158678f, -0.05888465f,  0.02127933f, -0.01198706f,  0.28128728f,  0.04721034f,
     0.08626122f, -0.06878130f, -0.19572848f,  0.09389529f,  0.11807096f, -0.06136514f, -0.13898315f,  0.11960687f,
     0.04314531f, -0.03304884f, -0.12845078f,  0.09912327f, -0.05341059f,  0.03482719f, -0.02786663f,  0.19257410f,
     0.03743562f,  0.02733070f, -0.04124899f,  0.11899032f, -0.18527098f, -0.13845116f,  0.11942977f, -0.05829614f,
    -0.03788510f, -0.07835305f,  0.14309379f,  0.07409588f, -0.08774780f,  0.05418389f,  0.05825562f, -0.11571542f,
    -0.12210952f,  0.31410828f,  0.11533141f, -0.33676010f, -0.00296979f, -0.07001083f, -0.08798373f, -0.04336559f,
    -0.09480052f, -0.08805776f, -0.07939243f, -0.19160601f, -0.12431764f, -0.05337441f, -0.00874699f, -0.17203943f,
    -0.12342218f,  0.06266835f,  0.10492621f,  0.10912158f, -0.08476201f,  0.10013050f, -0.07380611f, -0.07616094f,
    -0.17320733f,  0.02554599f,  0.01366208f, -0.05046327f, -0.10250221f, -0.16132697f,  0.04282580f,  0.02830791f,
     0.02494664f,  0.06434149f, -0.07629639f, -0.15292834f, -0.16420513f,  0.06794938f, -0.34330088f,  0.03761415f,
     0.18188515f, -0.06531218f,  0.10958106f,  0.04852192f, -0.03330128f, -0.08479652f,  0.08964726f,  0.05089669f,
    -0.13069978f,  0.08218044f,  0.06978640f,  0.05067579f, -0.11571710f, -0.06732567f, -0.07382797f,  0.12259112f,
     0.06909637f, -0.05374020f,  0.05218080f,  0.00307845f, -0.05200500f,  0.02076786f,  0.11199465f,  0.06426695f,
     0.16681981f, -0.09971202f, -0.17423747f, -0.15456122f, -0.11401758f,  0.13478072f, -0.15147655f,  0.02091613f,
     0.20927085f, -0.37415111f,  0.14787373f, -0.00827938f,  0.07658119f, -0.17846452f, -0.05242187f, -0.00358529f,
    -0.14871308f, -0.06256967f, -0.04477705f,  0.05600465f,  0.11948911f, -0.15087529f,  0.12297994f, -0.02593128f,
    -0.11619604f, -0.08325756f,  0.02604713f, -0.03025228f,  0.05565648f,  0.09271408f, -0.11641028f,  0.03914311f,
     0.06860882f, -0.12015259f, -0.05016314f, -0.13642386f,  0.01378263f,  0.07000180f,  0.02954386f, -0.02647847f,
     0.09403001f,  0.15650403f, -0.35268387f,  0.06550945f,  0.41551924f, -0.26181880f,  0.11530781f, -0.12393755f,
    -0.00683742f,  0.02172869f, -0.11212545f,  0.05414249f, -0.06648718f,  0.07782641f,  0.04856811f, -0.08957472f,
     0.14017132f,  0.10166774f, -0.08783861f,  0.06793256f, -0.03553949f, -0.03481688f,  0.14871474f, -0.12784281f,
     0.07166269f,  0.13979030f,  0.00575420f,  0.03142849f, -0.01953197f,  0.14231887f, -0.03612015f, -0.17827372f,
     0.05580731f, -0.12929082f,  0.08858833f,  0.07588124f,  0.08403507f,  0.18088706f, -0.01011251f, -0.35888466f,
     0.19523950f, -0.04212620f, -0.13248657f, -0.05232460f,  0.14681059f,  0.30912402f, -0.16009267f,  0.10755245f,
     0.04024715f, -0.13199402f, -0.01364199f,  0.09743150f,  0.09070660f,  0.03167928f, -0.07726140f,  0.17323500f,
     0.12211756f, -0.04017621f, -0.02185987f, -0.01517481f,  0.18815011f,  0.15416074f,  0.08354110f, -0.05422124f,
    -0.10693759f,  0.06927809f, -0.04850083f,  0.12680459f, -0.12889314f, -0.00488756f, -0.05793968f,  0.00683983f,
     0.02453348f, -0.12303685f, -0.12997957f, -0.24745409f, -0.05361138f,  0.16514942f,  0.22471224f,  0.07242827f,
    -0.07284943f,  0.09042948f,  0.01946452f,  0.10824713f,  0.14652090f,  0.10910014f, -0.16871752f,  0.08113579f,
    -0.20860499f,  0.07247679f,  0.16543689f,  0.13283104f,  0.10233203f,  0.03212014f, -0.12693070f,  0.01223374f,
     0.08678297f, -0.09498476f, -0.25520507f,  0.05620082f, -0.05322425f, -0.00858622f,  0.01506859f,  0.14153045f,
    -0.08815881f,  0.02678980f,  0.00561768f, -0.21223754f, -0.00057252f, -0.19785298f, -0.19921480f, -0.03295704f,
    -0.10054064f,  0.08485249f,  0.08167998f, -0.02942966f,  0.12396035f,  0.07207172f,  0.06363744f, -0.13523278f,
     0.06770063f,  0.03475963f, -0.09429236f,  0.11010119f,  0.09442217f,  0.05223267f,  0.12611037f, -0.03879189f,
    -0.04053221f, -0.15046710f,  0.07693198f, -0.08412602f,  0.06252290f,  0.06067564f,  0.01259532f, -0.12417181f,
    -0.19055949f, -0.04194523f,  0.08750182f, -0.01332443f, -0.05950281f, -0.05489973f, -0.27843127f, -0.04900274f,
     0.22160745f,  0.23897335f, -0.10096583f, -0.06879780f, -0.20190077f,  0.06229448f,  0.17301396f, -0.20083010f,
    -0.01342930f,  0.02671286f,  0.08374683f, -0.09927388f, -0.01991438f,  0.01538752f, -0.00797380f,  0.04531638f,
     0.13521576f, -0.17131382f,  0.13568130f, -0.10543597f,  0.00849503f, -0.02400106f, -0.12924588f, -0.09349855f,
     0.03386451f, -0.00004326f,  0.04344310f, -0.03944064f,  0.01735537f, -0.14066456f, -0.00885381f, -0.11085077f,
    -0.03522602f,  0.06023981f, -0.17535211f,  0.07470930f,  0.15207604f, -0.06489594f,  0.20309848f,  0.18017058f,
     0.24624588f, -0.21035562f, -0.23526913f,  0.16767374f,  0.04616087f,  0.17645748f,  0.05424827f,  0.13409805f,
    -0.06459795f,  0.03991728f, -0.00553949f, -0.12451082f,  0.01006684f,  0.08317111f,  0.08242942f, -0.08077873f,
    -0.10395237f,  0.02894057f, -0.07319396f,  0.22442026f, -0.17697433f,  0.06101151f, -0.08444220f,  0.02039696f,
     0.07079898f,  0.07081126f,  0.08153422f,  0.00067694f,  0.11764073f, -0.03338444f, -0.13011777f, -0.17103219f,
    -0.01280401f, -0.07209826f,  0.24477726f,  0.19381183f,  0.08396491f, -0.12936738f,  0.07298119f,  0.07897243f,
     0.13297693f, -0.03821168f,  0.10241646f,  0.07500597f,  0.12568270f,  0.07668400f, -0.02017020f,  0.02118290f,
     0.04330266f,  0.01877637f,  0.10895066f, -0.05853489f,  0.01205458f,  0.18348069f,  0.00979623f,  0.08431301f,
    -0.13329989f,  0.07458742f, -0.07976756f,  0.05749205f, -0.03089538f,  0.17246693f, -0.12782246f,  0.09138691f,
     0.00917731f,  0.26315156f, -0.24554399f, -0.26222542f, -0.01851896f,  0.02806633f, -0.12717113f,  0.12440934f,
     0.01853512f, -0.13495874f, -0.02126694f,  0.00586994f,  0.10172331f, -0.01043839f, -0.12514673f, -0.09083404f,
    -0.02609450f, -0.03698365f, -0.06311101f, -0.08797692f, -0.12055795f, -0.16087694f, -0.10650333f, -0.14722356f,
    -0.09965739f, -0.07539705f,  0.09382348f,  0.09303612f, -0.11853927f,  0.12065474f, -0.00472343f,  0.06859326f,
    -0.05458724f,  0.09433547f,  0.22918026f,  0.12954229f,  0.28913453f, -0.11676440f, -0.15111743f,  0.14380682f,
    -0.08973518f, -0.07674831f, -0.26814166f, -0.04811966f, -0.01028049f, -0.11635268f,  0.00015669f,  0.06910645f,
     0.07293474f,  0.04108794f, -0.04474933f, -0.01077060f,  0.01896042f, -0.10609944f, -0.03159460f, -0.13153143f,
    -0.12768565f,  0.02237731f, -0.11312863f, -0.11317856f, -0.12530906f,  0.02759022f,  0.10654908f,  0.02106803f,
     0.10123791f,  0.16497439f, -0.08733895f,  0.00329163f,  0.11222628f,  0.24392566f,  0.00966186f, -0.01367008f,
    -0.17570823f, -0.05480906f,  0.14189202f,  0.16571510f,  0.20000245f, -0.06610364f, -0.04709554f,  0.14508425f,
     0.01968550f,  0.11879606f,  0.11106492f, -0.07060317f, -0.11793768f, -0.03828273f,  0.07988641f, -0.00393425f,
    -0.07353970f, -0.09972662f, -0.05979303f,  0.11312591f,  0.02866756f, -0.05930379f,  0.00846816f,  0.01099502f,
     0.06786898f,  0.12346333f,  0.04874922f, -0.02833187f,  0.03033586f, -0.09670977f,  0.00150953f,  0.00757998f,
     0.35312629f, -0.10861098f, -0.40199336f,  0.21344736f, -0.00943498f, -0.04994852f,  0.20138316f,  0.17492640f,
     0.20288771f, -0.03391948f,  0.03343331f, -0.05375586f, -0.07945570f, -0.07974906f, -0.04087522f, -0.11133189f,
     0.08181259f, -0.12168980f,  0.13447732f, -0.11936796f, -0.03368538f,  0.07857256f, -0.05952305f,  0.13080709f,
    -0.05049569f, -0.03095550f,  0.03313764f,  0.18245448f, -0.09642908f,  0.08507261f, -0.06046072f,  0.03297877f,
     0.04123867f,  0.09467954f,  0.01959096f, -0.07336584f,  0.09787232f,  0.01924422f, -0.07922034f, -0.08722327f,
     0.08587844f, -0.12161876f, -0.18124330f, -0.09801493f, -0.12867229f,  0.04486157f,  0.11498784f, -0.07017769f,
    -0.07315635f, -0.10862479f,  0.02332096f, -0.11374272f, -0.14584647f,  0.10370445f, -0.06168638f,  0.10265513f,
    -0.05983731f,  0.10492704f,  0.06714951f,  0.12332202f,  0.08818544f,  0.01737981f, -0.01812653f, -0.00031790f,
    -0.05052706f, -0.13989377f,  0.05990903f,  0.01086047f, -0.05847459f,  0.08202478f, -0.06702120f,  0.16348895f,
    -0.33669499f, -0.25029185f,  0.05795735f, -0.09440090f,  0.00441045f, -0.10620827f, -0.16248298f, -0.16402504f,
     0.15109389f,  0.07442953f,  0.07349767f, -0.12412447f, -0.12681891f,  0.05986793f, -0.18136068f,  0.06710701f,
    -0.02977830f, -0.05602163f, -0.09250692f, -0.05782472f,  0.07032023f, -0.02684584f,  0.11398971f,  0.00006883f,
     0.02735987f,  0.21320498f, -0.01406737f, -0.04775383f,  0.19935943f,  0.05994684f, -0.15021653f,  0.23443532f,
     0.12520179f, -0.06457105f,  0.16603616f, -0.02667643f,  0.02676243f,  0.04146075f, -0.04429021f, -0.05390634f,
     0.04072453f, -0.04531893f, -0.07625321f, -0.08719229f, -0.03340221f,  0.12389451f, -0.11002643f,  0.03330293f,
     0.01825255f, -0.09776819f, -0.03842843f,  0.11881735f, -0.10641719f,  0.06766433f,  0.12006035f, -0.03839335f,
    -0.06043074f,  0.15213063f, -0.04549224f,  0.02527978f,  0.15314062f,  0.07704733f,  0.10044555f,  0.03574978f,
     0.14047715f, -0.10698850f, -0.18020819f, -0.15205808f, -0.18664448f,  0.02064725f,  0.42988896f,  0.09679928f,
    -0.06712222f,  0.16185281f, -0.11304097f,  0.06768085f, -0.03484979f,  0.10647073f, -0.11411911f, -0.00124934f,
    -0.12275693f,  0.07237881f,  0.14343008f, -0.14575548f,  0.07098637f, -0.01415620f, -0.01454127f,  0.09624916f,
    -0.12689778f, -0.20621204f,  0.01846256f, -0.16912498f, -0.06517738f, -0.09297080f,  0.01583993f,  0.13810267f,
     0.15811998f, -0.04684153f, -0.04480005f,  0.12958452f, -0.03782180f, -0.09809633f,  0.03950654f, -0.03805095f,
     0.18636118f,  0.21890566f,  0.21858580f, -0.00430439f,  0.04010892f,  0.05092600f,  0.00467680f, -0.05749900f,
    -0.07348056f,  0.10909329f,  0.07315548f,  0.09792617f, -0.11050259f, -0.07138095f,  0.03671910f, -0.09951233f,
    -0.03507267f, -0.08333842f,  0.00571707f, -0.08962259f,  0.13812059f,  0.11996350f,  0.03705665f, -0.07459944f,
    -0.00447956f,  0.00488827f,  0.15036958f, -0.02104069f, -0.05311545f, -0.09185771f,  0.00233313f, -0.06128627f,
    -0.09545279f,  0.01650466f, -0.29202422f,  0.19038275f, -0.32353619f, -0.02136572f, -0.18494456f, -0.11065470f,
     0.16730908f,  0.08902325f, -0.15449297f,  0.07088304f,  0.06354566f,  0.04132713f,  0.01561999f, -0.07441685f,
     0.11582825f, -0.10642071f, -0.06553571f, -0.06232297f, -0.09436120f,  0.03911976f,  0.06715985f,  0.05023988f,
     0.01404201f, -0.01178377f,  0.11892939f, -0.09809117f,  0.15505527f, -0.06716617f,  0.04131037f,  0.04623701f,
     0.02361083f, -0.11283875f, -0.12818789f,  0.05142906f,  0.07479629f,  0.03147788f, -0.09116424f,  0.50941092f,
     0.12041844f, -0.21671346f,  0.11798038f,  0.01356255f, -0.01494978f,  0.12936248f,  0.01799782f,  0.01788816f,
     0.00087767f,  0.07201056f, -0.12760417f,  0.01505910f, -0.10662468f,  0.06727369f,  0.11451428f, -0.13545100f,
    -0.16256873f,  0.05383770f,  0.01232956f,  0.05653997f,  0.09767593f,  0.09609865f, -0.12214062f, -0.12671740f,
     0.05241587f, -0.12464558f,  0.08143628f,  0.06450686f,  0.00254354f, -0.00919849f,  0.00231732f, -0.15150148f,
    -0.19189468f, -0.22022796f,  0.25721601f,  0.10213929f, -0.06620238f,  0.09568325f,  0.09797069f,  0.24109738f,
     0.14555530f, -0.10238229f,  0.15000878f,  0.14285065f, -0.05754052f, -0.07224921f,  0.09402871f, -0.02605870f,
     0.10196942f,  0.07270204f,  0.15657516f, -0.10631764f, -0.15261957f,  0.00277089f, -0.03316994f,  0.07185099f,
     0.06888146f,  0.11744348f, -0.03749762f,  0.01727383f,  0.08960959f,  0.12029301f, -0.14089392f, -0.00364752f,
     0.19809684f, -0.05448829f,  0.01554275f,  0.24168991f, -0.05389644f,  0.35296634f,  0.01301868f, -0.21585636f,
     0.20895092f,  0.06866428f,  0.06267365f, -0.14032489f, -0.07972382f, -0.17410326f,  0.10892038f,  0.16712582f,
     0.08937956f,  0.11262456f,  0.14737247f,  0.03313693f, -0.24246299f, -0.00483866f,  0.02036290f,  0.00340542f,
    -0.19535403f,  0.03425945f,  0.03207717f,  0.09357742f, -0.13399655f,  0.04388781f, -0.18263386f,  0.13723230f,
    -0.15817106f, -0.23872802f,  0.02871796f, -0.11879571f, -0.09727655f, -0.06942987f, -0.10619596f,  0.03377533f,
    -0.04759078f,  0.19497900f, -0.25763544f,  0.18617573f,  0.12012012f,  0.01425352f,  0.01572073f, -0.07608207f,
     0.07156146f, -0.15423767f, -0.00480032f, -0.07453442f, -0.15737951f,  0.18807139f,  0.12208159f, -0.03517113f,
     0.08571870f, -0.07318114f, -0.08749941f,  0.03532984f,  0.17731157f,  0.04368335f, -0.00109092f,  0.12155826f,
     0.02527106f, -0.06567121f,  0.08272815f,  0.10605212f, -0.07464696f, -0.12542121f,  0.03100189f, -0.18649052f,
    -0.10986628f, -0.22135168f,  0.22844288f, -0.33306807f, -0.06063593f, -0.00364184f,  0.13048424f,  0.04923759f,
     0.03675300f,  0.00790902f,  0.08958675f, -0.11174702f, -0.17066680f, -0.11244638f,  0.18730900f, -0.07582238f,
    -0.08214346f, -0.03511061f,  0.15660655f, -0.08780956f, -0.03547385f, -0.05541125f, -0.16148403f,  0.03379497f,
    -0.14050306f, -0.12324189f, -0.02251553f,  0.07805287f, -0.09704311f, -0.14459506f,  0.22659984f,  0.02669125f,
    -0.00804366f,  0.16857447f,  0.06263033f,  0.15433714f,  0.23642726f,  0.00376937f, -0.29332685f, -0.07707945f,
     0.13079983f, -0.05700956f,  0.17223470f, -0.06853721f, -0.11626627f, -0.15870021f, -0.03746478f, -0.03888735f,
     0.03578301f,  0.05711640f, -0.10989063f,  0.01373941f, -0.00942568f, -0.09778085f,  0.08041172f, -0.02001994f,
    -0.05546723f,  0.13887297f, -0.03943828f,  0.10606385f, -0.12030228f, -0.10422268f, -0.12392598f,  0.06450982f,
     0.05898461f,  0.07305878f,  0.05666095f, -0.09041201f,  0.08843649f,  0.05592216f, -0.06473023f,  0.10909806f,
     0.00059772f,  0.02147709f,  0.14990553f,  0.12395478f, -0.07571217f,  0.07369597f, -0.19947873f,  0.00234234f,
     0.00428674f, -0.14889725f, -0.23293675f, -0.00523232f, -0.11490069f,  0.02330475f,  0.01073439f,  0.10413181f,
    -0.00552412f, -0.09037220f,  0.07450443f,  0.00075689f, -0.07730702f,  0.08468726f,  0.18667854f,  0.01260574f,
    -0.00760883f,  0.07091666f, -0.02786546f,  0.02076091f,  0.16851601f, -0.20144179f, -0.12165742f, -0.16084635f,
    -0.24319784f, -0.00342144f, -0.17719094f,  0.01689211f,  0.04473821f, -0.16944869f, -0.10195848f, -0.17342366f,
    -0.15922089f,  0.02197444f, -0.04727723f,  0.12504543f, -0.11816524f, -0.03998649f,  0.08016105f,  0.17066316f,
     0.02950356f, -0.16773878f, -0.01158428f, -0.13472815f, -0.09000611f, -0.03450969f, -0.07661536f, -0.04012507f,
    -0.00364958f,  0.02063582f,  0.19539495f,  0.03300441f,  0.03762312f, -0.00776615f, -0.11858270f, -0.07954140f,
     0.11739250f, -0.12266865f, -0.00101811f,  0.04329189f,  0.05026622f, -0.33713302f, -0.19329637f, -0.22859095f,
    -0.12356265f,  0.07103261f, -0.06841283f,  0.06463685f, -0.14864415f,  0.15860207f,  0.11899472f,  0.05931245f,
    -0.23292185f, -0.26064864f,  0.15582313f, -0.05868656f,  0.10918486f,  0.04549773f, -0.02804752f,  0.09992600f,
    -0.09740014f,  0.03532282f,  0.02514893f, -0.00106512f,  0.01211033f, -0.22721942f, -0.18875369f,  0.09527490f,
     0.18721491f,  0.01656140f,  0.05634536f, -0.05731207f, -0.00599198f,  0.19384558f, -0.02180444f,  0.00620073f,
     0.30470198f, -0.02036923f, -0.06524555f, -0.21863954f,  0.09209672f, -0.16522832f, -0.08095317f, -0.01300207f,
     0.18293807f,  0.06101495f, -0.08536015f,  0.13158174f,  0.09476301f,  0.14208110f,  0.20401074f, -0.06702088f,
     0.07829376f,  0.17172110f,  0.18258606f, -0.02784892f, -0.02553032f,  0.07635228f,  0.08360673f,  0.00725102f,
     0.16544865f,  0.05710836f, -0.14541544f,  0.11954527f,  0.08288679f,  0.13916054f, -0.11231799f, -0.15478817f,
    -0.21335909f,  0.16234921f, -0.04309265f,  0.23745057f,  0.01686201f, -0.34467170f,  0.15275215f, -0.15858160f,
     0.09381851f,  0.16645916f,  0.02129529f,  0.16422690f, -0.04103226f, -0.11875940f,  0.15169920f, -0.07831024f,
    -0.05421739f, -0.00151076f,  0.08423571f, -0.06316365f, -0.08064406f, -0.04011980f, -0.24956290f, -0.07626499f,
     0.11073901f,  0.04405418f, -0.09315529f, -0.15843222f, -0.11719449f, -0.03506626f, -0.07512875f, -0.10448845f,
    -0.17136978f, -0.01262772f, -0.07090250f, -0.15391663f, -0.10154169f, -0.09571061f, -0.00827814f, -0.09484464f,
     0.00325879f,  0.13265093f, -0.08890473f, -0.12306437f,  0.01146881f, -0.06201963f,  0.07526283f,  0.07735744f,
    -0.15267113f, -0.04907874f, -0.16680539f,  0.01531667f, -0.12428017f,  0.06826282f, -0.02906522f,  0.11406428f,
    -0.03401474f, -0.05459141f, -0.02968843f,  0.03209221f, -0.02756789f,  0.03380245f, -0.15833820f,  0.00290352f,
     0.06297243f,  0.00593337f,  0.11616769f, -0.14389986f,  0.07730262f,  0.10259667f,  0.18208751f,  0.08352136f,
     0.07329954f, -0.11445042f,  0.13763918f, -0.39583763f,  0.21396191f,  0.02650265f,  0.02042631f, -0.11472385f,
     0.11766756f,  0.09422923f,  0.09839936f,  0.16491106f,  0.00705813f,  0.07442789f, -0.00419604f, -0.11232822f,
     0.08006582f, -0.11703608f,  0.01508227f, -0.07240425f,  0.06728598f, -0.07546024f,  0.10505714f,  0.07710969f,
    -0.03866803f,  0.05616358f, -0.03564175f,  0.09501877f, -0.00358934f, -0.15542383f,  0.13004789f, -0.07019575f,
    -0.03352694f, -0.13017696f,  0.13980128f,  0.04267693f,  0.18557429f, -0.35166228f, -0.03867709f,  0.25447759f,
     0.04869782f, -0.11012447f,  0.22189532f,  0.14310330f,  0.09252592f,  0.08604911f, -0.07318292f,  0.17630692f,
     0.05372264f, -0.05576563f,  0.12030843f,  0.00920716f, -0.15098754f, -0.12494609f, -0.08376236f, -0.16409110f,
    -0.15238173f, -0.02091063f,  0.04618634f, -0.11445730f, -0.09648868f, -0.09438575f, -0.13458355f,  0.10653210f,
     0.11935988f, -0.01803880f, -0.12285654f, -0.16379528f, -0.17818159f,  0.01887971f,  0.06505232f, -0.09017539f,
     0.21831985f,  0.38459489f, -0.21198340f, -0.08126982f, -0.11683843f,  0.09199258f, -0.30428082f, -0.22864269f,
     0.09327924f, -0.16894086f,  0.10408559f,  0.04173481f, -0.03706928f, -0.06756287f,  0.02021023f, -0.07904001f,
     0.05534532f, -0.03771521f, -0.19420674f,  0.18895736f, -0.10647026f,  0.10102297f, -0.18819115f, -0.06183350f,
    -0.01468325f, -0.18785268f, -0.06074827f, -0.06701936f, -0.00809951f, -0.10385254f, -0.07512709f, -0.02840737f,
    -0.12904248f, -0.16649556f,  0.29440308f, -0.05416467f,  0.17406812f,  0.16538458f,  0.06411435f,  0.04549295f,
     0.18043660f,  0.03525159f,  0.01870901f, -0.07683145f,  0.07292303f, -0.12739848f, -0.02713852f,  0.06903186f,
    -0.05751594f, -0.12099803f,  0.08113930f, -0.06500678f,  0.09278337f, -0.13706306f,  0.02993091f,  0.13123633f,
     0.04618196f, -0.02468693f,  0.11820015f,  0.04700980f, -0.02017224f,  0.18541028f,  0.13953057f, -0.16177925f,
     0.15234497f, -0.04525793f,  0.11953484f,  0.19209790f, -0.16428810f,  0.09077977f,  0.08945037f, -0.24602939f,
    -0.28626981f,  0.04036975f,  0.18406910f,  0.09713009f, -0.00156161f, -0.13245165f, -0.11187600f,  0.15390827f,
     0.14989612f, -0.07528701f, -0.04834509f,  0.05671552f,  0.02813614f,  0.11934354f, -0.01935017f, -0.00852734f,
    -0.21649945f, -0.24650581f,  0.07591864f, -0.12100109f,  0.09026518f, -0.14099212f, -0.00628520f, -0.13996519f,
    -0.03098596f, -0.08115357f,  0.08462737f, -0.09748343f, -0.11808806f, -0.03958556f,  0.00492557f,  0.01255187f,
     0.20019135f,  0.23360963f,  0.10049482f,  0.15934429f,  0.05444091f, -0.06194199f,  0.01757970f,  0.06015434f,
     0.04043407f, -0.03582338f,  0.07488600f, -0.09181120f,  0.02336111f,  0.16500364f,  0.01781265f,  0.06850245f,
    -0.12392836f,  0.10584376f, -0.02876172f, -0.05513171f, -0.02436293f,  0.00749420f,  0.00182531f, -0.07550667f,
    -0.09856082f,  0.06638689f, -0.10382882f,  0.12635130f,  0.07839231f,  0.06749648f, -0.00237546f,  0.07615213f,
    -0.01708381f, -0.09253029f,  0.10562706f,  0.07588129f, -0.14736256f,  0.23092994f,  0.21434928f, -0.01180433f,
     0.05847942f,  0.01374654f,  0.03397955f, -0.15217786f,  0.12900223f,  0.04765694f,  0.09805468f, -0.08412343f,
     0.11182229f, -0.15654537f, -0.00864616f, -0.06706954f, -0.07037491f, -0.11410475f, -0.04356242f, -0.04841796f,
     0.07662012f,  0.06248898f,  0.04125681f, -0.00289603f,  0.08571143f,  0.12138623f,  0.06408396f,  0.05997802f,
    -0.01522894f,  0.00401183f, -0.07909089f,  0.03285899f, -0.09463914f,  0.12835130f, -0.33762908f, -0.17349055f,
     0.25908571f,  0.06538147f,  0.15071006f,  0.17622714f,  0.09345692f, -0.10802883f, -0.15311305f,  0.06499623f,
     0.15588684f,  0.09157605f, -0.07008216f, -0.17493458f, -0.16024570f,  0.18367656f, -0.04858678f, -0.02675873f,
     0.09463350f,  0.10299374f, -0.07435670f, -0.01647511f, -0.05776270f,  0.07508194f,  0.12780297f, -0.15924586f,
    -0.05890977f, -0.09929140f, -0.00151514f,  0.01753605f, -0.12867600f,  0.01012595f,  0.05047501f, -0.08624521f,
    -0.13617611f,  0.12090039f,  0.27365467f, -0.04527383f,  0.15103433f, -0.04752401f,  0.10389929f, -0.04649829f,
    -0.06607725f,  0.04898069f, -0.08189018f,  0.12191654f,  0.05264961f,  0.00672296f, -0.08698255f,  0.17668137f,
    -0.01429847f,  0.08323061f,  0.02102374f,  0.02030318f, -0.05091724f, -0.01509831f,  0.03594159f,  0.21931811f,
     0.01256195f, -0.09770545f,  0.04233326f,  0.06456515f,  0.01822174f,  0.15958419f, -0.01945755f, -0.04234070f,
     0.14278626f,  0.07148777f,  0.05880152f,  0.08636788f,  0.10751143f,  0.04168318f, -0.22468360f,  0.27512297f,
     0.06012338f,  0.21121535f,  0.02261736f, -0.02343492f,  0.14863303f, -0.18187132f, -0.14336482f, -0.09118430f,
    -0.17315443f, -0.23011045f, -0.02597510f,  0.07357226f, -0.08075548f,  0.03402696f, -0.00396392f,  0.16489065f,
     0.05134495f,  0.16476446f, -0.07389824f, -0.04609857f, -0.12457579f, -0.18252477f, -0.13253890f,  0.03154238f,
    -0.14222488f, -0.00056292f, -0.03333632f, -0.04489961f, -0.00083497f,  0.17692922f, -0.02686802f, -0.10623312f,
     0.01221478f,  0.02286107f,  0.15982117f,  0.14496706f,  0.05482180f, -0.07089434f,  0.04132737f, -0.03968244f,
    -0.03727317f,  0.09649912f,  0.09113873f, -0.15148452f,  0.16065879f, -0.03904469f, -0.16453628f,  0.18142758f,
    -0.05692390f,  0.23060055f,  0.06474513f, -0.02825274f,  0.05044901f, -0.10446001f, -0.07972919f,  0.15346566f,
    -0.03869716f, -0.00450565f,  0.10380502f, -0.12763554f, -0.16347995f, -0.02707099f,  0.10588986f,  0.09698165f,
     0.03388455f,  0.15121895f, -0.12767610f, -0.16829388f,  0.39719337f,  0.07059726f, -0.07901167f,  0.12007993f,
     0.02007178f, -0.04710860f, -0.02096422f,  0.03103494f, -0.10570858f,  0.03044483f, -0.12928094f,  0.00148453f,
     0.03916434f, -0.09036157f,  0.06700260f,  0.07831265f,  0.08743660f,  0.05269734f,  0.05818395f,  0.03191895f,
    -0.01683392f,  0.07507792f, -0.00543469f, -0.02331053f, -0.06264522f, -0.05671712f,  0.01307784f,  0.01109983f,
    -0.01917364f, -0.12244791f, -0.12554848f,  0.12974827f, -0.04991890f, -0.09611460f,  0.22790182f,  0.37050194f,
     0.18896137f,  0.04360148f,  0.00451501f, -0.06270529f,  0.06613763f, -0.02684004f, -0.26381135f,  0.04122431f,
    -0.07601239f, -0.02592096f,  0.12355295f,  0.04449623f,  0.12625881f, -0.00504206f, -0.06523201f,  0.15524094f,
    -0.11326768f,  0.13921444f,  0.11197010f,  0.00202198f,  0.02472969f, -0.07496217f, -0.00732564f,  0.08269907f,
     0.10335715f, -0.10296660f, -0.10313725f,  0.01535726f,  0.01278500f,  0.07152018f, -0.04389839f, -0.01409854f,
    -0.07200504f,  0.05199867f, -0.13475549f,  0.16651858f,  0.03880712f,  0.06251726f, -0.04057579f, -0.06756756f,
     0.19522166f, -0.04490720f, -0.00888886f, -0.09212691f, -0.09223723f,  0.10160942f,  0.03977996f,  0.14923650f,
     0.07731324f,  0.17827979f, -0.04844428f,  0.00154157f, -0.10054006f, -0.03994857f, -0.13023393f,  0.11627072f,
     0.09962247f, -0.16314854f, -0.12204755f, -0.02289968f, -0.10525006f, -0.15562561f, -0.02751555f,  0.01014896f,
    -0.01282145f,  0.08546917f,  0.04979342f, -0.19537772f, -0.11893928f,  0.44090331f,  0.01519428f,  0.12838563f,
     0.21429364f,  0.14588979f,  0.18465942f, -0.27404064f, -0.01605073f,  0.13079023f, -0.05351131f, -0.09589276f,
    -0.11274178f, -0.02236615f, -0.00879901f,  0.10388312f, -0.04168222f, -0.08914855f, -0.15382503f, -0.14505868f,
    -0.04030542f,  0.00212864f, -0.06137445f, -0.12600666f,  0.03559212f, -0.06375462f,  0.05716681f, -0.01713395f,
     0.02621496f,  0.03043301f, -0.04198512f,  0.17590654f, -0.12146259f, -0.00782208f,  0.03782372f,  0.20531586f,
     0.11877432f, -0.07781506f, -0.04995867f, -0.04657712f,  0.20595378f,  0.13536501f,  0.14719662f,  0.11428655f,
     0.14997017f,  0.10094260f,  0.06889053f, -0.04628052f,  0.11891593f, -0.11177272f, -0.08634114f,  0.02784905f,
    -0.04933095f, -0.09326368f, -0.09986152f, -0.07162931f,  0.04966478f,  0.27789718f, -0.07979427f, -0.14317976f,
    -0.00390878f,  0.15251781f, -0.03945345f, -0.16966526f,  0.18713579f,  0.10429382f, -0.23761596f,  0.24130636f,
    -0.07784878f,  0.15133791f, -0.23460285f,  0.12583233f, -0.09416645f,  0.04194295f, -0.10298484f,  0.13807566f,
    -0.21964006f,  0.12054449f,  0.09817811f, -0.09949645f,  0.10437559f,  0.07041186f, -0.10204134f, -0.01363197f,
    -0.07014357f, -0.12111364f, -0.00381353f, -0.09968629f, -0.09148447f, -0.11329900f,  0.00034225f,  0.17181066f,
     0.04963105f, -0.08022166f,  0.02524566f,  0.04069529f,  0.14162874f, -0.12267012f, -0.13314988f, -0.14245006f,
    -0.11992256f,  0.04055190f, -0.03718815f,  0.14186072f,  0.29964632f,  0.09305182f,  0.34822792f,  0.18028560f,
     0.09788238f, -0.09221846f, -0.02295611f, -0.03539135f, -0.00289706f, -0.08402356f, -0.22698346f,  0.05266228f,
     0.02841637f, -0.16159865f, -0.03907253f,  0.13144907f,  0.06121654f,  0.04845894f,  0.11449289f,  0.09141842f,
     0.11064941f,  0.11975475f, -0.05796627f, -0.04659385f, -0.17804632f, -0.32092190f,  0.01845810f,  0.09890009f,
    -0.00432420f,  0.10472864f,  0.03547744f, -0.09171508f, -0.05511329f, -0.05883720f,  0.02749988f,  0.29648298f,
    -0.11650978f,  0.14311282f, -0.01035024f,  0.11211183f,  0.01932874f,  0.07849925f, -0.19348697f, -0.07602469f,
    -0.00383237f, -0.17243473f, -0.09880935f,  0.16657674f,  0.08487084f, -0.04808393f,  0.15901856f, -0.01722581f,
    -0.10252478f, -0.05943079f,  0.01198387f,  0.11452527f, -0.11304998f,  0.12303710f, -0.06769089f,  0.07467029f,
    -0.03642758f, -0.13985519f, -0.14865360f,  0.00277309f, -0.10217025f, -0.21955994f, -0.15676242f, -0.25836372f,
     0.15137963f, -0.11682746f,  0.32219189f,  0.05251235f, -0.19831501f, -0.09777123f,  0.01679902f, -0.15322638f,
     0.10432358f, -0.18642376f, -0.12156349f,  0.09745516f, -0.09438018f, -0.03822294f, -0.13604173f,  0.23224929f,
    -0.07724463f,  0.04346116f,  0.08460692f, -0.09780133f, -0.20388120f,  0.01947533f,  0.02472402f, -0.06038089f,
    -0.12194592f,  0.12593932f,  0.07661916f, -0.09655236f, -0.00307811f, -0.14024799f,  0.04201432f, -0.03901693f,
     0.08701021f,  0.04598562f,  0.05569501f,  0.05525388f,  0.01652826f,  0.27543101f, -0.23727599f, -0.50600517f,
     0.17238997f,  0.08089722f,  0.12403293f,  0.06882594f,  0.04271262f, -0.12608646f, -0.20747022f,  0.04749150f,
    -0.05132940f,  0.04682958f,  0.05684121f,  0.01086139f, -0.06775380f,  0.03429462f, -0.02891637f, -0.21162316f,
    -0.18907721f,  0.14648989f,  0.02768827f,  0.00953700f, -0.09384319f,  0.14429146f, -0.14686713f, -0.02445313f,
     0.12881641f, -0.16195251f,  0.10976737f,  0.02824966f,  0.05112940f,  0.13915819f,  0.07827160f,  0.02324447f,
     0.12297714f, -0.01223956f,  0.37164599f, -0.26391679f, -0.01638549f, -0.06478126f,  0.05153215f,  0.07828275f,
     0.09075810f, -0.02637451f,  0.01280104f, -0.17212820f, -0.18828706f, -0.16755250f, -0.01305705f, -0.13235366f,
     0.04713757f,  0.07727583f,  0.12214592f, -0.08058562f,  0.14745770f,  0.09366676f, -0.12729962f, -0.03023042f,
     0.08674510f, -0.02659622f,  0.10996629f, -0.07275928f,  0.15084419f,  0.02577024f,  0.20400399f,  0.12211594f,
    -0.00700993f, -0.09481124f, -0.14542694f,  0.37836385f,  0.07548242f, -0.03836140f,  0.14978270f, -0.04245829f,
    -0.01959122f,  0.14604473f, -0.21740928f,  0.14668873f,  0.08095226f,  0.04813615f, -0.02751252f, -0.08948218f,
    -0.09658400f,  0.07521077f,  0.20615378f,  0.10389701f,  0.02127778f,  0.10421969f, -0.11242837f, -0.08785445f,
     0.12816978f, -0.13371390f, -0.01493407f, -0.03604542f,  0.05520113f, -0.07988397f, -0.21067150f,  0.07550684f,
    -0.12088319f,  0.12310571f,  0.06613052f, -0.25841582f, -0.04708770f, -0.06880987f, -0.11845943f,  0.03746172f,
    -0.28670868f, -0.08919681f, -0.18087174f,  0.06449283f, -0.10734779f,  0.13730551f,  0.15636079f, -0.06375271f,
    -0.11041982f, -0.01862738f,  0.03259896f,  0.16449347f, -0.06850150f,  0.07162827f, -0.11705711f,  0.12218285f,
     0.14790316f, -0.07980224f, -0.06301508f, -0.08674304f, -0.01430642f,  0.07147909f, -0.07051364f, -0.15104537f,
     0.03026583f,  0.10493251f,  0.15867642f,  0.03965036f, -0.07439639f, -0.14888981f,  0.06976821f,  0.18688059f,
     0.04976144f, -0.05965342f, -0.00652622f, -0.29011464f,  0.20508111f, -0.03911475f, -0.00760540f,  0.13446040f,
     0.06625276f, -0.04999670f, -0.10752315f, -0.18854903f, -0.18222749f, -0.23925664f,  0.13157785f, -0.02048512f,
    -0.17344806f,  0.14036149f,  0.16581112f,  0.10579799f,  0.00310415f, -0.01231901f, -0.10281444f, -0.00003184f,
    -0.16493560f,  0.01929239f, -0.07897171f, -0.07079079f, -0.02596780f, -0.13077676f, -0.15716873f,  0.12672715f,
     0.14281079f,  0.10258666f,  0.05692145f,  0.08211452f, -0.10515390f,  0.01129065f, -0.07496323f,  0.10514161f,
     0.02207818f,  0.03391903f, -0.01167442f, -0.14377685f,  0.16555546f, -0.03768791f, -0.06357469f, -0.17036395f,
    -0.11971635f, -0.18741392f, -0.14347424f,  0.11624895f, -0.00979536f,  0.10782302f,  0.03991913f,  0.12717119f,
     0.00581994f, -0.15240413f,  0.05825936f, -0.06435986f,  0.01793687f,  0.09637342f, -0.12298741f,  0.03176942f,
    -0.02802229f,  0.03493365f,  0.15197749f, -0.00426483f,  0.02087160f, -0.03754387f, -0.03734185f,  0.09774649f,
     0.02782374f, -0.35703146f, -0.22070128f, -0.11643822f, -0.10612026f, -0.05763932f,  0.06681873f, -0.12719928f,
    -0.10139195f,  0.17128113f, -0.20664103f,  0.08101938f, -0.04994328f,  0.13834167f, -0.05493959f, -0.02765276f,
    -0.14019230f,  0.11248554f, -0.06604209f,  0.12749818f, -0.02093384f, -0.14729708f,  0.11145807f, -0.06744854f,
     0.08722226f,  0.02473565f,  0.01495813f,  0.01792857f,  0.01374259f,  0.08332147f, -0.09329306f, -0.05562492f,
    -0.03277066f,  0.16236630f, -0.32545382f,  0.13855453f,  0.10573530f,  0.09012704f, -0.10889050f,  0.04223065f,
    -0.10340530f,  0.05843280f,  0.06290497f,  0.05164601f,  0.03392090f, -0.08623567f, -0.08176095f,  0.05939662f,
    -0.01721484f, -0.15061291f,  0.08819512f,  0.05884567f,  0.06747834f, -0.04759248f,  0.01840471f, -0.01391505f,
    -0.14723454f,  0.06122322f,  0.05362097f,  0.04432901f, -0.12963729f, -0.06209102f,  0.06548104f,  0.02989181f,
     0.00778486f, -0.10143024f, -0.03679846f,  0.03772803f, -0.00200415f, -0.40907982f,  0.03358176f, -0.03318998f,
     0.07425773f,  0.04516322f,  0.01922179f,  0.10724664f,  0.04582112f, -0.06838065f,  0.04908141f, -0.10971707f,
     0.08050255f,  0.06059476f,  0.03428778f, -0.05355472f, -0.08516083f,  0.05648085f, -0.00347404f,  0.08642536f,
    -0.10932944f,  0.13748160f, -0.09164421f, -0.07304519f, -0.01754176f,  0.01670908f,  0.01506655f, -0.03312178f,
     0.05402353f,  0.07353629f,  0.04001547f, -0.05572445f, -0.04213570f, -0.07033349f, -0.06360741f,  0.11452708f,
     0.19213213f,  0.02463725f, -0.49998274f, -0.25772557f,  0.05819145f, -0.20899402f,  0.22753444f, -0.17022131f,
     0.05327657f, -0.03348969f, -0.07742205f,  0.06928464f, -0.03584611f,  0.01126442f,  0.01722209f,  0.08979291f,
     0.07555905f,  0.02255192f, -0.02751364f, -0.13487858f,  0.11025485f, -0.11815963f, -0.06345101f, -0.05379164f,
     0.08252404f, -0.11605181f,  0.04997655f, -0.03067266f,  0.01783095f,  0.11424566f,  0.03321467f, -0.06150884f,
    -0.12090524f, -0.05145287f, -0.10307489f,  0.37208474f,  0.04089286f,  0.29579818f, -0.24261762f,  0.02121647f,
     0.07658196f,  0.13347159f, -0.06800514f, -0.03490422f, -0.12796789f,  0.08155037f, -0.04190157f, -0.04564342f,
    -0.06421767f,  0.12162283f,  0.08058957f, -0.09265803f,  0.11842560f, -0.10334942f, -0.02750862f,  0.04403531f,
    -0.01007792f, -0.07177707f,  0.16549429f, -0.03685155f, -0.01460663f,  0.01663308f,  0.08268746f,  0.08980176f,
    -0.11912894f, -0.13706870f,  0.13763508f,  0.06973618f, -0.15264098f,  0.11273667f,  0.02232365f, -0.08890438f,
     0.30866775f, -0.18732378f,  0.11084336f, -0.18835506f,  0.03831958f, -0.10632720f, -0.13168000f, -0.02761036f,
    -0.00565825f,  0.24698851f,  0.00242777f,  0.05516574f,  0.01735335f, -0.03492856f,  0.09662981f,  0.09659416f,
     0.02055482f, -0.02780624f,  0.09364686f, -0.10373335f,  0.16019711f,  0.00149007f,  0.03104693f,  0.12959488f,
     0.05349755f, -0.12833233f,  0.02237891f,  0.01845055f,  0.02863045f,  0.08152002f,  0.06283385f, -0.08394619f,
    -0.09021237f, -0.28898346f, -0.07778689f, -0.09579181f,  0.05752236f,  0.08220033f, -0.00094209f, -0.07718953f,
    -0.01848279f,  0.12896335f, -0.14406186f, -0.23628768f,  0.07765564f, -0.20762534f,  0.02583460f,  0.07615885f,
    -0.11460526f,  0.16049430f,  0.18015073f,  0.02799542f, -0.07738270f,  0.11407629f, -0.10309745f,  0.05133083f,
    -0.15062231f,  0.04340990f, -0.00352147f,  0.04835218f, -0.01267875f,  0.02509291f,  0.02988530f,  0.18594462f,
    -0.09290721f, -0.09893585f, -0.06841892f,  0.05547960f,  0.12014855f,  0.05221140f, -0.27655199f,  0.25094822f,
     0.13111582f, -0.11573534f,  0.02122382f,  0.06354970f,  0.11383981f,  0.17640357f,  0.18432628f,  0.19585666f,
    -0.07214810f,  0.11734390f,  0.10227150f, -0.14066593f, -0.07288179f,  0.13122021f,  0.05020371f,  0.11275528f,
    -0.04105777f, -0.11502285f,  0.17109333f,  0.01408758f,  0.15124092f, -0.03385605f, -0.12945884f, -0.02469207f,
    -0.06137382f, -0.07134540f, -0.05019739f,  0.00480956f,  0.09997557f,  0.06161781f, -0.13582528f, -0.30710515f,
    -0.28872350f,  0.09541546f, -0.11534385f,  0.03302119f, -0.04479206f,  0.02794525f,  0.10253087f,  0.05529278f,
     0.02162631f,  0.09167058f, -0.09388395f,  0.11692489f,  0.16279161f, -0.12189363f, -0.06001199f,  0.12388323f,
    -0.13162228f,  0.07839487f,  0.05896676f,  0.08051220f, -0.03746696f, -0.14686736f, -0.01137532f, -0.07037627f,
     0.01750422f, -0.11665927f,  0.03385755f,  0.09398407f, -0.09070434f, -0.06872384f, -0.08187290f,  0.14888859f,
    -0.07203785f,  0.03420858f,  0.20502904f,  0.20185530f, -0.19895412f, -0.21951167f,  0.15837836f, -0.07779974f,
     0.14513233f,  0.02477677f,  0.09745251f,  0.13099334f, -0.08415167f, -0.18936609f,  0.16884619f, -0.04594647f,
    -0.16332376f,  0.08839608f,  0.15796854f,  0.07787351f, -0.02601963f, -0.09144688f,  0.03386496f, -0.17074256f,
     0.05310765f, -0.16639425f, -0.17210346f,  0.00741255f, -0.11493797f,  0.10164682f, -0.08622888f,  0.11118446f,
     0.06512021f, -0.15927517f,  0.09108441f,  0.09615409f, -0.06135979f, -0.16383104f,  0.00262140f,  0.49952438f,
    -0.23665221f, -0.01697331f,  0.10690251f,  0.06895036f, -0.06667403f, -0.17917633f, -0.04357393f, -0.16943479f,
    -0.01947742f, -0.01264096f, -0.04247139f, -0.04036689f,  0.02502688f,  0.01077106f,  0.16214490f, -0.10517593f,
    -0.05832260f, -0.08388751f, -0.17536733f, -0.12482665f,  0.13287619f,  0.12187669f, -0.06517187f, -0.12467850f,
    -0.03971998f,  0.02006538f, -0.07186822f,  0.10212671f, -0.01765262f,  0.05490634f,  0.05412744f,  0.14779410f,
     0.01741230f, -0.09575108f,  0.41422144f, -0.13353764f, -0.19522895f, -0.17488714f, -0.06555489f,  0.00232866f,
    -0.04067337f,  0.04018321f, -0.10588408f, -0.11543109f,  0.13620153f,  0.00534760f, -0.14227313f, -0.09613604f,
    -0.03495031f,  0.05531109f,  0.15969689f, -0.10003203f, -0.08651575f, -0.02694329f, -0.07189842f,  0.04294911f,
     0.14575560f,  0.03807729f, -0.06515339f,  0.23963791f,  0.13340202f, -0.11675300f,  0.06435215f,  0.15455121f,
    -0.01074776f, -0.11131576f,  0.08702844f,  0.35407534f, -0.09718708f,  0.32078660f, -0.17261635f,  0.02543923f
};

static const float layer1_bias[128] = {
    -0.03876465f, -0.15471044f,  0.01954029f, -0.09250648f,  0.14473610f,  0.23715337f,  0.13927749f,  0.04928258f,
     0.17778170f, -0.14991030f,  0.04102497f,  0.23461820f,  0.25809729f,  0.17468946f,  0.21255746f,  0.03140738f,
     0.03943042f,  0.23608266f,  0.20140110f, -0.02119368f, -0.09764158f, -0.08007321f,  0.25906041f, -0.04092398f,
     0.04132230f,  0.01901389f,  0.02226323f,  0.03337096f,  0.02862460f, -0.06451510f, -0.12232745f, -0.06881415f,
     0.09459509f,  0.12375407f,  0.19967374f, -0.05039173f,  0.03096283f,  0.20344768f, -0.11570440f,  0.02166800f,
     0.13471721f,  0.05372484f,  0.04720949f, -0.03696620f, -0.08820146f,  0.17335691f, -0.11732018f,  0.08656279f,
     0.14319173f,  0.12318593f,  0.02640519f, -0.01311620f,  0.15684949f,  0.10885371f, -0.10360429f,  0.18461405f,
     0.13002218f,  0.13807803f,  0.14015539f,  0.12031247f,  0.06463259f,  0.16700254f,  0.13843720f, -0.00257505f,
     0.15508097f, -0.15168199f,  0.10684495f,  0.25122169f,  0.12688948f,  0.18552826f,  0.29571185f,  0.15913311f,
     0.15352449f,  0.02077619f,  0.21298741f,  0.00661609f,  0.01937964f,  0.24125642f,  0.01884980f,  0.09091514f,
     0.06432630f,  0.12345563f,  0.08944524f, -0.21318343f, -0.12287161f, -0.04907262f,  0.18140243f, -0.09870378f,
     0.00949037f,  0.16430473f, -0.05451300f,  0.18195012f, -0.07770306f,  0.08377083f,  0.09060843f,  0.13189416f,
    -0.05792702f, -0.16102161f, -0.13689041f, -0.20242402f,  0.10543989f, -0.00863794f, -0.14921550f,  0.00100465f,
     0.10685427f,  0.09184556f,  0.08179165f, -0.09135088f,  0.01923009f,  0.31618986f,  0.02669075f,  0.32779506f,
    -0.02931158f, -0.17533825f, -0.00764905f,  0.17773926f,  0.00365684f,  0.06792511f,  0.12681879f,  0.21295775f,
    -0.01213286f,  0.07659782f, -0.02494854f,  0.05616655f,  0.24213576f, -0.00198736f,  0.18422547f, -0.03261441f
};

// Layer 2: 128 -> 64
static const float layer2_weight[8192] = {
     0.07310083f,  0.00574622f, -0.02901655f,  0.07436275f, -0.00923591f,  0.02173260f,  0.02719561f,  0.03518987f,
    -0.04151642f,  0.04343493f, -0.04861688f,  0.01318397f, -0.15675659f,  0.03731326f, -0.12483915f,  0.05369799f,
     0.05577780f, -0.24721876f, -0.05552651f, -0.09183396f, -0.07933878f,  0.04424281f, -0.09047838f,  0.01337853f,
     0.06551152f, -0.17616883f, -0.04148417f, -0.03991902f, -0.07050789f,  0.01450293f, -0.07381326f,  0.11581879f,
     0.00609828f,  0.00099450f, -0.04394304f,  0.01035897f,  0.00416899f,  0.04415795f,  0.15641700f,  0.00451924f,
     0.07428735f, -0.11259154f,  0.06664028f,  0.17568655f, -0.01282857f, -0.02711813f, -0.07013755f,  0.04181091f,
     0.02334823f,  0.07020042f,  0.00236676f, -0.06390829f, -0.08245804f, -0.19430360f,  0.14067978f,  0.07946801f,
    -0.11839657f,  0.04814702f,  0.11460289f, -0.00851823f, -0.03869967f,  0.02672805f,  0.04661614f,  0.05598016f,
     0.09864093f,  0.02360663f,  0.04360820f, -0.13967876f, -0.08510812f,  0.00622885f, -0.00805327f, -0.02215294f,
     0.14134373f,  0.02890286f,  0.08109534f,  0.09970945f,  0.19698025f, -0.10578354f,  0.02937358f, -0.12179042f,
    -0.05978983f,  0.05621916f,  0.03806061f, -0.08133014f,  0.02496769f,  0.02264002f,  0.05532705f,  0.00610881f,
     0.06434517f,  0.09331895f, -0.13342784f,  0.05975181f, -0.11212488f, -0.00933348f, -0.12592494f, -0.03624072f,
    -0.00597435f, -0.19319808f, -0.10022135f,  0.09509210f,  0.02039689f,  0.01466982f,  0.03119933f,  0.10135768f,
    -0.16308390f, -0.07021639f, -0.17639931f, -0.02523264f,  0.03096027f, -0.01203960f, -0.01747796f, -0.01947064f,
     0.16937573f,  0.07817656f,  0.11336672f,  0.13374542f,  0.08677877f,  0.11148450f,  0.04320665f, -0.03687529f,
     0.03077242f,  0.01677214f,  0.05013666f, -0.03754077f,  0.04942597f,  0.10230184f, -0.01181705f,  0.03944267f,
     0.11749467f, -0.15848088f, -0.02083986f, -0.01883586f, -0.07212064f,  0.07149980f, -0.01871712f,  0.06881926f,
    -0.02067371f, -0.09441002f,  0.02072342f, -0.08176594f, -0.03998892f, -0.07231330f,  0.04209422f, -0.04144866f,
    -0.06287047f, -0.02414567f,  0.07978937f,  0.09465683f, -0.01901272f, -0.15578996f,  0.00352924f,  0.00036168f,
    -0.03595715f, -0.01037230f,  0.00911890f,  0.07320742f, -0.05205986f, -0.10175388f,  0.05025635f, -0.02549273f,
    -0.06031695f, -0.02177300f,  0.11964239f,  0.06685121f, -0.11366862f,  0.07079298f,  0.03076801f, -0.07000611f,
     0.02549445f,  0.04635399f, -0.05768178f, -0.14960778f,  0.02255217f, -0.00792157f, -0.00724256f,  0.13565740f,
     0.10828011f,  0.05114296f,  0.06322201f,  0.04671112f,  0.02917717f,  0.14877467f,  0.01014116f, -0.10911493f,
     0.03505684f, -0.08160883f, -0.04204960f, -0.00073851f,  0.04583344f,  0.04251052f, -0.05175263f, -0.00842755f,
    -0.04324476f, -0.04007989f, -0.01883974f,  0.02038704f,  0.06440433f, -0.03978780f,  0.06410991f,  0.05170264f,
    -0.06634104f, -0.06602027f,  0.03851569f,  0.04955884f,  0.00344618f,  0.05820847f,  0.04729075f,  0.13213392f,
     0.11347642f, -0.02589713f,  0.06198643f, -0.02438230f,  0.05761002f, -0.12313385f,  0.00108723f, -0.15061644f,
     0.14909871f, -0.05418867f, -0.01587605f,  0.01660668f,  0.07871258f,  0.04796878f,  0.13382363f,  0.02844133f,
    -0.05356491f,  0.09087880f, -0.00281246f, -0.03301020f, -0.12384555f, -0.00122497f, -0.08100963f, -0.10734965f,
    -0.02299078f, -0.00840385f,  0.13255800f,  0.14493129f,  0.06616859f, -0.00229289f,  0.11345195f,  0.10207632f,
    -0.03177767f, -0.02961832f,  0.04064323f, -0.07903115f, -0.03560529f, -0.10809150f,  0.02771729f,  0.02249921f,
     0.01736037f,  0.00603047f, -0.02279290f, -0.14627764f, -0.05226359f,  0.11977709f,  0.06269681f,  0.03743609f,
     0.02690539f, -0.06355725f,  0.17386180f,  0.09582382f,  0.11644263f,  0.04047935f,  0.02163153f,  0.03365263f,
    -0.07604016f, -0.02962715f,  0.15628283f,  0.02923975f,  0.13786143f,  0.17947939f,  0.08960153f, -0.04691337f,
     0.17325811f,  0.09726637f,  0.04134932f,  0.06925059f,  0.04188836f, -0.15015750f,  0.11666214f, -0.01883354f,
    -0.03274288f, -0.08230295f, -0.05089023f,  0.03818339f,  0.01812369f,  0.05826644f, -0.02656974f, -0.04468549f,
     0.00125385f, -0.05923909f,  0.06023367f,  0.07791515f,  0.02757021f, -0.01740861f, -0.15519729f, -0.02160967f,
    -0.02789190f,  0.21786305f,  0.01841684f, -0.10653828f,  0.10200594f,  0.07742251f, -0.11624502f,  0.00240540f,
     0.11097296f,  0.06587105f, -0.03809733f, -0.09711710f,  0.10296185f,  0.04444081f, -0.05950918f, -0.01527173f,
     0.13889524f,  0.13416228f,  0.03292459f, -0.09707517f,  0.04609817f, -0.00468224f,  0.08665647f,  0.06528343f,
    -0.01554248f, -0.08574560f,  0.15731601f,  0.08496437f,  0.09971880f,  0.19071770f,  0.07477210f,  0.06240693f,
     0.02186463f, -0.09585001f, -0.01562507f, -0.01673828f, -0.02478395f, -0.02105974f, -0.13594721f,  0.13023594f,
     0.02687861f, -0.05432616f,  0.06830478f, -0.01154010f, -0.05513256f, -0.03794450f,  0.19780254f, -0.03540535f,
    -0.09392060f,  0.00520528f, -0.00668865f,  0.05967586f,  0.10221261f,  0.15197498f,  0.10301668f, -0.02645239f,
    -0.03554154f, -0.04125750f, -0.11596891f, -0.03303949f, -0.01678205f, -0.10720699f, -0.02791226f,  0.04267727f,
    -0.01035126f, -0.02753056f,  0.06552891f,  0.03325805f,  0.02689650f,  0.06587507f,  0.07654729f,  0.15675591f,
     0.03724907f, -0.01536482f,  0.11219597f,  0.15645741f, -0.09604137f, -0.04735437f, -0.00713608f,  0.07441422f,
     0.02591876f, -0.01272178f, -0.07185683f, -0.01570602f,  0.05967627f,  0.13637041f,  0.07595775f,  0.15500177f,
     0.02337468f, -0.03811330f,  0.07896780f, -0.04788194f,  0.00141543f,  0.00033893f,  0.02694022f,  0.12342443f,
     0.10099538f,  0.05060206f,  0.03522656f,  0.06090854f, -0.12218533f, -0.00378668f, -0.05406769f,  0.12055378f,
    -0.01375836f, -0.17542110f,  0.01838549f,  0.02516929f, -0.06480656f,  0.09083521f, -0.06454484f,  0.05610728f,
    -0.03394250f, -0.09945090f,  0.05080250f,  0.09272767f, -0.11450818f, -0.01184232f, -0.09419541f, -0.03377185f,
    -0.02714434f, -0.00740359f, -0.03710247f,  0.03505687f,  0.02218662f,  0.05955686f,  0.02998663f, -0.02873931f,
     0.09763459f, -0.07093628f,  0.01225950f, -0.00712069f,  0.06813893f, -0.05893316f,  0.01178489f,  0.10049187f,
     0.01768982f, -0.01460508f,  0.08245230f, -0.01054048f, -0.08121059f, -0.15199085f, -0.06150528f,  0.04252017f,
    -0.08847740f, -0.05600501f,  0.00261844f,  0.07021810f, -0.02121652f,  0.00048393f, -0.02420089f,  0.10156340f,
     0.02262787f, -0.06746002f, -0.01369278f, -0.14322934f, -0.06426501f, -0.00269300f,  0.01934803f,  0.06608285f,
     0.07474669f,  0.11393124f,  0.03914387f,  0.02908800f,  0.02106395f, -0.17065275f, -0.06158290f, -0.14437222f,
     0.09531607f, -0.02453926f,  0.11722026f,  0.02448808f, -0.01818981f,  0.06947997f,  0.01855042f,  0.00732223f,
    -0.04256237f,  0.07585770f, -0.07891278f,  0.01771712f, -0.11727390f,  0.14041284f, -0.08807841f, -0.03688961f,
     0.00412061f, -0.09153781f, -0.04445036f,  0.09238827f,  0.08468089f, -0.05494548f, -0.02005692f,  0.10996805f,
    -0.10898353f, -0.05140482f, -0.11839540f,  0.08391357f, -0.00183920f, -0.06287185f,  0.05643509f,  0.01671408f,
     0.01158010f,  0.05254642f,  0.10814793f,  0.00033095f,  0.00942478f,  0.14368461f, -0.01988895f,  0.00386942f,
     0.00234887f,  0.00539619f,  0.12111193f, -0.05841603f,  0.04418919f,  0.07442391f, -0.05091907f, -0.01457290f,
     0.07000506f, -0.02209251f, -0.06290674f, -0.03713442f, -0.01096705f, -0.00236839f, -0.03677455f,  0.02511182f,
    -0.10326747f, -0.09931444f,  0.11856568f, -0.04890841f,  0.02003364f, -0.09422543f,  0.00757492f,  0.00968989f,
     0.04922593f,  0.07615189f, -0.08391274f, -0.00189004f,  0.05418361f,  0.01917363f,  0.02068296f, -0.01365152f,
    -0.04283316f,  0.08994752f, -0.04229396f,  0.09249990f,  0.00963843f,  0.04949141f,  0.10097263f, -0.05148141f,
     0.03787929f,  0.00512594f, -0.00041803f,  0.10123613f,  0.04066245f,  0.00722480f,  0.07246115f,  0.00477219f,
    -0.00847667f, -0.17339820f, -0.00339410f,  0.03647126f,  0.08929638f, -0.05104099f,  0.10611768f,  0.09004945f,
     0.00875776f, -0.03468145f, -0.03627035f,  0.10377555f,  0.16183659f,  0.03378698f,  0.06715629f, -0.09408428f,
    -0.03315689f,  0.00598973f, -0.01876820f,  0.04061598f, -0.08462980f,  0.07072039f, -0.03135535f, -0.02739063f,
     0.09028415f,  0.06418497f, -0.12170710f, -0.03680782f,  0.00906637f, -0.01593027f,  0.08911204f,  0.00339480f,
    -0.03943876f,  0.02666314f,  0.11429850f,  0.04889869f, -0.00276275f, -0.00538095f, -0.05170520f,  0.06494883f,
     0.09279370f, -0.02355157f,  0.06534993f,  0.01081314f, -0.14966160f,  0.03307952f,  0.03178514f,  0.08410189f,
     0.09293330f,  0.11322851f, -0.00405634f, -0.07049257f, -0.07526192f, -0.07220769f,  0.00347997f,  0.13667126f,
     0.10998714f,  0.03308366f,  0.04895584f,  0.05234541f,  0.12834826f,  0.00193626f,  0.08881097f, -0.01736869f,
    -0.00630678f, -0.05443050f, -0.01719219f,  0.05043951f, -0.09104649f,  0.01540396f, -0.12183750f, -0.00066024f,
    -0.16051868f,  0.07516195f,  0.06933013f, -0.01309907f, -0.00799277f, -0.03157562f, -0.07772043f, -0.09786465f,
     0.03251709f, -0.00229002f,  0.11295009f, -0.01395511f, -0.00246950f, -0.12570761f, -0.06990167f,  0.04751385f,
    -0.12198567f,  0.06178068f,  0.07850824f,  0.01612655f, -0.01672580f,  0.03189176f, -0.16137725f,  0.09704269f,
     0.07715069f, -0.03094785f,  0.01847313f,  0.11663405f,  0.16272730f, -0.00872284f, -0.06446411f, -0.00146661f,
     0.02093608f, -0.05071992f,  0.00524167f, -0.07586796f, -0.08711192f,  0.02933755f, -0.01135818f,  0.13144889f,
    -0.02208105f,  0.01391094f,  0.08462608f,  0.00341439f,  0.01791721f,  0.09376070f, -0.02647792f, -0.07558843f,
     0.15318522f, -0.09718212f, -0.09060869f,  0.06675617f,  0.05391574f,  0.07912800f,  0.11387462f, -0.00814453f,
    -0.02142899f, -0.04626163f,  0.03026706f,  0.14108992f, -0.08372487f,  0.08048725f,  0.08671675f, -0.17206076f,
     0.02361039f,  0.09999444f, -0.01017444f,  0.03498840f, -0.04967058f, -0.07758532f,  0.06743471f,  0.07357036f,
    -0.04362243f,  0.12458453f,  0.13681991f,  0.14049707f,  0.02951565f,  0.12692879f,  0.01362494f,  0.03824632f,
     0.03966871f, -0.02097454f,  0.04603438f,  0.05587484f,  0.01634702f, -0.04798206f, -0.00618754f,  0.00152034f,
     0.11464887f,  0.02565627f, -0.09357604f,  0.06416278f,  0.05251536f, -0.04983985f, -0.02901996f, -0.05884868f,
     0.08863020f,  0.16883798f,  0.13945673f, -0.00930165f,  0.00365583f,  0.03901487f,  0.06323174f, -0.02593419f,
     0.03353585f,  0.14870071f, -0.08643599f,  0.09688158f, -0.05973894f,  0.00565819f, -0.03896777f, -0.05272476f,
     0.01133301f,  0.10822317f, -0.04443447f,  0.04986369f, -0.10811117f, -0.04170333f,  0.04182092f,  0.01890831f,
     0.00774770f, -0.09483289f, -0.07483110f, -0.05911703f,  0.09225558f,  0.10595842f, -0.04616136f,  0.03614926f,
     0.07939471f, -0.03172044f,  0.02642861f,  0.07064958f,  0.09951585f,  0.08422834f,  0.18802626f,  0.03463304f,
    -0.04971828f, -0.05143015f,  0.10276631f, -0.06539571f,  0.03472513f, -0.07147272f, -0.08918016f, -0.08277020f,
     0.15619513f,  0.04283434f, -0.00999908f, -0.00560679f,  0.19890216f,  0.04030690f,  0.07908073f, -0.09334626f,
    -0.08506722f,  0.03654661f,  0.05626898f,  0.02111109f,  0.15511093f,  0.07504221f,  0.02294179f,  0.09549517f,
    -0.04122461f,  0.09003645f, -0.04070916f,  0.03913143f,  0.14100131f,  0.08048977f,  0.04345685f,  0.16108392f,
    -0.03071027f,  0.10835306f,  0.00198469f, -0.01581211f,  0.00807096f,  0.06447784f,  0.10879301f,  0.04062733f,
    -0.02413093f,  0.08394553f,  0.14259888f, -0.10322867f,  0.10600232f,  0.01050655f, -0.05278746f, -0.04075236f,
    -0.09149060f,  0.12556447f, -0.02258730f, -0.10085576f,  0.09664632f, -0.02217110f,  0.13258503f, -0.01903964f,
     0.04831956f,  0.00776849f, -0.03492162f,  0.07981811f,  0.10781224f,  0.16840360f,  0.07532030f, -0.06680664f,
     0.03621952f, -0.02393047f,  0.02731575f,  0.02965160f,  0.06181831f, -0.01125997f,  0.02510151f, -0.08324207f,
    -0.07766093f,  0.01154184f, -0.01483081f,  0.01319901f,  0.01886090f, -0.03254297f, -0.15076074f,  0.06142606f,
     0.01511066f,  0.15495545f,  0.17475258f,  0.04867385f, -0.00566356f,  0.20296718f,  0.00372949f,  0.04258474f,
     0.05216195f,  0.02380942f,  0.02199531f, -0.10452949f,  0.08581600f,  0.00643082f, -0.07292330f, -0.07578938f,
    -0.02585570f, -0.03097562f,  0.13400421f,  0.15383057f,  0.04210421f,  0.05201704f,  0.14402698f, -0.00110565f,
     0.01703402f,  0.07749506f, -0.11436321f, -0.00905105f,  0.10267072f,  0.11555865f,  0.02036651f,  0.12208052f,
     0.10926004f,  0.11462741f,  0.03948380f, -0.03251551f,  0.05321069f, -0.17149106f,  0.00531173f, -0.06852541f,
    -0.04037979f, -0.18011616f, -0.09717463f, -0.10220493f,  0.00323280f, -0.05401983f, -0.15043436f,  0.12731844f,
     0.03738834f, -0.02187395f,  0.03643985f,  0.08674517f,  0.08696621f,  0.08714053f,  0.06945354f,  0.14010687f,
     0.02142119f, -0.14896995f, -0.09657182f,  0.02767848f, -0.03097456f,  0.10881181f,  0.03296213f, -0.01041054f,
     0.07996703f,  0.03577214f,  0.11663775f,  0.03745671f, -0.10866982f, -0.07784729f,  0.00443053f, -0.05099459f,
     0.07992461f, -0.10033921f,  0.07139202f,  0.06821413f, -0.02722148f,  0.03234861f, -0.08889093f,  0.02936177f,
    -0.06144813f, -0.03141164f, -0.01879437f, -0.01776095f,  0.00906293f, -0.07060923f,  0.03989475f,  0.05891980f,
     0.11497961f,  0.04285762f, -0.04205525f, -0.01689722f, -0.01031759f,  0.13499072f, -0.05798916f,  0.03283331f,
     0.12524015f, -0.20061484f,  0.01461133f,  0.07133216f,  0.11551086f, -0.02880686f,  0.02673484f,  0.10359182f,
     0.05538747f,  0.13696328f,  0.09421132f, -0.02708112f,  0.01705611f, -0.09945133f,  0.08107327f,  0.02974386f,
    -0.03319600f, -0.05227344f,  0.11687564f, -0.13415836f,  0.10904014f, -0.07796393f, -0.04349465f,  0.00671975f,
     0.02474348f,  0.10032349f, -0.13295390f,  0.02459285f, -0.04508733f,  0.02474124f, -0.08561517f, -0.04003867f,
    -0.04710422f, -0.00385160f,  0.07037710f, -0.01233307f, -0.01596459f,  0.02921864f, -0.02204816f, -0.10425328f,
    -0.03385134f, -0.06621508f,  0.01512975f,  0.10161672f, -0.07459203f,  0.11701196f,  0.11936738f, -0.12419321f,
     0.03126356f,  0.11041261f, -0.03883804f, -0.07828765f, -0.12488756f,  0.07838802f,  0.01038807f,  0.05244946f,
     0.04621388f, -0.09352508f, -0.09426340f,  0.07237905f,  0.10798133f,  0.04368175f,  0.00724774f,  0.01174841f,
    -0.12554736f, -0.06112793f, -0.09986571f,  0.10868640f,  0.00596448f,  0.05095101f, -0.00894137f,  0.09532751f,
    -0.07570464f,  0.00011174f,  0.08855876f,  0.12497463f, -0.00977377f,  0.04156701f, -0.04295528f, -0.05179374f,
    -0.00113889f,  0.02269976f, -0.03296165f,  0.09727266f,  0.01469201f,  0.08352073f, -0.05147782f,  0.06827432f,
     0.01426684f, -0.09201878f,  0.11506660f,  0.04691501f,  0.10373915f, -0.02021400f,  0.05125562f, -0.00492307f,
    -0.10933208f, -0.03279867f,  0.16707888f, -0.09455459f,  0.02219383f, -0.00771401f,  0.04549087f, -0.09057865f,
     0.09641171f,  0.11178736f,  0.12022372f,  0.08684263f, -0.00820132f, -0.10434833f,  0.03056943f, -0.01441581f,
    -0.10738544f,  0.05259075f,  0.06332481f,  0.02613358f,  0.05056292f, -0.02261517f,  0.03850732f,  0.05775060f,
    -0.02055346f, -0.12859929f, -0.00083259f, -0.11278443f,  0.03502596f, -0.08748587f, -0.08242144f, -0.03157331f,
    -0.12986763f,  0.18009235f, -0.04238280f, -0.07193842f, -0.10554469f,  0.05551061f, -0.00808964f,  0.05691784f,
     0.05895185f,  0.05184880f,  0.07230358f,  0.01577455f,  0.08884495f,  0.14260936f,  0.03823242f,  0.00283622f,
     0.05953435f, -0.02850680f, -0.11028872f, -0.17296365f,  0.02995953f, -0.01301319f,  0.04223122f, -0.08857193f,
    -0.03057765f, -0.00418176f, -0.02359258f,  0.11423178f,  0.11299685f,  0.08331367f, -0.08584370f, -0.02470062f,
    -0.01415708f,  0.08664540f,  0.05670001f,  0.05250204f, -0.15010257f,  0.11910085f, -0.05629646f,  0.16003256f,
    -0.05915921f, -0.06670418f, -0.01044436f, -0.05959823f, -0.00782366f, -0.08468806f,  0.06062092f, -0.08297624f,
     0.03590760f, -0.05287481f,  0.05054081f,  0.12937805f,  0.10699831f, -0.05372411f,  0.00642114f, -0.05351191f,
    -0.12896219f,  0.10089629f, -0.08241910f, -0.02207329f, -0.08795950f,  0.13070573f, -0.03590379f,  0.01632951f,
     0.03140754f,  0.04770407f,  0.14535180f,  0.12294343f,  0.05309993f, -0.09915709f,  0.11495081f,  0.12529784f,
    -0.03191650f, -0.06001340f, -0.02535492f, -0.02196225f, -0.04450292f, -0.02356896f, -0.11285914f,  0.14093524f,
     0.00229536f, -0.07814041f, -0.07433160f, -0.15176769f, -0.02564433f,  0.14569791f,  0.06186362f,  0.14890164f,
    -0.01985607f,  0.10808297f, -0.12261250f,  0.02723347f, -0.11497705f, -0.02916735f, -0.06532134f, -0.06148165f,
     0.10190044f, -0.00795618f, -0.00839741f,  0.06984000f, -0.07264764f, -0.03080766f, -0.03017374f,  0.08064186f,
    -0.05000298f, -0.07651798f,  0.01517809f, -0.11112298f,  0.09381134f,  0.09356655f, -0.10021683f,  0.09779128f,
     0.08934370f,  0.09549692f,  0.06371615f, -0.05042003f,  0.09219367f,  0.04648062f, -0.03091103f, -0.01915946f,
    -0.09558811f,  0.04662968f,  0.06732026f,  0.01499545f,  0.03874576f, -0.02083935f,  0.05124028f,  0.08612008f,
     0.09722897f, -0.03169218f,  0.05145728f, -0.02799791f,  0.04539990f, -0.05363708f, -0.01079828f, -0.10058142f,
    -0.03245017f, -0.05434654f,  0.02535244f,  0.04505574f, -0.08158072f, -0.01031942f,  0.06585813f, -0.06023749f,
    -0.06184607f, -0.00432838f,  0.11263721f,  0.13871144f, -0.01426687f,  0.11891370f,  0.04872132f, -0.05370214f,
    -0.03585203f,  0.12069391f,  0.05614091f,  0.00915375f, -0.15479571f, -0.11344682f, -0.02426354f,  0.05252015f,
     0.01755157f,  0.02140714f,  0.01831230f,  0.01954274f,  0.07609190f, -0.04691867f,  0.03239813f, -0.11501595f,
     0.00050908f,  0.10389274f, -0.11320043f,  0.06545311f,  0.05248218f,  0.08320721f, -0.07620426f,  0.11358415f,
     0.05909545f, -0.01668881f,  0.09944275f,  0.05684270f,  0.03188318f, -0.02209437f, -0.01269727f, -0.08569949f,
     0.10257069f, -0.01936091f,  0.09532589f, -0.03570750f, -0.03644974f, -0.00575280f, -0.00515230f,  0.04817132f,
     0.00426279f, -0.04535589f,  0.04889192f, -0.10716574f, -0.07292362f, -0.00315860f, -0.10248119f, -0.11315463f,
     0.01443975f,  0.01186864f,  0.00198158f,  0.04162712f,  0.01004710f,  0.09209811f, -0.08980538f, -0.14974275f,
     0.06331605f, -0.02780224f, -0.02942304f,  0.08886839f, -0.00390532f, -0.08541201f, -0.03476172f, -0.06998662f,
    -0.00553697f,  0.06722487f, -0.05475932f,  0.09630114f,  0.10558768f,  0.04679076f, -0.09068723f, -0.01029961f,
     0.09627102f, -0.01071058f, -0.04508253f, -0.01534279f,  0.09358597f,  0.00602522f,  0.01124549f,  0.02034384f,
    -0.08683147f,  0.08899923f,  0.00306605f,  0.09993054f, -0.04112193f, -0.03475719f,  0.05004974f,  0.12338027f,
    -0.05149971f,  0.05129435f,  0.08529922f,  0.03786364f,  0.10786622f,  0.14085661f, -0.04258286f, -0.05950709f,
     0.06308129f,  0.00766401f, -0.05701211f,  0.02902527f,  0.12930413f, -0.10245758f,  0.07243348f,  0.11453136f,
    -0.06999005f, -0.03101734f, -0.03634082f, -0.10722490f,  0.01582359f,  0.02932557f,  0.08136471f, -0.06145451f,
    -0.05930695f,  0.05756440f, -0.03277175f, -0.10751881f,  0.06205299f, -0.02312425f,  0.00613757f,  0.11608873f,
    -0.08507482f, -0.03794901f,  0.03663624f,  0.01148817f,  0.14831252f, -0.05985445f,  0.04688646f,  0.04071057f,
    -0.07505385f, -0.02750035f,  0.08834770f,  0.13169369f,  0.05239310f,  0.07112183f, -0.09334050f,  0.00665557f,
     0.01175223f,  0.16777508f,  0.05228986f,  0.04050152f,  0.00771823f,  0.02095159f,  0.00810535f, -0.06262518f,
     0.06324269f,  0.09512258f, -0.06997946f,  0.07327089f, -0.00934661f,  0.02127832f,  0.05293795f,  0.00238300f,
    -0.04243828f, -0.06960823f,  0.00683654f,  0.12273520f, -0.14168979f,  0.12292217f,  0.11002014f,  0.05950446f,
    -0.02017390f,  0.04022875f, -0.01121665f,  0.00664085f,  0.05730000f,  0.08993662f, -0.01673506f,  0.03669251f,
     0.04923696f,  0.09233098f,  0.06083228f,  0.04897696f,  0.00444177f, -0.06583926f,  0.12447447f, -0.05520637f,
     0.03895749f, -0.06197975f,  0.04970232f, -0.03725819f,  0.08072449f, -0.03868192f, -0.01494506f,  0.02522512f,
     0.09702247f,  0.03571843f, -0.05688131f, -0.06153497f,  0.04671645f, -0.10432898f, -0.01463180f,  0.06462403f,
     0.08479902f,  0.15155213f,  0.18615954f,  0.03060882f, -0.02579316f,  0.06058563f,  0.02191488f,  0.01217340f,
    -0.11267073f,  0.01941004f,  0.01884516f,  0.12382565f,  0.09343683f, -0.06032221f,  0.04392913f, -0.09761681f,
    -0.00574659f,  0.01925641f,  0.08456203f,  0.05907785f,  0.08428016f, -0.12119544f,  0.15190297f, -0.03989825f,
     0.03585744f, -0.06753539f, -0.01310015f,  0.11820874f,  0.05624865f, -0.04846522f, -0.08087328f, -0.04544293f,
     0.01570710f,  0.03243557f,  0.12264939f,  0.04106456f, -0.09687731f, -0.02068146f,  0.00495365f,  0.00889520f,
     0.10506767f,  0.12152179f,  0.03983279f, -0.06065941f, -0.00440500f,  0.06918966f, -0.14880820f, -0.01599912f,
     0.01197197f, -0.09955283f, -0.11210432f,  0.03295046f,  0.05414561f, -0.00273195f, -0.05460887f,  0.14600393f,
    -0.01056647f,  0.05879152f, -0.08350428f,  0.01463992f, -0.12805857f, -0.03358651f,  0.13854446f, -0.00736206f,
    -0.00239012f, -0.02581584f,  0.06507467f,  0.09757629f,  0.01446671f,  0.04855159f,  0.15362412f,  0.03297182f,
    -0.06810743f,  0.02290861f, -0.05185819f, -0.05697967f, -0.14229372f,  0.01627319f,  0.05289981f,  0.17227456f,
     0.00658982f, -0.11491218f, -0.05176644f, -0.01529103f,  0.14131927f,  0.01454647f,  0.01825623f,  0.00280600f,
     0.11179300f, -0.08951613f,  0.14006767f, -0.02242799f,  0.11199529f, -0.03627934f,  0.08053708f,  0.01546126f,
    -0.08371212f, -0.03989525f,  0.01800292f, -0.06673949f,  0.06990300f, -0.01203181f, -0.12277623f, -0.06271225f,
     0.06208897f,  0.19005600f,  0.08209275f,  0.06789696f,  0.08655411f,  0.14234219f,  0.11049893f, -0.03035223f,
     0.09146278f,  0.01678407f, -0.07069308f,  0.02689184f, -0.10448143f,  0.00047761f,  0.04175832f,  0.07973351f,
     0.03096481f, -0.00983623f, -0.01738930f,  0.02759682f, -0.03997076f, -0.04079774f,  0.03396001f,  0.19223262f,
    -0.07618272f,  0.23447143f,  0.08170119f,  0.05336097f, -0.03495435f,  0.11574820f,  0.08198302f, -0.09703580f,
     0.06571207f, -0.04847356f, -0.05735910f,  0.12618481f,  0.06023653f, -0.01171952f, -0.05572579f, -0.03699386f,
     0.05650115f,  0.01534102f,  0.08715629f,  0.01863693f,  0.00546955f,  0.10015924f, -0.02047790f, -0.04027852f,
     0.08532565f,  0.11388426f,  0.00253524f,  0.06795957f,  0.14021024f,  0.11109464f, -0.03141904f, -0.02603156f,
     0.01998334f,  0.01590105f,  0.10343838f,  0.06596913f, -0.10182016f, -0.05636313f, -0.00573485f,  0.06811419f,
     0.17450638f,  0.06830665f,  0.13020554f,  0.05953681f,  0.04677010f,  0.02370830f, -0.14244595f, -0.01718899f,
     0.04800412f, -0.00546815f, -0.00141073f,  0.00200489f, -0.05540812f, -0.06314033f,  0.05739892f,  0.13383195f,
     0.06731528f,  0.11504126f,  0.04859280f, -0.02804392f, -0.01475213f, -0.00879512f,  0.17586817f,  0.02735195f,
    -0.01978400f,  0.08099233f,  0.22738047f, -0.07248688f, -0.01708282f,  0.07167231f,  0.04293168f,  0.01686445f,
    -0.00951301f,  0.03414533f, -0.01776983f,  0.00166109f,  0.03026072f,  0.00661506f,  0.07992917f,  0.03680851f,
     0.04693379f,  0.03670147f,  0.04634849f, -0.04519397f,  0.12553090f,  0.01168827f, -0.07994518f,  0.01140805f,
     0.07806487f, -0.00835601f,  0.16622016f, -0.01727077f,  0.14696610f,  0.05849716f,  0.04881123f,  0.00544218f,
     0.02252069f,  0.00295210f,  0.02647653f, -0.15420441f, -0.00195008f, -0.04243981f, -0.02921366f, -0.05977400f,
     0.07382394f,  0.24347426f,  0.00393831f, -0.03510354f,  0.25340313f,  0.14760457f,  0.05967444f, -0.01915151f,
     0.13520564f, -0.01901894f, -0.09447891f,  0.07594348f, -0.04139796f, -0.02289476f,  0.05957624f, -0.01558203f,
    -0.09418818f,  0.05945220f, -0.08351881f,  0.13636951f, -0.08884369f,  0.02631720f,  0.04404869f, -0.01421503f,
     0.04584685f,  0.05353949f,  0.00291399f, -0.00341889f,  0.02265438f,  0.08350416f,  0.03011432f,  0.01093177f,
     0.03661478f, -0.01628405f, -0.08443679f, -0.04054380f, -0.01261690f, -0.12084872f,  0.03453152f, -0.03846111f,
    -0.11105231f,  0.06535609f, -0.12042274f, -0.02596545f,  0.02876380f, -0.03177094f,  0.07373501f, -0.09829150f,
     0.09942099f,  0.09849571f, -0.04033643f,  0.04572503f, -0.00659687f, -0.10277468f,  0.04078316f, -0.09536152f,
     0.04028785f,  0.00129206f, -0.04116820f, -0.00875283f, -0.10922685f, -0.03560265f,  0.02922465f,  0.05319243f,
     0.03490387f, -0.06875411f, -0.03134827f,  0.07051215f,  0.00167158f,  0.02874169f,  0.03928480f,  0.09175745f,
     0.06630314f, -0.03113276f,  0.08404325f,  0.02689451f,  0.05255767f,  0.09759366f,  0.00987918f, -0.04288233f,
    -0.03131038f, -0.06628470f,  0.08627678f,  0.05735539f, -0.08042049f, -0.01391744f, -0.03512338f,  0.04231272f,
     0.10947538f,  0.01145464f, -0.10925225f, -0.01139974f, -0.03145467f, -0.09581745f,  0.01345716f,  0.09678309f,
    -0.10487094f,  0.04277723f,  0.11014979f,  0.05588693f, -0.03924372f,  0.06908859f,  0.08839101f,  0.01797655f,
     0.10410187f, -0.04149721f, -0.04705330f,  0.09049797f,  0.11328511f,  0.03824653f,  0.00991115f,  0.04872466f,
     0.16278668f,  0.05311761f,  0.00354789f, -0.01867278f,  0.10154890f,  0.01594990f,  0.07812011f,  0.02476784f,
     0.03761613f, -0.00154201f,  0.16722086f,  0.04814420f,  0.06005263f,  0.04067569f,  0.07306826f,  0.00162228f,
    -0.04199276f, -0.06043286f,  0.03561893f, -0.05804347f, -0.06503714f, -0.03382359f, -0.04708629f,  0.03489291f,
    -0.11795279f,  0.00031969f,  0.01817596f, -0.09253167f,  0.00577367f,  0.04693854f, -0.14769165f, -0.02951925f,
     0.00563201f, -0.04772847f,  0.08407825f,  0.04573690f, -0.04360570f,  0.05664033f,  0.10578247f, -0.06644854f,
    -0.09927363f, -0.00955196f,  0.08016539f,  0.03738996f,  0.05832819f, -0.01038218f, -0.05878259f,  0.05378417f,
    -0.00939877f, -0.11115950f, -0.00701108f,  0.15046234f,  0.15399840f,  0.07872424f,  0.05160421f,  0.02280577f,
    -0.02232928f,  0.02453205f,  0.03733643f, -0.03419038f,  0.02974086f, -0.10329431f,  0.17626397f, -0.08769493f,
    -0.04841945f,  0.08730794f,  0.08486239f, -0.01661944f,  0.14195614f,  0.14570031f,  0.09957398f, -0.12095422f,
    -0.08391593f, -0.01365186f,  0.01505277f,  0.06029148f,  0.07118939f,  0.05014967f, -0.08376338f,  0.08227306f,
     0.03453612f,  0.14179745f,  0.07821999f, -0.03305030f, -0.09008993f,  0.08611774f, -0.03176945f, -0.01078983f,
     0.03936026f,  0.00339240f,  0.02611578f, -0.00930285f,  0.10778132f,  0.10510026f,  0.07024666f,  0.11205474f,
    -0.01308682f, -0.02099675f, -0.06319709f,  0.03447205f, -0.04286181f,  0.11145794f, -0.02151850f,  0.06685792f,
     0.00654771f, -0.06693470f,  0.20968296f,  0.10032359f,  0.03197315f,  0.10164660f,  0.09228906f,  0.08953345f,
     0.02018143f,  0.12372224f,  0.01921314f,  0.10623002f,  0.03926333f, -0.03208026f,  0.03266058f,  0.04897702f,
     0.10646273f,  0.11224745f,  0.03736201f, -0.08787640f,  0.02186692f, -0.09560461f, -0.09358606f,  0.17571515f,
    -0.06503432f, -0.06343067f, -0.02226160f,  0.10904620f,  0.03411031f,  0.11022202f, -0.00199129f,  0.00369187f,
    -0.14458773f,  0.05962368f,  0.13296334f, -0.03360001f, -0.06098744f, -0.03184003f, -0.08874465f, -0.14216784f,
     0.18952991f,  0.04128256f,  0.07683964f, -0.09427141f,  0.16122143f,  0.02568569f,  0.04175982f,  0.05806785f,
     0.09916841f,  0.01513857f, -0.03141525f,  0.08836842f,  0.09021910f, -0.00759557f, -0.01527025f, -0.03692518f,
     0.04053314f,  0.01653868f, -0.07180735f,  0.00536731f,  0.00290906f, -0.01923889f, -0.03724551f, -0.10356914f,
     0.12097373f, -0.03826573f,  0.00372974f, -0.06974663f, -0.00024942f, -0.03767405f,  0.21582964f,  0.05757575f,
    -0.13563128f,  0.00466404f,  0.11094818f, -0.00831334f, -0.09647020f, -0.05424361f,  0.21392614f, -0.05980391f,
    -0.00364928f,  0.06142538f, -0.04433431f,  0.13615297f,  0.03197797f,  0.08926654f, -0.01521175f, -0.05447988f,
    -0.04971117f, -0.01432079f, -0.03080966f,  0.10121270f,  0.03913271f, -0.03848273f,  0.00434595f,  0.12163033f,
     0.03540973f,  0.00643249f,  0.12708077f, -0.02842957f,  0.02525463f,  0.06428216f, -0.01976738f,  0.02362513f,
     0.07198574f, -0.09474282f,  0.09968073f, -0.03481205f,  0.15600324f, -0.05505498f, -0.02294076f,  0.03422502f,
    -0.03113522f, -0.03085360f,  0.06967427f, -0.01926015f,  0.08287355f, -0.04862477f, -0.06060145f, -0.05772339f,
     0.01410301f, -0.11857400f,  0.08237511f, -0.12870519f,  0.08561805f, -0.11140554f,  0.02227557f,  0.13354775f,
     0.07910077f,  0.11726409f, -0.08926425f, -0.02990411f,  0.01034300f,  0.01234707f, -0.07888214f, -0.03166876f,
     0.04372089f, -0.08018754f, -0.00117459f, -0.00799558f, -0.11163660f,  0.01955828f, -0.01787882f,  0.05351967f,
     0.03662816f, -0.01092122f,  0.06448692f, -0.05984034f,  0.10598718f,  0.04943375f,  0.09633931f, -0.12731846f,
     0.05527637f,  0.05615746f,  0.04875145f, -0.07484876f, -0.06599435f,  0.04035636f, -0.01141741f,  0.05715501f,
     0.04234659f,  0.02653989f, -0.07546895f,  0.05483516f,  0.12858456f, -0.03244038f, -0.08856796f,  0.05795845f,
    -0.02014585f,  0.00293733f, -0.04439089f,  0.12568027f,  0.00298868f, -0.09410619f, -0.00581445f,  0.01422160f,
    -0.09408687f, -0.00288733f, -0.01591986f,  0.04950692f,  0.07233953f,  0.03191350f, -0.03940350f, -0.00175713f,
    -0.00035272f,  0.06104432f,  0.04831383f,  0.09310193f,  0.08738913f,  0.15682492f,  0.17968266f,  0.08974529f,
    -0.07702605f,  0.03849055f,  0.00831602f,  0.14011280f, -0.08450340f,  0.13483727f, -0.02275679f, -0.00601234f,
     0.10062257f, -0.05597574f,  0.01231966f,  0.11042330f,  0.03718254f,  0.07565828f, -0.13015246f, -0.02347963f,
    -0.03148378f, -0.11541001f,  0.05917456f, -0.01914741f, -0.13541128f,  0.07720181f, -0.01557793f,  0.06593115f,
     0.00611436f,  0.05874656f, -0.05686427f,  0.03733043f,  0.03724352f,  0.08512724f,  0.00845478f, -0.08216657f,
     0.05065868f, -0.09154971f, -0.15681666f,  0.15912072f, -0.18847252f,  0.09975541f,  0.10719199f, -0.03209386f,
     0.17005844f,  0.10315696f,  0.10285808f,  0.11977349f, -0.02627538f,  0.05240981f, -0.05269365f, -0.12699370f,
     0.06752110f,  0.05403586f, -0.09660433f, -0.09610458f, -0.05405443f, -0.05377804f,  0.08723491f,  0.02599603f,
    -0.01448031f,  0.10719381f,  0.02679306f,  0.19236816f, -0.13185649f,  0.11570382f,  0.03734485f,  0.04670508f,
